{"arch": {"hidden": 128, "t_proj": ["Linear(32,128)", "SiLU", "Linear(128,128)"], "net": ["Linear(130,128)", "SiLU", "Linear(128,128)", "SiLU", "Linear(128,128)", "SiLU", "Linear(128,2)"], "freqs": [1.0, 1.7046048641204834, 2.9056777954101562, 4.953032970428467, 8.442964553833008, 14.39191722869873, 24.53253746032715, 41.81827926635742, 71.28360748291016, 121.51038360595703, 207.12718200683594, 353.0701599121094, 601.8450927734375, 1025.9080810546875, 1748.767822265625, 2980.9580078125], "schedule": {"beta_min": 0.1, "beta_max": 20.0}}, "weights": {"t_proj.0.weight": [[0.0027150162495672703, -0.015559635125100613, -0.01586097851395607, 0.0026977669913321733, -0.002999483374878764, -0.0182914137840271, 0.0026797535829246044, -0.03296574577689171, 0.012454405426979065, -0.00990291964262724, -0.005636298097670078, 0.007154655642807484, 0.004965008236467838, -0.002140830736607313, 0.00934382900595665, -0.01069755107164383, 0.017635799944400787, 0.02562892623245716, 0.007194590289145708, -0.014972851611673832, -0.018411271274089813, 0.014264008961617947, -0.02045554667711258, 0.019663900136947632, 0.017861677333712578, -0.02055264078080654, 0.013012027367949486, 0.005543800070881844, -0.02825414575636387, 0.002846307586878538, 0.0031451652757823467, 0.013832795433700085], [0.006626840215176344, -8.301880006911233e-05, -0.010445359162986279, 0.004164272919297218, 0.027645934373140335, -0.012901781126856804, 0.00903412140905857, -0.030148332938551903, -0.009216491132974625, -0.005154508166015148, 0.016135085374116898, 0.012725024484097958, 0.022202549502253532, 0.022748015820980072, 0.006624890957027674, -0.0033450538758188486, 0.0029086570721119642, -0.011623612605035305, 0.016376813873648643, -0.027400627732276917, 2.777139889076352e-05, 0.03293566033244133, 0.001508682849816978, -0.028963381424546242, -0.007211373187601566, 0.007292014546692371, 0.025366824120283127, 0.0016742434818297625, -0.021632948890328407, -0.021104365587234497, 0.01653231494128704, -0.018952475860714912], [0.4692871868610382, 0.13330261409282684, 0.05337335914373398, 0.07539185881614685, 0.02663515880703926, 0.08632537722587585, -0.03223976865410805, -0.027718298137187958, 0.013319943100214005, 0.014254563488066196, 0.030471662059426308, 0.017944160848855972, -0.012684631161391735, -0.02896619588136673, -0.007639167830348015, 0.003934095613658428, 0.08585812151432037, 0.33383381366729736, 0.1557312160730362, 0.05385734513401985, -0.11469689011573792, 0.1106119230389595, 0.0532512404024601, 0.013380632735788822, -0.02659756690263748, -0.03060801886022091, 0.049090515822172165, 0.026202993467450142, 0.009133330546319485, -0.008099065162241459, -0.02612907439470291, 0.021238530054688454], [0.036070358008146286, 0.0038247951306402683, 0.006846345495432615, 0.007590016350150108, -0.01293972134590149, 0.0029347888194024563, -0.027114542201161385, -0.00017279235180467367, -0.011007444001734257, -0.015132196247577667, -0.004268481396138668, 0.0004702526784967631, -0.014898101799190044, -0.026152189821004868, -0.03134449943900108, -0.022623101249337196, -0.011804821901023388, -0.0022192327305674553, -0.004094866104424, 0.03878343850374222, 0.009742888621985912, 0.017939448356628418, -0.004154931288212538, -0.010466299951076508, -0.0029192897491157055, -0.02166042849421501, -0.00011511787306517363, -0.00790935754776001, 0.04008007422089577, -0.03471194580197334, 0.01010880246758461, 0.0013272517826408148], [0.01215002778917551, 0.002166453516110778, -0.014187147840857506, -0.005307500716298819, 0.008169922046363354, -0.02564321458339691, -0.03350663557648659, -0.03256458044052124, -0.014703796245157719, -0.015377156436443329, 0.03229835256934166, 0.026512430980801582, -0.00059729308122769, 0.013890573754906654, -0.015958720818161964, -0.0027587986551225185, -0.0019823096226900816, -0.013052300550043583, 0.006911216303706169, -0.020122427493333817, 0.007004166021943092, -0.017368953675031662, 0.009113959968090057, -0.00360869150608778, -0.013789043761789799, 0.00135486526414752, 0.04218099266290665, 0.016834735870361328, 0.013764236122369766, -0.03553491085767746, 0.026673447340726852, -0.010667627677321434], [-0.004895993508398533, 0.010714058764278889, -0.01431685034185648, -0.005090279038995504, 0.022921862080693245, 0.013313030824065208, -0.023850979283452034, -0.014647312462329865, -0.004133334383368492, 0.0037701171822845936, 0.007949785329401493, 0.015401753596961498, 0.0037045245990157127, 0.0033045681193470955, -0.004686036612838507, 0.019272420555353165, -0.0005483964341692626, -0.013115888461470604, 0.0037064100615680218, -0.006295476108789444, 0.021275579929351807, -0.009596898220479488, 0.006324602756649256, -0.0048438310623168945, -0.012596972286701202, 0.0013950279681012034, 0.01926439069211483, 0.016505150124430656, 0.023868199437856674, -0.008271894417703152, 0.026659928262233734, 0.014649154618382454], [0.011125262826681137, 0.0006090446258895099, -0.006651276256889105, -0.007891041226685047, -0.014893990010023117, 0.009025068022310734, -0.013160445727407932, 0.04516807198524475, 0.01453479565680027, 0.011725587770342827, 0.006304933689534664, -0.01142907701432705, -0.006872091442346573, -0.0031992546282708645, -0.009096330963075161, -0.012191045098006725, -0.00614693108946085, -0.008060608990490437, -0.009082652628421783, 0.00376366195268929, 0.006060911808162928, -0.00041391223203390837, 0.012847541831433773, -0.0005318837356753647, -0.0214710496366024, 0.01274173241108656, 0.004772869870066643, 0.031079478561878204, 0.0180335883051157, -0.0020100311376154423, -0.001645368174649775, -0.009896079078316689], [-0.25692763924598694, 0.13132162392139435, 0.1218094602227211, 0.09287983179092407, -0.02915787510573864, -0.03956989571452141, -0.015174689702689648, -0.013279569335281849, 0.02375451847910881, 0.06084064766764641, 0.04156522825360298, 0.028938615694642067, 0.07251764088869095, -0.054820917546749115, 0.014310963451862335, -0.017724068835377693, -0.23352384567260742, -0.0341915562748909, 0.02272050827741623, -0.0914282277226448, 0.19626036286354065, -0.033849459141492844, 0.09978948533535004, -0.07430016994476318, -0.007654815446585417, 0.015255273319780827, 0.012480593286454678, -0.012541061267256737, 0.02434699423611164, -0.012624381110072136, -0.02764861285686493, -0.05180996283888817], [-0.2572624981403351, 0.35053005814552307, 0.2572955787181854, 0.2985144853591919, -0.08531279116868973, -0.16482499241828918, 0.030757155269384384, 0.016570134088397026, -0.029073921963572502, -0.0035339149180799723, -0.004510487429797649, 0.014635621570050716, -0.015054946765303612, 0.013655552640557289, 0.01593063212931156, 0.011382394470274448, -0.3107556700706482, 0.15985701978206635, 0.0024330802261829376, -0.23632897436618805, 0.26967746019363403, 0.14751727879047394, 0.05560709163546562, 0.0017318549798801541, -0.0046001882292330265, 0.0060165878385305405, -0.01325972005724907, 0.019202912226319313, 0.0004222350544296205, 0.02477080747485161, 0.01874675042927265, 0.03319165110588074], [-0.003675606567412615, 0.005582961719483137, 0.017531702294945717, 0.005456165410578251, 0.0006905493792146444, 0.023546995595097542, 0.0029816546011716127, 0.018663588911294937, 0.0072913519106805325, 0.0015131287509575486, -0.0005198160652071238, 0.018036765977740288, 0.0025264753494411707, 0.014592144638299942, -0.009855568408966064, -0.009323797188699245, 0.002873543882742524, 0.02120092883706093, -0.028305282816290855, 0.01908709853887558, -0.02291642315685749, 0.011082188226282597, -0.03455571085214615, 0.01935308240354061, 0.024394715204834938, -0.004184880293905735, 0.011763045564293861, -0.008618997409939766, -0.049884133040905, 0.01170892920345068, 0.03216719627380371, -0.01501346006989479], [0.01575552299618721, -0.006062712054699659, -0.005220432300120592, -0.0018020719289779663, -0.011427570134401321, -0.03902723640203476, -0.05254828557372093, -0.004349653143435717, -0.004956630524247885, 0.017145154997706413, 0.016105325892567635, 0.017301704734563828, 0.013391546905040741, -0.01159136462956667, -0.013768819160759449, 0.027806252241134644, 0.004599696025252342, 0.0012999955797567964, -0.008027732372283936, 0.029941951856017113, 0.030518637970089912, -0.00213289400562644, -0.0045781731605529785, -0.022241098806262016, -0.011983862146735191, -0.010698894970119, -0.002811275888234377, -8.353762677870691e-05, 0.027530193328857422, -0.016894152387976646, 0.0072052860632538795, 0.0006496371934190392], [-0.011462940834462643, 0.009540352039039135, 0.011813943274319172, 0.01094299927353859, -0.02415706403553486, 0.006284527480602264, -0.014063608832657337, -0.009305164217948914, 0.009039071388542652, -0.0019197814399376512, -0.008566093631088734, 0.009090803563594818, 0.0047334935516119, -0.00668288441374898, 0.007988831028342247, 0.016897249966859818, 0.008243600837886333, 0.013280028477311134, -0.018665168434381485, 0.04122307896614075, -0.012487038969993591, 0.007261162158101797, -0.03771195560693741, 0.007006510626524687, 0.015826188027858734, 0.003130462719127536, 0.012233719229698181, 0.018566826358437538, -0.04051351174712181, 0.009685998782515526, 0.05300683528184891, -0.0065985857509076595], [0.08337351679801941, -0.014209354296326637, 0.22588478028774261, 0.1817193478345871, 0.12365521490573883, 0.12297828495502472, 0.08516530692577362, 0.029555510729551315, -0.008732215501368046, -0.02526748739182949, -0.009889907203614712, 0.016101734712719917, -0.0014958749525249004, -0.0123186269775033, -0.011867121793329716, 0.0030876018572598696, 0.5884492993354797, 0.5290882587432861, 0.16728176176548004, 0.39842355251312256, 0.3118855655193329, -0.14250220358371735, 0.09305231273174286, 0.04322507977485657, 0.0010098118800669909, -0.008563495241105556, 0.0024243744555860758, 0.004883334040641785, 0.024730738252401352, 0.02426268346607685, 0.01210099458694458, -0.022280752658843994], [-0.0026865575928241014, 0.008743196725845337, -0.008553019724786282, -0.01282102894037962, 0.015935175120830536, 0.01587335392832756, -0.022081837058067322, -0.0019468581303954124, 0.016949549317359924, 0.0016384811606258154, -0.01651516929268837, -0.0070454441010952, 0.003526306478306651, 0.013248077593743801, 2.359095378778875e-05, -0.003185262205079198, -0.017026342451572418, 0.009950709529221058, -0.01579946279525757, -0.013474556617438793, -0.009156777523458004, -0.019057951867580414, -0.014308568090200424, -0.01106585655361414, 0.0031014352571219206, 0.020190803334116936, 0.008028235286474228, 0.01738864742219448, -0.012263229116797447, -0.01566818356513977, 0.02768302522599697, -0.007282664533704519], [0.0023922028485685587, 0.012236819602549076, -0.011418486014008522, 0.02287132292985916, 0.015734490007162094, 0.03277697414159775, 0.012639502994716167, -0.042405057698488235, -0.006186524406075478, 0.000558341620489955, -0.0020300752948969603, 0.02579454518854618, 0.00171251455321908, 0.006914728321135044, -0.00937236100435257, -0.027584705501794815, 0.024899348616600037, 0.009709261357784271, -0.024373933672904968, 0.0137479268014431, -0.028019897639751434, 0.005476247053593397, 0.009007575921714306, -0.028257980942726135, 0.028503241017460823, -0.02076125331223011, 0.008877165615558624, -0.03619164600968361, 0.03565583750605583, -0.016323262825608253, 0.06527067720890045, 0.01605009287595749], [-0.37867966294288635, -0.3129684627056122, -0.324783593416214, 0.10488784313201904, 0.02608419954776764, -0.0950712189078331, 0.07019331306219101, -0.03270788863301277, 0.0007454614387825131, -0.0058051119558513165, -0.02093534544110298, 0.03973685950040817, 0.018282074481248856, -0.019747376441955566, 0.03011077642440796, -0.0016258342657238245, -0.07550857961177826, -0.11838237196207047, 0.22228504717350006, 0.41803252696990967, -0.13719241321086884, 0.03802793473005295, -0.010409952141344547, 0.07042117416858673, 0.04594706371426582, -0.016953814774751663, -0.009684473276138306, -0.018096711486577988, 0.0027814172208309174, 0.017847111448645592, -0.03226245939731598, 0.005852106027305126], [-0.13034145534038544, -0.23719176650047302, -0.15465956926345825, 0.05614575743675232, -0.13668586313724518, 0.03275248035788536, -0.056500378996133804, -0.006259159650653601, 0.015351001173257828, -0.04679244011640549, -0.007321322802454233, -0.028060516342520714, -0.04644601419568062, 0.01808321475982666, 0.020325202494859695, -0.05034380778670311, 0.02699539065361023, -0.16720299422740936, 0.14508208632469177, 0.2780044674873352, -0.13133256137371063, -0.11389622092247009, -0.043077562004327774, 0.05628957599401474, -0.02068411186337471, -0.06112748011946678, 0.009704290889203548, 0.03489047661423683, -0.023625236004590988, 0.003474827390164137, -0.05338268727064133, -0.05910982936620712], [-0.0035375370644032955, 0.02566538192331791, 0.005986456759274006, -0.011350859887897968, -0.02283296175301075, -0.015924207866191864, -0.015076768584549427, 0.03723585605621338, 0.001463832100853324, 9.341136319562793e-05, 0.004958393983542919, -0.03262072429060936, -0.012797318398952484, -0.011803069151937962, -0.0006486638449132442, 0.01233309879899025, -0.044759929180145264, 0.017095768824219704, 0.004975360352545977, 0.010808080434799194, 0.0021880678832530975, -0.030779946595430374, -0.02411041595041752, -0.004718895070254803, -0.030234431847929955, 0.012460866011679173, -0.054813627153635025, 0.05806636065244675, 0.008621503598988056, -0.015609482303261757, -0.027206452563405037, 0.007503204047679901], [-0.0359870009124279, -0.05448044091463089, -0.06340910494327545, 0.1508605182170868, -0.037945885211229324, -0.0855666771531105, -0.0817376971244812, 0.017034323886036873, 0.00029078428633511066, -0.024815937504172325, 0.0013394106645137072, 0.04420096427202225, 0.03640875592827797, 0.009994838386774063, 0.010121687315404415, 0.01529762428253889, -0.1420246958732605, -0.06268469244241714, 0.021309372037649155, 0.11963360011577606, 0.14161095023155212, -0.013571677729487419, 0.07826228439807892, 0.023020800203084946, -0.04012467712163925, 0.019729813560843468, -0.01271359995007515, 0.02586996741592884, -0.016814440488815308, -0.011686484329402447, -0.006614962592720985, -0.016777636483311653], [0.007171174511313438, 0.03416121378540993, 0.0049385675229132175, -0.01375321950763464, 0.0052164108492434025, 0.042060382664203644, 0.029028093442320824, 0.027129681780934334, 0.010794094763696194, -0.008200841024518013, 0.006020969711244106, 0.010892736725509167, -0.02594750002026558, 0.0026614840608090162, -0.02317073941230774, -0.008292256854474545, 0.009522242471575737, -0.013108530081808567, 0.028322814032435417, 0.018365975469350815, -0.0220781397074461, 0.024687254801392555, -0.021201394498348236, 0.001107523450627923, -0.006860638037323952, -0.021823331713676453, 0.021918360143899918, -0.016301684081554413, -0.011338965967297554, -0.024038556963205338, 0.022649679332971573, -0.005959494970738888], [0.00354104139842093, -0.0010307825868949294, 0.005408790428191423, -0.00951048731803894, -0.007241790182888508, 0.014334607869386673, -0.007131813559681177, 0.01193537749350071, 0.016730530187487602, 0.0006824128213338554, -0.01679987646639347, -0.0122720617800951, -0.0036290623247623444, 0.012085567228496075, 0.000507411255966872, 0.0039770533330738544, -0.011382036842405796, 0.0009185899398289621, -0.030993860214948654, 0.0009028436033986509, -0.005848762113600969, -0.027619455009698868, 0.002604786306619644, -0.014762240462005138, 0.007913720794022083, 0.027730826288461685, 0.028305957093834877, 0.0018674724269658327, -0.03454495593905449, 0.024291880428791046, -0.0010366763453930616, -0.01642921194434166], [0.009859167970716953, -0.025286640971899033, 0.02509625256061554, -0.005502135958522558, 0.011254723183810711, 0.015328140929341316, 0.022712161764502525, -0.01734929531812668, -0.024933768436312675, -0.006716740317642689, -0.024954378604888916, -0.013571711257100105, 0.014479998499155045, -0.0004907020484097302, 0.006559023633599281, -0.03257471323013306, 0.02970591001212597, -0.0063622379675507545, 0.00045514293015003204, -0.012032860890030861, 0.001307812170125544, 0.007957711815834045, -0.00018575938884168863, -0.0003765337460208684, 0.03979659825563431, -0.0051929159089922905, 0.029266946017742157, -0.037231992930173874, 0.0064073591493070126, 0.021389562636613846, -0.012857520952820778, 0.018986055627465248], [0.0008915762882679701, -0.0021183618810027838, -0.0005819384241476655, 0.005943384021520615, -0.012540340423583984, 0.0066138822585344315, 0.04590122029185295, 0.018457436934113503, 0.04598826915025711, -0.012731963768601418, -0.02123967744410038, -0.0364079587161541, 0.0072833942249417305, -0.01922481879591942, 0.014703265391290188, -0.0022674512583762407, 0.014139438979327679, 0.0031010988168418407, -0.0035647847689688206, -0.01104114018380642, -0.00854512955993414, 0.016257477924227715, 0.01329960860311985, -0.03353818506002426, -0.011644051410257816, 0.004201902542263269, 0.014082750305533409, -0.014766261912882328, 0.009322305209934711, 0.01774071902036667, 0.010162504389882088, -0.030838537961244583], [-0.0015082735335454345, -0.008509018458425999, 0.0017836077604442835, -0.0037261315155774355, 0.0012307651340961456, -0.03049737960100174, 0.0008514561923220754, -0.0429573617875576, -0.002748998813331127, 0.01741035468876362, -0.010874351486563683, -0.0007224270375445485, 0.026945751160383224, -0.00849315244704485, -0.0017398027703166008, 0.023446088656783104, 0.018959950655698776, 0.005646407604217529, 0.004721466451883316, 0.004553209524601698, 0.041010260581970215, 0.027447765693068504, 0.017449092119932175, -0.026700107380747795, 0.0018504314357414842, 0.005808023735880852, 0.017085541039705276, -0.05626454949378967, 0.02370719239115715, 0.022373264655470848, 0.032230012118816376, 0.029012683779001236], [-0.022888803854584694, -0.01562332920730114, 0.00852406769990921, 0.01077596377581358, 0.006577254272997379, -0.013098283670842648, 0.031671833246946335, 0.005065324250608683, -0.00992787629365921, -0.014797797426581383, 0.0010590371675789356, -0.03203602880239487, -0.0032427033875137568, 0.004073497373610735, -0.002057665726169944, -0.0037581766955554485, 0.01133959461003542, -0.006335073616355658, -0.02588622458279133, -0.017789429053664207, -0.006609173957258463, 0.00780882453545928, 0.009412563405930996, 0.025020072236657143, 0.023577501997351646, -0.004727798048406839, -0.015975140035152435, -0.008987576700747013, -0.01907247118651867, 0.02504490688443184, 0.004574259743094444, 0.029274793341755867], [0.04149598628282547, 0.0018425502348691225, -0.00021012770594097674, 0.007584164384752512, -0.01136997900903225, 0.005897571798413992, 0.04728744551539421, 0.012033721432089806, 0.008733171969652176, 0.016131168231368065, 0.004460738506168127, 0.011423942632973194, -0.016583528369665146, -0.021600496023893356, 0.003945004194974899, 0.013688620179891586, -0.0025820082519203424, -0.002106314990669489, 0.02678593620657921, 0.006821371149271727, 0.023716118186712265, 0.02052083984017372, 0.015839245170354843, -0.042774565517902374, -0.033461615443229675, 0.007429879624396563, 0.00859862845391035, -0.010138550773262978, 0.011167272925376892, -7.34303321223706e-05, -0.005073510576039553, -0.023166850209236145], [-0.0019062061328440905, -0.004193004220724106, -0.008217951282858849, 0.00595874385908246, -0.005970105063170195, -0.0011755628511309624, -0.027886737138032913, 0.009006548672914505, -0.009854009374976158, 0.007358441594988108, 0.02418294921517372, 0.015639204531908035, -0.019430488348007202, -0.011005030013620853, -0.04528087377548218, -0.03191835805773735, -0.009098168462514877, 0.003929380793124437, -0.011157951317727566, 0.0013862531632184982, -0.007580737117677927, -0.017223404720425606, 0.003657007124274969, 0.04168034717440605, -0.008659754879772663, -0.02180762030184269, -0.030764799565076828, 0.01663481630384922, 0.019345395267009735, -0.024511678144335747, -0.036823347210884094, 0.019910939037799835], [0.05069424584507942, -0.0752272680401802, 0.0661274865269661, 0.020041542127728462, -0.00827823393046856, -0.0329253152012825, 0.027644742280244827, -0.02970234863460064, 0.005223358049988747, 0.015413014218211174, 0.019059283658862114, -0.0012454965617507696, -0.009428982622921467, 0.05288901925086975, 0.0016489337431266904, -0.0012579476460814476, 0.025517042726278305, 0.04725910350680351, -0.007028500083833933, -0.002924109809100628, -0.023966526612639427, 0.09392138570547104, 0.01691988855600357, -0.027600765228271484, -0.007179661653935909, -0.00848639290779829, 0.001074356958270073, -0.009925175458192825, -0.0129671236500144, 0.01717468909919262, -0.024202639237046242, 0.027491964399814606], [-0.31670844554901123, -0.2445354014635086, -0.046973709017038345, -0.10800836980342865, 0.03156197816133499, 0.1170639768242836, -0.02574574202299118, -0.01559023279696703, 0.029685666784644127, -0.03357572853565216, -0.027031684294342995, 0.009914194233715534, -0.0036527293268591166, -0.029862547293305397, 0.046558674424886703, 0.048674166202545166, 0.08867301791906357, -0.11238504201173782, 0.15182983875274658, 0.12660741806030273, -0.17789162695407867, -0.09303072094917297, 0.02046331763267517, -0.026103423908352852, 0.020944487303495407, -0.044753771275281906, -0.03796369209885597, 0.01680782437324524, 0.052251119166612625, 0.014075547456741333, 0.039438970386981964, -0.04061174392700195], [0.0752381831407547, -0.04788315296173096, 0.10554547607898712, 0.02120273932814598, -0.13586261868476868, -0.035897597670555115, 0.08513498306274414, 0.005768424365669489, -0.03309803828597069, -0.027265267446637154, 0.05751654505729675, -0.026059679687023163, -0.04755295813083649, -0.062361687421798706, -0.0013589197769761086, -0.016595765948295593, 0.03723970800638199, 0.12127179652452469, 0.060024138540029526, -0.08243153989315033, -0.16288836300373077, 0.12701676785945892, -0.04513134807348251, -0.01095246896147728, -0.013844103552401066, 0.01006400864571333, -0.031139768660068512, -0.01094498299062252, 0.01686495915055275, 0.02968316152691841, -0.022866977378726006, 0.027934787794947624], [-0.14654365181922913, -0.09078727662563324, -0.010371353477239609, -0.12600800395011902, -0.1435471475124359, 0.011193349026143551, 0.08248551189899445, -0.018384607508778572, 0.037639353424310684, 0.031772129237651825, 0.03161603584885597, 0.023342188447713852, 0.03195260465145111, -0.006808331701904535, 0.02164158970117569, -0.05619066208600998, -0.07191328704357147, -0.08278445899486542, -0.16946856677532196, 0.020946942269802094, -0.00663390289992094, -0.02899785153567791, 0.03171653300523758, 0.044934239238500595, -0.039505477994680405, -0.005645682569593191, 0.009259490296244621, 0.03377025946974754, -0.026118867099285126, -0.04120669513940811, -0.030408265069127083, 0.01742345653474331], [0.004026949405670166, 0.017127247527241707, 0.0023977067321538925, -0.00399418268352747, -0.015030452981591225, -0.005910842213779688, -0.008415935561060905, -0.0014594967942684889, 0.015111072920262814, -0.002994643757119775, -0.003106730291619897, -0.012338731437921524, -0.014609859324991703, -0.012725366279482841, 0.010118606500327587, -0.02742691896855831, -0.0020094618666917086, 0.02028011716902256, -0.014978942461311817, 0.027287010103464127, -0.026611410081386566, -0.009915780276060104, -0.028821373358368874, 0.014415494166314602, 0.005641910247504711, 0.02065914496779442, -0.01784212701022625, -0.0008521905401721597, -0.007337394170463085, 0.01952180825173855, -0.0019506062380969524, -0.012633375823497772], [-0.2964057922363281, -0.13242150843143463, -0.011077129282057285, 0.29447516798973083, 0.010292945429682732, -0.13809162378311157, 0.008889946155250072, -0.03889620676636696, -0.02505592443048954, -0.025827093049883842, 0.0023161598946899176, 0.037899378687143326, -0.07340270280838013, -0.032310839742422104, -0.015184067189693451, -0.0043572718277573586, -0.38452446460723877, 0.021053114905953407, -0.046729762107133865, 0.03377322107553482, 0.28113195300102234, -0.05838477984070778, 0.1486513763666153, -0.04344918206334114, -0.03894484043121338, 0.05116558447480202, -0.02467312477529049, -0.03500746935606003, -0.0058724903501570225, 0.035201773047447205, -0.004182254895567894, -0.005336962640285492], [0.2982215881347656, 0.19764859974384308, 0.046090900897979736, 0.06342281401157379, 0.07251390069723129, -0.03816100209951401, 0.03479892760515213, 0.021913019940257072, -0.035281598567962646, -0.009519964456558228, 0.006029472220689058, -0.003978733904659748, -0.0028525772504508495, 0.017106927931308746, -0.06626957654953003, -0.007875783368945122, 0.024660561233758926, -0.07106474786996841, 0.11159897595643997, -0.07003295421600342, -0.29778483510017395, -0.10143615305423737, 0.03392033651471138, 0.05693364143371582, 0.006237019319087267, -0.009899196214973927, 0.006852872669696808, 0.011960877105593681, -0.03291480988264084, 0.02665235847234726, 0.01580803096294403, -0.006675735116004944], [-0.011683810502290726, 0.0724516287446022, 0.034157395362854004, 0.2539634108543396, -0.019412333145737648, 0.0073049371130764484, -0.006525387521833181, 0.025960490107536316, -0.05455736815929413, -0.004808733239769936, -0.007351640146225691, -0.004239438567310572, -0.040816016495227814, -0.012011609971523285, 0.05217638611793518, 0.02478572353720665, -0.2251119613647461, -0.031131748110055923, -0.042252011597156525, -0.031194796785712242, 0.243290513753891, -0.0044029694981873035, 0.023123642429709435, -0.030499683693051338, 0.03305496647953987, 0.03730468824505806, -0.018423976376652718, -0.05138085409998894, -0.023355189710855484, -0.0702848881483078, 0.049326494336128235, -0.008219153620302677], [0.0026700678281486034, -0.014495579525828362, 0.01834646239876747, -0.019408341497182846, -0.004331305623054504, 0.013422761112451553, 0.020789995789527893, 0.03509760648012161, 0.016896966844797134, -0.0013241639826446772, -0.010766652412712574, 0.000472469546366483, -0.030670879408717155, 0.023669153451919556, -0.010131146758794785, 0.014933193102478981, -0.0013302364386618137, -0.013572282157838345, 0.011285759508609772, -0.01498608198016882, -0.015350183472037315, -0.004322296008467674, 0.02110317535698414, 0.009652354754507542, 0.009869727306067944, -0.04552566260099411, 0.026009637862443924, 0.030450081452727318, -0.002848830074071884, 0.001670429133810103, -0.023225754499435425, -0.011411328800022602], [-0.018638715147972107, -0.0007308851927518845, 0.016161831095814705, 0.004942744970321655, 0.0133639145642519, 0.016434956341981888, 0.020312398672103882, 0.011316273361444473, 0.006336267571896315, -0.002389131346717477, -0.0037188928108662367, -0.009899665601551533, 0.010982121340930462, 0.013611067086458206, 0.006835483945906162, 0.018045218661427498, -0.01328149065375328, -0.007389003410935402, 0.005224352702498436, -0.012352840043604374, -0.019859706982970238, 0.018314773216843605, 0.010758597403764725, 0.015721607953310013, 0.010087713599205017, -0.018389621749520302, -0.022148173302412033, 0.017733121290802956, -0.005485953763127327, -0.019429050385951996, 0.02887043170630932, 0.01437259279191494], [-0.08893652260303497, -0.11080621182918549, -0.10151109099388123, -0.013361391611397266, 0.09705457836389542, 0.002041808795183897, -0.03804440796375275, 0.002133639995008707, 0.007191061973571777, 0.00021370023023337126, 0.033870965242385864, 0.018958428874611855, 0.011221212334930897, -0.030657434836030006, 0.01537489052861929, -0.04205780476331711, -0.011560114100575447, -0.07196180522441864, -0.005622698925435543, -0.13976840674877167, 0.037996694445610046, -0.0725427195429802, -0.01505483128130436, 0.028320247307419777, -0.02588067390024662, -0.023822197690606117, -0.009707259945571423, -0.003835308365523815, 0.0038156164810061455, -0.0013638620730489492, -0.06868337094783783, -0.04475686326622963], [0.015058125369250774, -0.0007039121701382101, -0.00468702707439661, -0.012141168117523193, 0.011808670125901699, -0.03233053535223007, -0.055216625332832336, -0.01685260236263275, -0.0037422345485538244, -0.02618074230849743, 0.009420622140169144, -0.02070615440607071, 0.02924085222184658, 0.010687758214771748, 0.0007365880301222205, 0.011976303532719612, 0.001957403961569071, -3.566003579180688e-05, 0.013721738010644913, -0.009530371986329556, 0.02917441725730896, 0.01010400801897049, 0.013650842010974884, 0.017380617558956146, -0.003321623196825385, 0.017404552549123764, 0.04234135150909424, 0.03668804094195366, 0.0122865941375494, -0.00435855844989419, 0.03332120180130005, -0.0028795041143894196], [0.3764432966709137, -0.04046574980020523, 0.3177024722099304, 0.2236650288105011, 0.15324127674102783, -0.06689834594726562, -0.011559790000319481, -0.011164584197103977, 0.011979376897215843, -0.03590250387787819, 0.001641560927964747, 0.006378975696861744, -0.012653735466301441, -0.0009153868304565549, -0.0012160298647359014, 0.016234610229730606, 0.48348286747932434, 0.47430485486984253, 0.31408852338790894, 0.310718297958374, 0.2176549732685089, 0.08021864295005798, -0.013647535815834999, 0.015639321878552437, -0.006983615458011627, -0.03231801092624664, -0.002786508295685053, 0.015116505324840546, 0.002438133116811514, 0.007006130181252956, 0.005725914146751165, 0.005207481794059277], [-0.1006150171160698, 0.00972730666399002, -0.03437000513076782, -0.013132543303072453, 0.020756175741553307, 0.027926843613386154, 0.012676565907895565, -0.021152475848793983, -0.029445013031363487, 0.013005996122956276, 0.009273012168705463, -0.005322943441569805, 0.009674431756138802, -0.013402326963841915, 0.005906820762902498, -0.007235759869217873, -0.008099758997559547, -0.07532282918691635, -0.07447149604558945, -0.04833230376243591, 0.009249111637473106, 0.023457076400518417, -0.021048512309789658, -0.004991351626813412, 0.013433856889605522, 0.013206304050981998, -0.0008957291138358414, -0.04888826236128807, -0.013900872319936752, -0.019664455205202103, 0.023945102468132973, 0.00720882648602128], [-0.02720700018107891, 0.01414325088262558, -0.001782550592906773, -0.004692102316766977, 0.016548490151762962, -0.013782975263893604, -0.032600533217191696, -0.010543257929384708, 0.017645210027694702, -0.01146908849477768, 0.001536081195808947, -0.012488173320889473, 0.03167683631181717, -0.005412944592535496, 0.01597743295133114, -0.01185660157352686, -0.006642004940658808, -0.0008182283490896225, 0.011568425223231316, -0.02106102928519249, 0.006294311489909887, -0.02050074376165867, 0.012751719914376736, 0.004398677032440901, -0.013579185120761395, 0.03096160851418972, -0.00255750329233706, 0.019833622500300407, 0.017489327117800713, -0.018822016194462776, -0.016360817477107048, -0.004376994911581278], [0.0027838449459522963, -0.003784457454457879, -0.003173074685037136, 0.006402518600225449, -0.0037778017576783895, 0.005078297108411789, 0.03202452138066292, 0.00385111290961504, -0.0038383782375603914, 0.009750756435096264, 0.0034835846163332462, -0.004465365316718817, 0.0006491690874099731, 0.016897080466151237, 0.008797828108072281, -0.01654358021914959, 0.03381352499127388, -0.0015048489440232515, -0.011656492948532104, -0.012938791885972023, -0.009999777190387249, 0.027762839570641518, 0.010793887078762054, -0.020596632733941078, 0.008097273297607899, -0.0015821121633052826, 0.020016495138406754, -0.02819088101387024, -0.021150115877389908, 0.017954913899302483, -0.0017888644943013787, -0.0076546152122318745], [0.2613256871700287, -0.05826348438858986, -0.006571069825440645, -0.03680511191487312, 0.09978847205638885, -0.14181329309940338, -0.06236635521054268, 0.020159417763352394, -0.044232092797756195, -0.028586814180016518, -0.025444312021136284, -0.0008709993562661111, -0.00829550251364708, -0.013049096800386906, -0.0065706647001206875, -0.018922127783298492, 0.3295717239379883, 0.13172246515750885, -0.026109790429472923, 0.03574362024664879, 0.126755952835083, -0.09051959216594696, 0.02450445666909218, 0.035080235451459885, 0.05352553725242615, -0.05125906318426132, 0.0018420988926663995, 0.006277625914663076, -0.005153576843440533, -0.0008248391677625477, -0.007086835335940123, -0.04360726475715637], [0.013389669358730316, -0.00021137244766578078, -0.0009415827225893736, 0.01587560772895813, -0.017834503203630447, -0.008303293026983738, 0.02243208885192871, 0.03217552229762077, -0.005053374916315079, 0.028193453326821327, 0.037564054131507874, 0.0210746917873621, -0.007350089028477669, -0.022614115849137306, -0.013895119540393353, -0.017697039991617203, -0.011724771931767464, -0.017657004296779633, 0.02833196148276329, -0.01446231547743082, 0.020088031888008118, 0.021945185959339142, 0.02304304949939251, -0.022197790443897247, -0.035495832562446594, -0.011142737232148647, -0.022443341091275215, 0.00786919891834259, 0.02467048540711403, -0.0267453845590353, -0.034975048154592514, -0.008630515076220036], [0.013362456113100052, 0.00640010554343462, 0.012325510382652283, -0.008336568251252174, -0.0062170266173779964, 0.011560443788766861, 0.013498390093445778, 0.03177332133054733, 0.01818639412522316, -0.00893021933734417, -0.0038174923975020647, -0.01878267340362072, -0.005057338625192642, -0.005204830318689346, 0.0121881403028965, 0.011846709065139294, -0.014254733920097351, -0.007772260811179876, 0.02179066278040409, -0.004349752329289913, 0.013882050290703773, 0.009348799474537373, 0.006146913859993219, 0.00398349529132247, -0.029822248965501785, 0.014092962257564068, -0.014394131489098072, 0.023350246250629425, -0.008379890583455563, -0.012794479727745056, -0.009911241009831429, -0.009681561961770058], [0.4535128176212311, 0.1648993045091629, 0.04779898002743721, -0.051870789378881454, -0.16007375717163086, -0.1429644525051117, 0.028434816747903824, -0.007862159982323647, 0.030805345624685287, 0.01572982408106327, -0.0031238968949764967, -0.019901806488633156, 0.005839766003191471, 0.0023477179929614067, 0.02822261117398739, -0.020389627665281296, 0.4191455543041229, 0.35892316699028015, 0.11269185692071915, 0.07584784179925919, 0.05014484375715256, -0.011251473799347878, 0.02012188546359539, 0.019985312595963478, 0.01661558635532856, -0.011717541143298149, -0.0061705149710178375, 0.023139014840126038, 0.028593458235263824, -0.015680477023124695, 0.01743580959737301, 0.008946934714913368], [-0.005723876878619194, -0.006386719644069672, -0.007859074510633945, -0.0071368287317454815, 0.012753131799399853, 0.024394117295742035, -0.04266832023859024, 0.011896477080881596, -0.002224006224423647, 0.0039209104143083096, 0.006345175206661224, -0.011568243615329266, -0.0059379697777330875, 0.001442551612854004, -0.020542025566101074, -0.008817403577268124, -0.00844672042876482, -0.0011288132518529892, -0.03866612911224365, 0.01916816271841526, 0.003964343573898077, -0.02399948611855507, -0.005418823100626469, 0.02041187882423401, -0.0035625833552330732, -0.015097876079380512, -0.04161258041858673, 0.030508978292346, 0.019543087109923363, -0.019026633352041245, 0.03136105090379715, 0.03279830515384674], [-0.012224256061017513, -0.07639940828084946, 0.050587836652994156, 0.05317648872733116, -0.007114320993423462, -0.014423388987779617, -0.026021486148238182, -0.03822334110736847, -0.0014068791642785072, -0.010309885255992413, 0.02004227042198181, 0.01859210431575775, 0.02335490472614765, 0.007967161945998669, 0.004946715664118528, 0.006438068114221096, 0.11700837314128876, -0.056284528225660324, -0.06183032691478729, 0.011285783722996712, 0.014350371435284615, -0.023191582411527634, -0.020367564633488655, 0.006419753190129995, 0.027098387479782104, 0.00270165060646832, 0.01567661017179489, -0.01889016292989254, -0.027123495936393738, 0.0029149095062166452, 0.0008639169973321259, -0.023247329518198967], [-0.0028542410582304, -0.006395692005753517, 0.0019337264820933342, -0.013806217350065708, -0.012623123824596405, 0.002123382408171892, 0.007422918453812599, 0.0036006502341479063, -0.0055562471970915794, -0.004467464052140713, -0.02112182229757309, -0.030278336256742477, 0.022939134389162064, 0.02110905945301056, 0.04637091979384422, -0.0014594187960028648, -0.0012149019166827202, 0.0006145852385088801, 0.007946529425680637, -0.011335381306707859, -0.011101484298706055, -0.0053695254027843475, 0.007005268707871437, -0.0032647931948304176, 0.03749264404177666, 0.025280090048909187, 0.010467493906617165, 0.009697513654828072, -0.010243202559649944, 0.02874637395143509, -0.02044300176203251, -0.0033636740408837795], [-0.010284293442964554, 0.0012066252529621124, 0.003836065763607621, 0.0017828037962317467, 0.028895311057567596, -0.005553416442126036, -0.010507897473871708, -0.008571458980441093, -0.006450998596847057, -0.0007515778415836394, 0.001490292139351368, 0.00146681466139853, 0.017839448526501656, -0.00227907276712358, -0.012377830222249031, 0.011534401215612888, -0.00894605927169323, -0.009911094792187214, 0.0011710642138496041, -0.008925498463213444, -0.005474865436553955, 0.008322371169924736, -0.008876289241015911, -0.004941251594573259, -0.009840680286288261, -0.010148163884878159, -0.007559550926089287, 0.022598344832658768, 0.0008790503488853574, -0.025990761816501617, 0.032411180436611176, 0.008762131445109844], [0.006114746909588575, 0.03254010155797005, -0.007613000925630331, -0.01275910809636116, -0.014490370638668537, -0.02862033247947693, -0.03584593906998634, -0.007165086921304464, 0.023087527602910995, -0.011349513195455074, 0.017524437978863716, -0.012948963791131973, -0.005721191875636578, -0.010017585009336472, -0.0010194294154644012, 0.0031488786917179823, -0.012732758186757565, 0.029339298605918884, 0.015732932835817337, 0.012970205396413803, 0.024846825748682022, -0.00998570118099451, 0.009482291527092457, 0.009323971346020699, -0.021361680701375008, 0.021484095603227615, 0.02092920057475567, 0.025249365717172623, 0.009654325433075428, -0.017022302374243736, -0.015728672966361046, -0.018488500267267227], [-0.01206131186336279, 0.02852780558168888, -0.014015729539096355, 0.008502507582306862, 0.005405632313340902, 0.020639151334762573, 0.037427157163619995, -0.018203619867563248, 0.010616429150104523, -0.029342621564865112, -0.01981254480779171, 0.006718733813613653, 0.002137948526069522, -0.013104078359901905, -0.009870792739093304, -0.015476512722671032, -0.019757525995373726, 0.031124059110879898, -0.0007914441521279514, -0.01694437488913536, -0.01526082493364811, -0.015521207824349403, -0.0009743510163389146, -0.011685560457408428, -0.001434404868632555, -0.018716612830758095, 0.0076156919822096825, -0.020847951993346214, -0.009972838684916496, -0.03519575670361519, 0.013326947577297688, 0.014948870986700058], [-0.015373161993920803, 0.018522074446082115, 0.0051638358272612095, -0.011468042619526386, 0.01615973934531212, 0.029394643381237984, 0.06596776098012924, 0.044731467962265015, 0.01618390530347824, 0.02306080423295498, -0.00981423445045948, -0.03808360546827316, -0.028498103842139244, 0.0017487674485892057, 0.01893334463238716, 0.015242405235767365, -0.02385048195719719, 0.014696995727717876, 0.00181950768455863, -0.007481979206204414, -0.02909904532134533, -0.01023882906883955, 0.005000870209187269, 0.0032765332143753767, 0.01773904822766781, -0.02219071239233017, -0.05220847576856613, 0.010676748119294643, 0.006911405362188816, 0.020230146124958992, -0.042723268270492554, 0.006192134693264961], [-0.003919016104191542, 0.010429808869957924, -0.01505629625171423, 0.0024703494273126125, -0.009130584076046944, -0.024797461926937103, 0.00027543760370463133, -0.04217793047428131, -0.0020269344095140696, -8.48469790071249e-06, -0.009121770039200783, 0.00631556985899806, 0.006121425423771143, -0.010409275069832802, 0.021091533824801445, 0.0074370866641402245, 0.0069096870720386505, 0.003296082839369774, 0.006761037744581699, 0.0036355198826640844, -0.008228118531405926, -0.007429957389831543, -0.0030373590998351574, -0.00912287924438715, 0.017255185171961784, 0.02055264636874199, 0.00994354858994484, -0.026602398604154587, 0.007383368443697691, 0.009383815340697765, 0.01772109605371952, -0.00877461675554514], [-0.019310027360916138, 0.010530182160437107, 0.012184295803308487, 0.006547269877046347, 0.008263960480690002, 0.023252522572875023, -0.000660469988361001, -0.010427622124552727, -0.0025139632634818554, -0.02411014772951603, -0.02847200818359852, -0.002672491827979684, -0.016723914071917534, -0.007125278003513813, -0.028255058452486992, -0.02718176506459713, 0.002360857557505369, 0.020409472286701202, -0.01334782037883997, 0.0006233108579181135, -0.01954694651067257, -0.022920947521924973, -0.02713795378804207, 0.025483690202236176, 0.02709217369556427, -0.027988214045763016, -0.028891637921333313, -0.01005478948354721, -0.009943691082298756, -0.0011441539973020554, -0.0012402823194861412, 0.037220921367406845], [0.4111833870410919, 0.09021663665771484, 0.20511551201343536, 0.04480570927262306, -0.07248089462518692, 0.0759093388915062, 0.010699406266212463, -0.04600152373313904, -0.012245023623108864, -0.0011745622614398599, -0.025401370599865913, -0.0028402330353856087, -0.028860464692115784, 0.020420202985405922, -0.030908377841114998, 0.010092957876622677, 0.2927716374397278, 0.5722757577896118, 0.15392906963825226, 0.23611599206924438, 0.0563468299806118, 0.18334658443927765, 0.05583774298429489, 0.020743997767567635, 0.03074760176241398, 0.020636633038520813, -0.014278287068009377, -0.01055008452385664, -0.0016900619957596064, 0.023812919855117798, 0.03198982775211334, -0.0014873531181365252], [-0.0875844955444336, -0.04101289436221123, 0.05284211412072182, 0.1503208875656128, -0.10593240708112717, 0.04032206907868385, -0.05324031412601471, -0.036441367119550705, -0.01786056160926819, 0.004744534846395254, -0.036046434193849564, -0.01966092362999916, 0.03190542012453079, 0.027037668973207474, 0.002310807118192315, 0.04259156808257103, -0.05689242482185364, -0.11932867020368576, 0.02132268436253071, 0.025991175323724747, 0.05962935835123062, -0.07870721071958542, 0.0585675910115242, -0.0063568600453436375, 0.02844027243554592, -0.010075117461383343, 0.030094526708126068, -0.0019047445384785533, 0.013956311158835888, -0.006768583320081234, 0.01877662166953087, -0.021378831937909126], [0.43427422642707825, 0.1948225051164627, 0.10080432146787643, 0.1842702478170395, 0.019573641940951347, 0.026988063007593155, 0.07454388588666916, 0.01148926466703415, 0.0031639409717172384, -0.016326505690813065, -0.01812591589987278, 0.012959946878254414, 0.004475621972233057, 0.008730730041861534, 0.029565289616584778, 0.023705724626779556, 0.26877063512802124, 0.3267107605934143, 0.20878134667873383, 0.0777326449751854, -0.11553794145584106, 0.042630262672901154, -0.0031275267247110605, -0.01990855112671852, 0.0385221466422081, -0.035645339637994766, -0.060688190162181854, -0.019555093720555305, -0.007442261558026075, -0.0016982173547148705, 0.02582557126879692, -0.011883075349032879], [-0.0007634892826899886, -0.0026787191163748503, 0.010221734642982483, -0.004371189512312412, 0.0029355566948652267, -0.014282956719398499, -0.017096392810344696, -0.0075708720833063126, -0.015103667043149471, -0.009634188376367092, 0.010414715856313705, -0.006277070846408606, 0.0005206862115301192, 0.004353715106844902, -0.010702471248805523, 0.01708434335887432, -0.003805352607741952, -0.023308297619223595, 0.02619110234081745, -0.0031715398654341698, 0.009668570011854172, 0.027921978384256363, 0.006094026379287243, 0.008657689206302166, -0.024307524785399437, -0.02745669335126877, -0.0009516219142824411, 0.008080333471298218, 0.012591451406478882, -0.0574052594602108, 0.004230504855513573, 0.021655818447470665], [0.024347666651010513, -0.026125218719244003, -0.012767170555889606, 0.005589265841990709, 0.03171594440937042, 0.015768814831972122, 0.00032811661367304623, -0.02997802011668682, -0.02443797141313553, 0.013983088545501232, 0.002891810378059745, 0.02309468574821949, -0.0008351770229637623, -0.007711653597652912, -0.015041613020002842, 0.0038825953379273415, -0.003148658899590373, -0.029123708605766296, 0.017114689573645592, -0.03130533546209335, 0.03316926956176758, 0.010238826274871826, 0.0106149110943079, -0.03328283503651619, -0.037995751947164536, 0.0020814004819840193, -0.018906503915786743, -0.021319709718227386, 0.03345036134123802, -0.027974605560302734, 0.003707856172695756, 0.015429037623107433], [0.2508177161216736, 0.04714885354042053, 0.029658280313014984, -0.07109953463077545, 0.05274680629372597, -0.01135833840817213, -0.01748344488441944, 0.05342153087258339, -0.0015666440594941378, 0.009573271498084068, 0.006180268712341785, 0.0015503744361922145, -0.021912703290581703, -0.008335293270647526, 0.026805143803358078, -0.04052405804395676, 0.00267802644520998, 0.06659060716629028, 0.024983076378703117, -0.05006212741136551, 0.05344211682677269, -0.07235295325517654, -0.004896358121186495, 0.03435610979795456, 0.018512550741434097, -0.02825869619846344, 0.012349547818303108, 0.020375048741698265, -0.020576471462845802, -0.0018690121360123158, -0.010624169372022152, 0.00788839627057314], [-0.006505047902464867, -0.014212190173566341, 0.0052375770173966885, -0.020348796620965004, -0.011966217309236526, -0.02000935561954975, -0.03759761154651642, -0.004913640208542347, 0.009553918614983559, -0.006353698205202818, -0.01197113562375307, 0.0037901888135820627, 0.0072427671402692795, -0.011807612143456936, 0.015829522162675858, -0.009607830084860325, 0.006167265120893717, 0.04183501377701759, -0.03419977053999901, 0.024465786293148994, -0.003468281589448452, -0.029190031811594963, -0.028244499117136, 0.021031400188803673, 0.005664285272359848, 0.025721779093146324, 0.00021081420709379017, -0.01552293635904789, -0.01796509325504303, 0.027390282601118088, -0.007617536000907421, -0.023005982860922813], [0.008832268416881561, 0.002371731214225292, 0.0009431584039703012, -0.010587600991129875, -0.020799053832888603, -0.019871436059474945, -0.035176459699869156, -0.00313617754727602, -0.00799834169447422, -0.02031446248292923, 0.01072405930608511, 0.013166963122785091, -0.0077278632670640945, 0.002210874343290925, 0.013467338867485523, -0.040147777646780014, 0.005567715037614107, 0.03156623989343643, -0.013952328823506832, 0.022665882483124733, 0.007145840674638748, -0.020676620304584503, -0.046837229281663895, 0.03531690686941147, 0.02677787095308304, 0.02804696187376976, -0.0009371323394589126, 0.013639600947499275, -0.05399481952190399, 0.049873147159814835, 0.01303914189338684, -0.00785058457404375], [0.003157219849526882, -0.0021798666566610336, -0.0014121094718575478, -0.014432454481720924, 0.02979801967740059, 0.009334700182080269, -0.013744036667048931, 0.009476904757320881, -0.015255983918905258, 0.006234276574105024, 0.007179462816566229, -0.008619527332484722, -0.012368839234113693, -0.0216257032006979, -0.019341694191098213, -0.03544546291232109, 0.012773406691849232, -0.007961541414260864, -0.02830106019973755, -0.0061589875258505344, 0.02520763874053955, -0.047641903162002563, 0.016398001462221146, 0.016154317185282707, -0.03026176057755947, 0.013418025337159634, -0.037397466599941254, -0.0051451753824949265, 0.02678821049630642, -0.02768172323703766, -0.018862511962652206, 0.018483132123947144], [-0.1343260109424591, -0.5010305643081665, -0.258091002702713, 0.17942877113819122, -0.12637174129486084, 0.042800694704055786, -0.052469104528427124, 0.033773913979530334, -0.03365495800971985, -0.015074498020112514, -0.04059642180800438, -0.019462766125798225, -0.0033322363160550594, -0.011932911351323128, -0.015453127212822437, 0.016409538686275482, 0.16715875267982483, -0.08166651427745819, -0.030051639303565025, 0.31385695934295654, -0.24810092151165009, -0.016964886337518692, -0.005526269320398569, 0.05112747848033905, -0.0020793555304408073, 0.009899401105940342, 0.000763364543672651, -0.0459265261888504, 0.014793644659221172, 0.02635076455771923, 0.042824339121580124, -0.017999308183789253], [0.14776082336902618, 0.10990671068429947, 0.12092626094818115, 0.14283163845539093, -0.013150465674698353, -0.12033155560493469, 0.07080767303705215, -0.026880037039518356, -0.0005590948276221752, 0.010894550010561943, -0.03387829288840294, 0.03175046667456627, 0.060989756137132645, -0.01757141947746277, 0.023096982389688492, -0.006652077194303274, 0.1565922349691391, -0.011112569831311703, 0.01050573494285345, -0.01760946214199066, -0.2457665652036667, 0.03133548051118851, -0.0666450709104538, -0.009086438454687595, 0.018885400146245956, -0.018482577055692673, 0.0005589790525846183, 0.037705764174461365, -0.0320102833211422, 0.059334155172109604, -0.03223668411374092, -0.017026269808411598], [0.009517291560769081, 0.0028179376386106014, 0.0014489563181996346, 0.024614907801151276, -0.021886298432946205, 0.001802162965759635, -0.0029647296760231256, 0.009042901918292046, -0.0011324911611154675, 0.007585999555885792, -0.0017454824410378933, 0.02272120490670204, -0.004715045914053917, -0.03253713622689247, -0.011036328971385956, -0.002367537934333086, -4.763406468555331e-05, 0.011475232429802418, -0.015151167288422585, 0.020908238366246223, -0.00931150745600462, -0.020533351227641106, 1.6740523278713226e-05, -0.03625716269016266, -0.018518229946494102, 0.012296143919229507, -0.03643283247947693, -0.00910815317183733, -0.005394009407609701, 0.0031885316129773855, 0.0013745997566729784, -0.021422456949949265], [0.023842932656407356, 0.007438522297888994, 0.005663718096911907, 0.026964223012328148, -0.015088231302797794, -0.0065848976373672485, 0.006038506515324116, -0.012147585861384869, 0.012951727025210857, -0.007630009204149246, 0.02234196662902832, 0.030286643654108047, -0.012607954442501068, -0.029065711423754692, -0.025396842509508133, 0.00956226047128439, -0.005628716200590134, -0.005232651252299547, 0.023432014510035515, 0.032264504581689835, 0.0006938284495845437, 0.04703546687960625, 0.0036316565237939358, -0.024406056851148605, -0.019930655136704445, -0.022101381793618202, -0.01229164656251669, -0.015351320616900921, 0.008669856935739517, -0.022757750004529953, 0.03636852279305458, -0.003640060778707266], [0.00740984920412302, -0.0004716808325611055, -0.0026523410342633724, -0.010472136549651623, 0.013952706940472126, 0.011791535653173923, -0.02180999331176281, 0.00701370183378458, -0.011813215911388397, -0.017881890758872032, 0.0013657738454639912, -0.014020952396094799, -0.01815810427069664, 0.024882923811674118, 0.003660844638943672, 0.005104956217110157, -0.008896640501916409, -0.007829083129763603, -0.010014277882874012, -0.00813985988497734, -0.008182687684893608, -0.006597374565899372, -0.010909055359661579, 0.023692142218351364, 0.00043513457057997584, -0.006787348072975874, 0.024934833869338036, 0.041123490780591965, -0.0035458500497043133, -0.0006725922576151788, 0.02627977915108204, 0.01416789460927248], [-0.33069947361946106, -0.652777910232544, -0.34067264199256897, 0.018903229385614395, 0.002632330171763897, 0.07699959725141525, 0.009052405133843422, -0.034289970993995667, 0.004430138505995274, -0.043058380484580994, -0.0076578883454203606, 0.015311098657548428, -0.019506283104419708, 0.03282242640852928, -0.0064301518723368645, 0.017836304381489754, 0.08615906536579132, -0.08015165477991104, 0.1897227168083191, 0.5783409476280212, -0.31119316816329956, -0.07411400973796844, 0.048882003873586655, -0.00372164323925972, 2.816229243762791e-05, 0.0011583943851292133, 0.007569279987365007, 0.03519736975431442, 0.014267563819885254, -0.007533023599535227, 0.013622068800032139, 0.0012995812576264143], [-0.008356363512575626, 0.0010464531369507313, 0.0065705799497663975, 0.009319723583757877, -0.020335597917437553, -0.012915994971990585, -0.043581750243902206, -0.01343613862991333, 0.016774432733654976, -0.018261102959513664, 0.014700017869472504, 0.0261162631213665, 0.006660962477326393, -0.011956782080233097, -0.00046107880189083517, 0.0027469280175864697, 4.637462552636862e-05, -0.0006374981021508574, -0.0002577067934907973, 0.021014053374528885, 0.002181512536481023, 0.012114707380533218, -0.002127018989995122, -0.0006722027319483459, -0.004730339162051678, 0.00488630635663867, 0.008770191110670567, -0.014728850685060024, -0.005675836466252804, -0.0037837037816643715, 0.015558443032205105, -0.030747095122933388], [-0.5547027587890625, -0.3315422534942627, -0.09824273735284805, -0.22164086997509003, 0.20092296600341797, 0.03704299032688141, -0.03804792836308479, 0.011727356351912022, -0.0234973207116127, 0.04717089980840683, 0.027130108326673508, -0.013955027796328068, -0.002850193763151765, -0.01771536096930504, -0.04777432233095169, -0.04011999070644379, 0.003758486360311508, 0.025732776150107384, 0.24745427072048187, 0.07402532547712326, -0.23868195712566376, -0.019083401188254356, -0.050402138382196426, -0.021517092362046242, 0.00205477187409997, 0.02027473971247673, 0.002403769874945283, -0.02542329952120781, -0.02328908070921898, 0.029655035585165024, -0.025453343987464905, 0.012359782122075558], [0.026134906336665154, -0.0584903359413147, -0.009756124578416348, 0.05059688910841942, -0.0924505963921547, 0.010784152895212173, 0.0385025255382061, -0.010620403103530407, -0.06972122192382812, 0.019959330558776855, 0.0227312371134758, -0.011062215082347393, 0.03570401668548584, -0.01664557494223118, 0.016869965940713882, -0.03913217410445213, 0.11701879650354385, 0.0657053217291832, 0.04654081538319588, -0.011402836069464684, -0.014152463525533676, 0.07749157398939133, -0.01923801191151142, -0.005185795482248068, 0.013805639930069447, -0.012753879651427269, 0.04126885160803795, -0.07845992594957352, -0.02095657028257847, -0.0033987564966082573, 0.017834799364209175, 0.005010262597352266], [0.4116392433643341, 0.04572894051671028, -0.05472363531589508, 0.04782126471400261, 0.011799482628703117, -0.07631881535053253, -0.04124478995800018, -0.0173453651368618, -0.016459012404084206, -0.07051552832126617, 0.01759449951350689, 0.0144239142537117, -0.008789963088929653, -0.015297506004571915, -0.06471257656812668, 0.008980066515505314, 0.21744003891944885, 0.19981372356414795, 0.06974376738071442, -0.11262296885251999, -0.09898519515991211, -0.05486329272389412, 0.02537413500249386, 0.004702178295701742, -0.029926041141152382, 0.03227566182613373, 0.008481090888381004, -0.02264079637825489, 0.005974977742880583, 0.007577258162200451, -0.02180471643805504, -0.0032756784930825233], [0.12555505335330963, 0.0004789567901752889, 0.027712665498256683, 0.0063105858862400055, 0.00598879624158144, -0.0015682332450523973, 0.004501538351178169, -0.02411186508834362, 0.009199697524309158, 0.014772802591323853, 0.028790239244699478, 0.04082486405968666, -0.009901301935315132, 0.013378763571381569, -0.0038276296108961105, -0.014611084945499897, -0.018260344862937927, 0.1057799831032753, 0.006078964099287987, 0.011519797146320343, 0.030766017735004425, 0.002053001197054982, -0.012082082219421864, 0.013575049117207527, -0.019596265628933907, -0.028453849256038666, 0.0016838130541145802, 0.0005493722856044769, -0.023843415081501007, -0.003963414579629898, -0.03664062172174454, -0.006194176618009806], [0.008065935224294662, 0.008700227364897728, 0.020406601950526237, -0.02150256372988224, -0.01912822015583515, -0.02760084718465805, -0.017524275928735733, 0.019047170877456665, -0.0021172063425183296, -0.027938950806856155, -0.018006538972258568, -0.015717366710305214, -0.010410921648144722, 0.0010372468968853354, 0.006307790521532297, -0.001303507830016315, -0.010321177542209625, -0.0007790702511556447, 0.005366356577724218, 0.015257024206221104, 0.006088975351303816, -0.018096091225743294, -0.015323546715080738, 0.018437830731272697, -0.01609632559120655, 0.015293595381081104, -0.011822715401649475, 0.009450584650039673, -0.012655122205615044, -0.0035457781050354242, -0.005091201979666948, -0.014689209870994091], [0.02719036675989628, 0.02159173972904682, -0.006609784439206123, 0.021567674353718758, -0.03496412932872772, -0.022006304934620857, -0.019299054518342018, -0.016422737389802933, -0.002857009880244732, -0.005106678698211908, 0.013462682254612446, -0.008307650685310364, 0.015501882880926132, -0.030432822182774544, -0.00011056449147872627, 0.0007291246438398957, -0.019260238856077194, 0.046211451292037964, -0.008702147752046585, 0.01945595256984234, 0.018698155879974365, -0.020220095291733742, 0.012102768756449223, -0.01406924333423376, 0.00090152578195557, -0.0045412275940179825, -0.01808784529566765, -0.01807817630469799, 0.007095694541931152, -0.020045727491378784, -0.029760343953967094, -0.004560843575745821], [0.23205819725990295, 0.10696667432785034, -0.0965508222579956, 0.10109315067529678, -0.07415067404508591, 0.06080983951687813, 0.0007058069459162652, 0.03409711271524429, -0.005978201050311327, -0.03823179006576538, -0.0023835499305278063, 0.03712785243988037, -0.05716764181852341, 0.02774043194949627, -0.015150651335716248, 0.003661079565063119, 0.3171752691268921, 0.2654523551464081, -0.0568859688937664, -0.08577710390090942, 0.06628762930631638, -0.081173375248909, 0.03664825111627579, -0.005863714963197708, 0.0005020678509026766, 0.006228290498256683, -0.013261833228170872, -0.015085323713719845, -0.017498159781098366, -0.016826003789901733, 0.03884634003043175, -0.015866389498114586], [-0.007679780013859272, 0.02464178204536438, -0.006088652182370424, 0.0056879254989326, 0.007645179517567158, -0.011085949838161469, 0.036590274423360825, 0.024177944287657738, 0.004002264700829983, 0.00535543542355299, 0.04565303027629852, 0.008008497767150402, -0.003997647203505039, -0.00039646384539082646, -0.005379794631153345, 0.011527873575687408, -0.020847225561738014, -0.017816059291362762, 0.032966893166303635, -0.03019479289650917, 0.015442033298313618, 0.007527518086135387, 0.055898066610097885, -0.030448120087385178, -0.03198397159576416, 0.0005959577392786741, -0.0005655154236592352, 0.01523140911012888, 0.02239980362355709, -0.0119231678545475, -0.017903778702020645, -0.00989537499845028], [-0.08493535965681076, -0.029957197606563568, 0.022289052605628967, -0.04004349932074547, 0.02283746749162674, 0.007487860508263111, -0.008107793517410755, -0.011181971058249474, 0.015542839653789997, -0.003196651814505458, 0.04559684917330742, 0.024343853816390038, -0.010474422946572304, 0.008296731859445572, 0.020348314195871353, -0.020184911787509918, -0.09927574545145035, -0.12895528972148895, -0.03673618286848068, -0.05631425976753235, 0.019371647387742996, 0.044775817543268204, -0.03060142882168293, 0.0004252202343195677, -0.006619268096983433, 0.007245282176882029, 0.00840910617262125, -0.004416272044181824, -0.014480195939540863, 0.003546660766005516, -0.008675208315253258, 0.014165766537189484], [0.0063332547433674335, -0.020664894953370094, -0.02154792658984661, -0.011348689906299114, -0.0140348169952631, -0.00587899936363101, -0.025660542771220207, -0.04391904175281525, -0.0001343109761364758, -0.025078171864151955, -0.0034528030082583427, 0.038552649319171906, 0.011506324633955956, -0.00539427250623703, -0.016217222437262535, -0.022832786664366722, 0.04009242728352547, 0.0012945786584168673, -0.004067061468958855, -0.009271157905459404, -0.0017575041856616735, -0.013180687092244625, -0.015698321163654327, -0.0088273286819458, -0.008884703740477562, -0.011485245078802109, 0.05332100763916969, 0.016424957662820816, -0.01053894218057394, -0.008835057727992535, 0.026869647204875946, -0.02544175088405609], [0.012126182205975056, -0.0028815469704568386, -0.005571727640926838, 0.003697081468999386, 0.01933286152780056, 0.03251524642109871, 0.01330011710524559, -0.01734449341893196, -0.011569207534193993, -0.01241309568285942, -0.0021470554638653994, -0.013197805732488632, -0.01855667121708393, -0.009383332915604115, -0.023606669157743454, -0.00555618479847908, 0.0090259350836277, 0.007808497175574303, -0.019318096339702606, -0.00020777084864676, 0.017572686076164246, -0.009257986210286617, 0.00300314137712121, -0.020738162100315094, 0.008540879935026169, -0.016997480764985085, -0.002871360396966338, -0.04238571599125862, 0.03661949560046196, 0.006541746202856302, 0.020967599004507065, 0.034707795828580856], [0.0031036033760756254, -0.004292902071028948, 0.007238691207021475, -0.005778382066637278, -0.004871220327913761, 0.0030636428855359554, -0.04739538952708244, 0.0075627476908266544, 0.01481552328914404, -0.015006300061941147, 0.010837308131158352, 0.017034750431776047, 0.005757433827966452, 0.0017082873964682221, -0.02713526226580143, -0.0017523457063362002, 0.0002018874802161008, -0.0007574594346806407, 0.0023363465443253517, 0.011078775860369205, 0.00874193012714386, 0.030222170054912567, 0.005660576745867729, 0.020021889358758926, -0.008938593789935112, -0.01984894834458828, 0.02688213251531124, 0.022687304764986038, 0.009357583709061146, -0.025723347440361977, 0.03470466658473015, 0.0042550587095320225], [0.38009053468704224, 0.15768297016620636, 0.14727959036827087, -0.033190708607435226, 0.06339237093925476, -0.03594101220369339, 0.0020094471983611584, 0.013599390164017677, 0.007566655520349741, -0.008495287969708443, 0.03268817439675331, 0.01270903367549181, -0.007292074151337147, 0.0032085669226944447, 0.031166672706604004, -0.031143669039011, 0.028219446539878845, 0.09584935754537582, 0.0817815437912941, 0.12242550402879715, -0.017200110480189323, -0.012606683187186718, 0.013935002498328686, 0.011032636277377605, 0.003091900609433651, -0.0033871885389089584, -0.018833160400390625, 0.004477804992347956, -0.011799074709415436, -0.012763915583491325, -0.03197658807039261, -0.02413550391793251], [-0.009265699423849583, 0.0103730708360672, 0.0012717017671093345, -0.003950147889554501, 0.02974057011306286, 0.016352102160453796, -0.00046096660662442446, 0.004424749407917261, 0.0062128775753080845, -0.00046723493142053485, 0.023790409788489342, 0.009311486966907978, -0.01305145863443613, 0.010417069308459759, -0.029632270336151123, -0.03252694010734558, -0.014622747898101807, 0.0035108476877212524, 0.0003431991208344698, -0.01634213700890541, -0.006770053878426552, -0.031960710883140564, -0.01865859515964985, 0.010059009306132793, -0.01263618003576994, -0.004519447218626738, -0.023376012220978737, 0.035066742449998856, -0.0016270226333290339, -0.013475244864821434, -0.02051880769431591, 0.0009435286629013717], [0.012013718485832214, 0.01808009296655655, -0.01744075119495392, 0.016371432691812515, -0.016323477029800415, 0.015319202095270157, -0.02315332740545273, 0.010675175115466118, -0.002169534098356962, 0.003300316631793976, -0.022883374243974686, -0.02024756744503975, 0.0013696702662855387, -0.04964951053261757, -0.02123080939054489, 0.031109629198908806, -0.012324423529207706, -0.0021240049973130226, -0.010314476676285267, 0.04994884133338928, 0.028023166581988335, -0.017130328342318535, 0.011476143263280392, -0.0458269864320755, -0.004104936495423317, 0.005389466416090727, -0.02969055436551571, -0.029768137261271477, 0.06975792348384857, -0.010727121494710445, 0.02118978649377823, 0.012564857490360737], [0.006046289578080177, 0.0023762269411236048, 0.006386648863554001, -0.005390254780650139, -0.003959943074733019, 0.0003571624984033406, 0.02248118631541729, 0.0202595517039299, 0.010758488439023495, -0.0019873587880283594, 0.020922353491187096, 0.0009827236644923687, -0.003530539572238922, 0.01985464058816433, 0.006784176453948021, 0.01596299186348915, -0.022245554253458977, 0.0009635062888264656, 0.012912468984723091, -0.013733221217989922, 0.002920132130384445, 0.007778664585202932, 0.019088078290224075, -0.0011110841296613216, 0.0043030730448663235, -0.02330370619893074, 0.013477501459419727, 0.016223425045609474, -0.01447086688131094, 0.007147241849452257, 0.0025800447911024094, -0.001065881340764463], [-0.38300326466560364, -0.3660089671611786, 0.012730018235743046, -0.12013311684131622, -0.13073429465293884, 0.10196615010499954, -0.06344935297966003, 0.020933976396918297, 0.06038028374314308, -0.020418105646967888, 0.0001294898393098265, 0.005703076720237732, 0.011861886829137802, -0.021064721047878265, -0.00807312224060297, -0.04836703836917877, 0.04986896738409996, -0.057184308767318726, 0.1344701498746872, 0.05397573113441467, -0.1585155427455902, -0.10841555893421173, -0.007373954635113478, -0.013119948096573353, 0.004677398130297661, -0.001820096978917718, -0.0410892590880394, 0.014806711114943027, -0.04332194849848747, 0.013521791435778141, -0.023019466549158096, 0.0005557808326557279], [0.0053963931277394295, 0.016456445679068565, 0.0005170126096345484, -0.003549824468791485, -0.008017823100090027, 0.015095445327460766, 0.0200782660394907, 0.04548002406954765, 0.013033481314778328, 0.02149788849055767, -0.005841679405421019, 0.01437321212142706, -0.022412216290831566, 0.01551696565002203, -0.01225972454994917, 0.014011209830641747, -0.02680230513215065, 0.009507933631539345, 0.010751526802778244, 0.0094169732183218, -0.03686578944325447, 0.0023491447791457176, -0.023414334282279015, 0.013689898885786533, 0.0020699508022516966, -0.010288447141647339, -0.01911996677517891, 0.032974325120449066, -0.03550723195075989, -0.009798748418688774, -0.00028295107767917216, -0.025294844061136246], [-0.014169920235872269, 0.007437351159751415, 0.011508749797940254, -0.0065675657242536545, 0.02922808937728405, 0.02017258293926716, -0.009066538885235786, 0.006352675147354603, -0.0011586296604946256, -0.0054561058059334755, -0.014558735303580761, -0.021761247888207436, 0.0027637153398245573, -0.007834563963115215, -0.005681992974132299, 0.022268902510404587, -0.00690586818382144, -0.003132071578875184, -0.012814159505069256, 0.009974280372262001, -0.0005878395168110728, -0.004100845195353031, -0.013871503993868828, 0.013006677851080894, -0.005737584084272385, -0.011681212112307549, -0.02959500253200531, 0.010842397809028625, 0.01004562433809042, -0.013030905276536942, 0.021466854959726334, 0.02517361380159855], [-0.002952009905129671, -0.03858056664466858, -0.002690888475626707, 0.03957987204194069, 0.020114675164222717, -0.013883370906114578, -0.022394783794879913, -0.014117279089987278, 0.028611790388822556, 0.006081163417547941, 0.0036022081039845943, -0.003111497964709997, 0.024263570085167885, -0.00037289163446985185, 0.01619272492825985, 0.03493315726518631, 0.06224402040243149, -0.01186019740998745, -0.03689759597182274, 0.00433487119153142, -0.0023887231945991516, 0.01647612452507019, 0.02342057228088379, -0.018164755776524544, 0.03206010162830353, -0.0038408234249800444, 0.018464287742972374, -0.020954851061105728, 0.011673579923808575, 0.008109276182949543, -0.0025653927586972713, -0.009199365973472595], [0.011009205132722855, -0.013162103481590748, -0.0022180103696882725, -0.0054514287039637566, -0.005322898272424936, -0.029158033430576324, -0.04393315687775612, 0.015644269064068794, 0.007183857262134552, -0.0342513844370842, 0.027639970183372498, 0.009594912640750408, -0.02309763804078102, 0.021925063803792, -0.004020035266876221, -0.041664958000183105, 0.006073590833693743, 0.02159392461180687, 0.01289380993694067, -0.019879695028066635, 0.005423095542937517, -0.025099117308855057, -0.020900020375847816, 0.06897547841072083, -0.0022389553487300873, 0.009532086551189423, 0.01622305065393448, 0.04601220041513443, -0.056718286126852036, 0.01725255511701107, -0.022502368316054344, 0.002242007991299033], [0.4148455858230591, 0.11806005984544754, 0.1339716613292694, 0.13227640092372894, 0.14900222420692444, -0.08195652067661285, 0.06354572623968124, 0.015544552356004715, -0.0422741062939167, 0.009177126921713352, 0.012339874170720577, 0.0006002211011946201, 0.025132663547992706, 0.025928687304258347, 0.011200223118066788, -0.03919410705566406, 0.17965298891067505, -0.02136116474866867, 0.11145306378602982, -0.017050279304385185, -0.014449498616158962, -0.0672304779291153, -0.05085599794983864, -0.032252926379442215, -0.004083751235157251, 0.029068218544125557, 0.001578231225721538, 0.027488956227898598, -0.01867399550974369, -0.012863220646977425, 0.03926120698451996, 0.026596274226903915], [0.17565762996673584, -0.004615303128957748, 0.01958894543349743, -0.007550208363682032, -0.023416917771100998, 0.014729133807122707, -0.023247087374329567, -0.002392903668805957, 0.023334091529250145, 0.01005848404020071, 0.0077618625946342945, 0.03970631957054138, -0.01351395808160305, -0.008323721587657928, -0.008664265275001526, 0.03362434357404709, 0.08277348428964615, 0.04355384781956673, 0.0982673317193985, 0.03711441904306412, 0.048120953142642975, 0.036227039992809296, 0.027552222833037376, -0.008189846761524677, -0.003795809578150511, 0.027501175180077553, -0.007102163974195719, -0.007325128186494112, -0.017952080816030502, 0.02311084046959877, 0.014955100603401661, 0.00950031727552414], [0.014632596634328365, -0.026141682639718056, 0.010363440960645676, 0.00019101123325526714, 0.025658665224909782, 0.02052631974220276, 0.001239365665242076, -0.026425711810588837, -0.015548614785075188, -0.002394062001258135, -0.005643772426992655, 0.015076142735779285, 0.02193223126232624, -0.006199475843459368, -0.025923846289515495, -0.027342405170202255, 0.04128077253699303, -0.008215116336941719, -0.007016026880592108, -0.005066930316388607, -0.003960977308452129, 0.040775448083877563, -0.010308461263775826, -0.015550992451608181, -0.0072734723798930645, -0.03955389931797981, 0.03161988779902458, -0.01156496163457632, 0.035095397382974625, -0.024839064106345177, 0.04587329551577568, 0.005452247802168131], [0.38649243116378784, 0.10951008647680283, 0.10640078783035278, -0.1504795402288437, -0.13931111991405487, -0.007902566343545914, -0.008477033115923405, -0.0283886156976223, -0.035719677805900574, -0.018382923677563667, 0.015064160339534283, 0.01983780227601528, -0.00672930059954524, 0.0013220664113759995, 0.0033751525916159153, -0.01981339044868946, 0.2919771075248718, 0.5465074181556702, 0.03800833597779274, 0.3144489824771881, 0.15476080775260925, -0.03638717904686928, -0.04864921048283577, -0.02495715580880642, 0.023132620379328728, 0.01058648806065321, -0.006996552459895611, 0.02019624225795269, -0.006089913193136454, 0.006961794104427099, 0.021091343834996223, 0.009127054363489151], [0.023708950728178024, -0.09035197645425797, -0.06544899940490723, 0.017216147854924202, -0.020216714590787888, -0.009094983339309692, 0.007519121281802654, -0.030173810198903084, -0.007604298647493124, 0.015170495957136154, 0.0014935813378542662, 0.013625320047140121, 0.03074154630303383, 0.006727126426994801, 0.022569479420781136, -0.008900747634470463, 0.10855001956224442, 0.03926760330796242, -0.04424818977713585, 0.006789161823689938, -0.04488595575094223, 0.03720872849225998, 0.0033310027793049812, -0.005655630026012659, 0.022669194266200066, 0.012348310090601444, 0.01335805095732212, -0.016324253752827644, 0.011169340461492538, -0.016300413757562637, 0.048303794115781784, 0.0026884842664003372], [0.21113738417625427, 0.22596850991249084, -0.1255946159362793, -0.2347145676612854, -0.09283703565597534, -0.030372852459549904, 0.08869114518165588, 0.030843934044241905, 0.009849399328231812, 0.015965553000569344, -0.02330719865858555, -0.02194884419441223, -0.025993408635258675, -0.05151179060339928, -0.04731207713484764, 0.0018270283471792936, -0.15020345151424408, -0.19551245868206024, -0.1306210607290268, -0.006211528554558754, -0.13264548778533936, -0.12057799845933914, 0.003410150995478034, 0.011758259497582912, -0.0018872105283662677, -0.03962622955441475, 0.030245503410696983, -0.014578812755644321, 0.034038811922073364, 0.03641827031970024, -0.030311403796076775, -0.018852805718779564], [-0.2309529334306717, -0.04301336035132408, -0.10531911998987198, -0.09017057716846466, 0.060280703008174896, -0.035359300673007965, 0.0409628190100193, -0.06578259915113449, 0.006765969097614288, -0.026209235191345215, 0.041439443826675415, 0.021285921335220337, -0.015808619558811188, 0.02858022227883339, -0.020720871165394783, -0.004062393214553595, -0.10175087302923203, -0.060286711901426315, -0.07122775912284851, -0.08690439909696579, -0.0343923419713974, 0.02574562281370163, 0.04918784275650978, -0.02135648764669895, 0.006683069281280041, 0.03503694385290146, 0.02639155276119709, 0.0384204126894474, -0.012374010868370533, 0.03837261348962784, -0.019747333601117134, -0.03395187109708786], [-0.026891347020864487, 0.016462769359350204, -0.020383266732096672, -0.013406569138169289, -0.010419110767543316, 0.01865166611969471, 0.00661587854847312, -0.06360773742198944, -0.030512910336256027, 0.0043201567605137825, 0.023528575897216797, 0.0397065244615078, -0.006999896373599768, -0.023716645315289497, -0.014479001052677631, -0.031860820949077606, 0.032432835549116135, -0.011791910044848919, 0.01634768396615982, 0.017460521310567856, -0.013200207613408566, -0.00498339394107461, -0.014652899466454983, -0.003053817432373762, -0.006602331530302763, 0.0033069238997995853, -0.009210070595145226, -0.047008443623781204, 0.003739115549251437, 0.005443569738417864, 0.025514105334877968, 0.038764405995607376], [0.14153683185577393, -0.00977042131125927, -0.028616370633244514, -0.06540007889270782, -0.016493769362568855, 0.03405067324638367, 0.01109305676072836, 0.026930086314678192, 0.00034577958285808563, 0.008405063301324844, 0.00624500447884202, 0.0382976308465004, -0.03614439442753792, -0.004582086578011513, -0.012142093852162361, -0.0047857011668384075, -0.012726872228085995, 0.12447064369916916, 0.04809047281742096, 0.013390377163887024, 0.01969393528997898, -0.02351822331547737, -0.020838098600506783, 0.020811868831515312, -0.02236873097717762, -0.02779596857726574, -0.0025817847345024347, 0.02929353527724743, -0.005167845636606216, -0.02818961627781391, -0.008841264992952347, -0.01887679286301136], [0.2443411499261856, -0.008784336037933826, -0.006498037837445736, -0.04589132219552994, -0.047873273491859436, -0.026644505560398102, 0.003354836255311966, -0.044117435812950134, 0.015409975312650204, -0.03753070533275604, -0.019790777936577797, -0.0002506872406229377, -0.00693287281319499, 0.029961729422211647, 0.004307722207158804, -0.04754569008946419, 0.058059968054294586, 0.2772287130355835, 0.04233749955892563, 0.06382737308740616, -0.003769050585106015, 0.0779334008693695, 0.010888732969760895, -0.0063710748217999935, -0.016531655564904213, -0.019646616652607918, 0.02875952422618866, 0.025539126247167587, -0.04679756611585617, 0.018696190789341927, 8.408603025600314e-05, 0.0005479985265992582], [-0.12154288589954376, -0.0612332858145237, -0.14840067923069, -0.1500261425971985, -0.04672233760356903, -0.07981149107217789, 0.0856485515832901, 0.004328652750700712, 0.06128289923071861, -0.02463940717279911, -0.025726916268467903, 0.022853324189782143, 0.023833785206079483, -0.031086580827832222, 0.057374242693185806, 0.008379614911973476, -0.2369081974029541, -0.28500959277153015, -0.21887274086475372, -0.0901966467499733, -0.01504991389811039, 0.12081058323383331, 0.025178559124469757, 0.019841162487864494, -0.05897068977355957, 0.011377964168787003, -0.012289335019886494, 0.044029779732227325, -0.07048489153385162, -0.008865359239280224, -0.03469943627715111, 0.03222700580954552], [-0.11365287750959396, -0.04548366367816925, -0.05213724821805954, 0.15647390484809875, -0.010965188965201378, -0.11757011711597443, -0.07664263248443604, 0.001638805028051138, 0.01246748398989439, -0.023205483332276344, 0.017743144184350967, 0.015851058065891266, 0.024208255112171173, -0.02244148775935173, -0.0312904454767704, -0.00928599014878273, -0.21965517103672028, -0.06668538600206375, 0.0811217799782753, 0.17376577854156494, 0.18089228868484497, -0.08151133358478546, 0.07745842635631561, 0.021194184198975563, -0.03670576587319374, 0.028875203803181648, -0.010929574258625507, 0.012964335270226002, -0.03103920817375183, -0.006568726617842913, -0.04259295016527176, -0.009118438698351383], [-0.07707768678665161, -0.129166379570961, -0.032056450843811035, -0.014613348990678787, -0.01467177364975214, -0.019721034914255142, 0.003575066104531288, -0.02860737405717373, -0.006600091699510813, -0.0031246040016412735, 0.014296907000243664, 0.013389423489570618, 0.012728073634207249, -0.0031567688565701246, -0.00685475580394268, -0.0033401274122297764, 0.037067852914333344, -0.01346525363624096, -0.12894360721111298, -0.015009874477982521, -0.02252960205078125, 0.025175433605909348, -0.004586996044963598, 0.006007468793541193, -0.03060949221253395, -0.017849557101726532, 0.006586082279682159, -0.02019713632762432, 0.00592572009190917, -0.017038604244589806, 0.009892464615404606, 0.0020051132887601852], [-0.46673110127449036, 0.05659211799502373, 0.04677558317780495, -0.10395801812410355, 0.1164819523692131, -0.017749633640050888, 0.008800843730568886, 0.017296941950917244, -0.009566137567162514, -0.0879397839307785, -0.06473984569311142, -0.02768828347325325, -0.004448135383427143, 0.07178040593862534, 0.023718401789665222, 0.03757641091942787, -0.2668844163417816, -0.1587148755788803, 0.10496751219034195, 0.01926024630665779, 0.1542358249425888, 0.055066902190446854, -0.039570581167936325, 0.07459241896867752, -0.003112063044682145, -0.06475590914487839, -0.018278401345014572, -0.010040920227766037, -0.014848839491605759, 0.0182662233710289, -0.008897829800844193, -0.015293782576918602], [0.33965441584587097, -0.002317949431017041, 0.15128307044506073, 0.24038147926330566, 0.1358572095632553, 0.01745408959686756, -0.04512131214141846, 0.0007803858024999499, -0.018334917724132538, 0.006418559234589338, -0.0142759894952178, 0.009471832774579525, 0.011096817441284657, -0.04734675586223602, -0.03241690993309021, -0.012433537282049656, 0.5145421624183655, 0.5403342843055725, 0.19237354397773743, 0.1412125676870346, 0.10527998208999634, 0.012078632600605488, 0.044261496514081955, 0.021909356117248535, -0.006178915500640869, 0.009233703836798668, -0.012906082905828953, -0.008626709692180157, -0.021476786583662033, 0.011206544935703278, 0.005775997880846262, 0.024691913276910782], [0.00811256468296051, -0.00776043301448226, 0.0032821816857904196, -0.012918232940137386, 0.02822023630142212, 0.01441480778157711, 0.026944948360323906, 0.012501386925578117, 0.009527298621833324, -0.00481164688244462, -0.008415372110903263, -0.01131619792431593, 0.03157367929816246, 0.007352375891059637, 0.0019130413420498371, -0.006276489235460758, 0.009226933121681213, -0.006812265142798424, 0.0025249477475881577, -0.029625751078128815, 0.014874190092086792, 0.038112200796604156, 0.0219363272190094, -0.02753642573952675, -0.016567302867770195, 0.014782650396227837, 0.03839660435914993, -0.006134647876024246, -0.013009503483772278, -0.0013300423743203282, 0.0152434092015028, -0.009551892057061195], [-0.042659319937229156, 0.050343818962574005, 0.04687877371907234, 0.05980407074093819, -0.009471183642745018, -0.001272830180823803, 0.012264237739145756, -0.02806326188147068, 0.005267443135380745, -0.011295820586383343, 0.01400306448340416, -0.0052137901075184345, 0.03012125939130783, 0.020695514976978302, -0.0017533083446323872, -0.025835148990154266, -0.0688929334282875, -0.016449522227048874, -0.0344085693359375, -0.008299027569591999, 0.02331034652888775, 0.02620878629386425, -0.021146923303604126, -0.02587168477475643, -0.0017719080206006765, -0.011509821750223637, 0.026715999469161034, 0.029940955340862274, -0.023302355781197548, 0.005836760625243187, 0.00943628791719675, -0.008518211543560028], [0.13270902633666992, 0.05894723907113075, -0.016815049573779106, -0.011893834918737411, 0.008517212234437466, -0.005793710704892874, 0.03874001279473305, 0.00416297884657979, 0.006942147854715586, 0.008329966105520725, -0.005799144972115755, 0.01857624016702175, -0.016912810504436493, 0.01480230875313282, -0.002418608870357275, -0.02393101342022419, -0.05407457426190376, 0.13364654779434204, 0.04913964495062828, -0.02286810800433159, -0.008243303745985031, 0.005949569400399923, 0.006256547756493092, 0.018983634188771248, -0.007420143578201532, 0.001935930224135518, 0.021424302831292152, 0.026436125859618187, -0.012469025328755379, 0.00981300137937069, -0.011602958664298058, 0.028587130829691887], [-0.00570297334343195, 0.020130442455410957, -0.0069496105425059795, 0.016618235036730766, -0.015873216092586517, -0.024106202647089958, -0.047430820763111115, -0.010663187131285667, 0.020138775929808617, 0.006127591244876385, 0.024657810106873512, 0.02840522862970829, 0.0011089907493442297, -0.015560275875031948, 0.0003403406881261617, 0.005187175236642361, -0.002298063365742564, 0.005888189654797316, -0.004462717566639185, 0.025011355057358742, 0.0026543261483311653, -0.01424743514508009, -0.0033400619868189096, -0.03117026761174202, 0.0061486088670790195, 0.004205118864774704, 0.00449700141325593, 0.008329266682267189, 0.018734272569417953, -0.01128561794757843, -0.010932236909866333, -0.033121973276138306], [-9.495852282270789e-05, 0.0029088875744491816, 0.003817338729277253, 0.008849268779158592, 0.01722857542335987, 0.020526230335235596, -0.0012648821575567126, -0.01562014315277338, 0.026669679209589958, -0.014894623309373856, -0.009445595555007458, 0.012932817451655865, 0.020961957052350044, 0.018222825601696968, -0.021864118054509163, -0.02825409732758999, 0.015315316617488861, -0.009229665622115135, -0.012015623040497303, -0.0009479449363425374, -0.024116268381476402, 0.030372660607099533, -0.013863034546375275, -0.01840362697839737, 0.018085135146975517, -0.032312437891960144, 0.04056835547089577, 0.00901965331286192, -0.011253821663558483, -0.025577018037438393, 0.0361117459833622, -0.017745064571499825], [-0.011349576525390148, 0.000680022407323122, 0.02072877623140812, -0.023081323131918907, 0.019015034660696983, 0.02696859836578369, -0.0077587091363966465, -0.0034596077166497707, -0.009338725358247757, -0.009417049586772919, 0.00808291882276535, 0.0216646958142519, -0.019503993913531303, 0.013100432232022285, -0.01835065707564354, -0.00859150756150484, -0.020757505670189857, 0.010559888556599617, 0.005103848874568939, -0.01463514007627964, -0.00650912057608366, -0.046964555978775024, -0.016174575313925743, 0.030205098912119865, -0.03443491831421852, -0.008990283124148846, -0.01299208402633667, 0.0364638976752758, -0.021205324679613113, -0.022581661120057106, -0.025003792718052864, 0.005748409777879715], [-0.0018934455001726747, -0.004801574163138866, -0.0033003094140440226, -0.017761167138814926, 0.012629997916519642, -0.02183605544269085, 0.009623592719435692, 0.007093257270753384, -0.008854323998093605, 0.024180063977837563, 0.02129386179149151, 0.02597573585808277, 0.003758775070309639, 0.015116742812097073, 0.006575395353138447, 0.004468615632504225, 0.011653449386358261, -0.005106947850435972, 0.016674309968948364, -0.014236394315958023, -0.0135077815502882, 0.014222544617950916, -0.0008135867537930608, 0.002850175369530916, -0.025701649487018585, 0.0056917485781013966, -0.006214189808815718, -0.005142922513186932, -0.008174240589141846, -0.0172289852052927, 0.009858034551143646, -0.032811980694532394], [-0.0014023943804204464, -0.0023093007039278746, 0.0018575373105704784, 0.0016772986855357885, 0.0014356112806126475, 0.012365667149424553, -0.003597087459638715, 0.01645386964082718, 0.019022967666387558, 0.013505217619240284, 0.006123707164078951, 0.03679214045405388, -0.0055806078016757965, -0.01599651388823986, -0.0357511006295681, -0.008658156730234623, -0.0023362520150840282, 0.014564355835318565, 0.0025006907526403666, 0.006015977822244167, -0.038556769490242004, -0.029811255633831024, -0.026116633787751198, 0.0066659413278102875, -0.014694470912218094, -0.007946932688355446, -0.025097044184803963, 0.03348154574632645, -0.014327479526400566, -0.03211059793829918, -0.009063947945833206, -0.03374780714511871], [0.2132706493139267, 0.05252567678689957, 0.035878248512744904, -0.01045907847583294, 0.03559732064604759, 0.026482220739126205, -0.02096582017838955, 0.008490958251059055, -0.006396476179361343, 0.017444105818867683, -0.00691417558118701, 0.009329812601208687, -0.050251394510269165, -0.0158332921564579, 0.014715948142111301, -0.017748869955539703, 0.05852824077010155, 0.05424974486231804, 0.060352619737386703, 0.02230617217719555, 0.056797225028276443, -0.07087866961956024, 0.0071487645618617535, -0.02232195995748043, 0.008934932760894299, -0.0071057286113500595, 0.05930986627936363, 0.014250784181058407, 0.0025288695469498634, -0.0033102736342698336, -0.018570100888609886, 0.014424730092287064], [0.0026991465128958225, 0.012599935755133629, -0.030884573236107826, 0.001407327246852219, 0.0290091410279274, 0.019089283421635628, 0.010121563449501991, 0.002642870880663395, -0.01300183404237032, 0.016685156151652336, -0.01802557148039341, -0.02465062029659748, -0.010787173174321651, -0.00345793180167675, -0.013134241104125977, 0.015492097474634647, -0.033410970121622086, -0.019492099061608315, -0.005935393739491701, -0.026659727096557617, 0.014867070131003857, -0.010949934832751751, 0.007583383470773697, -0.0681648701429367, -0.0336289219558239, 0.007660047151148319, -0.02081439085304737, -0.009160399436950684, 0.04328368976712227, -0.0341029055416584, 0.0003391782520338893, 0.022482406347990036], [0.001892257947474718, -0.013438031077384949, 0.02141612209379673, 0.00398993818089366, 0.01131615974009037, 0.004730331711471081, 0.014904686249792576, -0.011537797749042511, -0.009474636055529118, -0.02790130116045475, -0.008719508536159992, -0.00014164410822559148, -0.003046453697606921, 0.00277224974706769, -0.005106247495859861, -0.03630058094859123, 0.021618859842419624, 0.02546648308634758, -0.016308221966028214, 0.007788605988025665, -0.022722670808434486, 0.020766032859683037, -0.037845708429813385, 0.04565168172121048, 0.03276359289884567, -0.00462967436760664, -0.0064530218951404095, -0.02457679994404316, -0.035763904452323914, 0.01569714955985546, 0.035118501633405685, 0.003234103787690401], [0.0010159072699025273, 0.010218409821391106, 0.021177170798182487, 0.01453584898263216, -0.008929884992539883, -0.025242868810892105, -0.04228749871253967, -0.00925853569060564, 0.01189911924302578, -0.020263876765966415, -0.0011133915977552533, 0.0029868397396057844, 0.020305512472987175, -0.023889176547527313, -0.01972353830933571, 0.03733154013752937, -0.0134739363566041, 0.008483095094561577, -0.009924978949129581, 0.03362460806965828, 0.014504306949675083, -0.029241474345326424, -0.008383064530789852, -0.02784251980483532, -0.02071504294872284, 0.002462232718244195, -0.023515136912465096, -0.012376409955322742, 0.003717125626280904, -0.01740916445851326, -0.0015114487614482641, 0.008213961496949196], [-0.4473186135292053, -0.12664537131786346, -0.09009668976068497, 0.1640028953552246, 0.08831800520420074, -0.10165118426084518, -0.07518209517002106, 0.033442527055740356, 0.013002249412238598, 0.024068254977464676, 0.033204272389411926, 0.013205304741859436, 0.008208250626921654, 0.03484233096241951, 0.03949194774031639, -0.0316399484872818, -0.20933544635772705, -0.13435305655002594, 0.1476629227399826, 0.16616615653038025, 0.18142907321453094, -0.059243422001600266, -0.03204132243990898, -0.0057445550337433815, -0.01293032243847847, 0.03866893798112869, 0.023964129388332367, 0.02772941254079342, 0.05342252552509308, -0.05571722984313965, 0.05984264239668846, 0.01712324470281601], [0.3342568576335907, 0.07076162099838257, 0.12284566462039948, 0.2512226104736328, 0.15941579639911652, -0.025420499965548515, -0.038342610001564026, -0.04489757865667343, 0.006968408823013306, -0.030101245269179344, 0.01253881398588419, -0.01879812404513359, -0.039594873785972595, 0.002712445566430688, -0.0017087265150621533, 0.01617233082652092, 0.5156095623970032, 0.4927867352962494, 0.09507182240486145, 0.19172456860542297, 0.06115173548460007, -0.10329405218362808, -0.015715742483735085, -0.041905615478754044, -0.006006650626659393, 0.01994817703962326, 0.01652592606842518, 0.013598931021988392, 0.021189775317907333, 0.00020778336329385638, 0.00979722011834383, 0.01656475104391575], [0.009656543843448162, 0.0035829131957143545, 0.006765644531697035, -0.013240666128695011, 0.015966832637786865, -0.015441237948834896, -0.023703210055828094, 0.003808043198660016, -0.015086948871612549, -0.022607339546084404, -0.012883118353784084, -0.04087166488170624, 0.0014726168010383844, 0.0024579663295298815, -0.006723710801452398, 0.005992630496621132, -0.015000293031334877, 0.003233355702832341, 0.008437826298177242, -0.013950278051197529, 0.02697581984102726, 0.009455807507038116, -0.01465674303472042, 0.02339232712984085, -0.021066104993224144, -0.002317678416147828, 0.024029208347201347, 0.02908739261329174, 0.0071799252182245255, -0.012400763109326363, 0.008444969542324543, 0.025837762281298637], [0.06802070140838623, -0.000421292323153466, -0.01799747161567211, 0.00918005034327507, 0.01584354043006897, -0.015340719372034073, -0.019916145130991936, -0.013352232053875923, -0.015376239083707333, 0.005166251212358475, 0.004183968994766474, 0.011146655306220055, -0.0077389562502503395, -0.018467117100954056, -0.03812938556075096, -0.005970232654362917, -0.019253643229603767, 0.009631795808672905, 0.007770855911076069, -0.005273022688925266, 0.042357273399829865, 0.04419641196727753, 0.007635483052581549, -0.03435235470533371, -0.028914693742990494, 0.011512509547173977, 0.010515364818274975, -0.005782566964626312, 0.023379502817988396, -0.03669777885079384, 0.01708245649933815, 0.003637591376900673], [-0.015668552368879318, 0.01618414930999279, 0.025134550407528877, 0.011840293183922768, 0.005144499242305756, -0.006052517332136631, 0.02135397680103779, 0.006527051795274019, 0.009220336563885212, 0.006725697312504053, 0.008201672695577145, 0.015123465098440647, 0.009714353829622269, -0.014378475956618786, -0.008748018182814121, -0.001071265316568315, -0.02220122329890728, 0.013366732746362686, -0.022944219410419464, 0.008409355767071247, 0.004517124965786934, -0.002738154260441661, 0.022930875420570374, -0.002987766871228814, 0.019988493993878365, -0.026092426851391792, -0.015657950192689896, -0.014354465529322624, 0.0024101308081299067, 0.02171609364449978, -0.01752563565969467, -0.003674847772344947], [0.05505344271659851, -0.018599292263388634, -0.03469369560480118, -0.014360222965478897, -0.007925954647362232, 0.012979467399418354, -0.048747312277555466, -0.001731649972498417, -0.009178653359413147, 0.00846426747739315, -0.007198830600827932, 0.0035658185370266438, -0.0054274811409413815, -0.022176243364810944, -0.010503414086997509, -0.017777927219867706, 0.039720382541418076, 0.05192999541759491, 0.010783323086798191, 0.005656452849507332, 0.0007352872053161263, -0.009917370975017548, -0.011466420255601406, -0.008773463778197765, 0.006638658232986927, 0.010720748454332352, 0.021390365436673164, 0.015545457601547241, 0.03257046639919281, -0.023763634264469147, -0.008932914584875107, -0.00869924109429121], [-0.05139115825295448, -0.01796434447169304, 0.041657306253910065, -0.0455823615193367, 0.029830150306224823, 0.05358211323618889, 0.03906431421637535, -0.00032483087852597237, 0.0026928596198558807, 0.0018379059620201588, 0.016972411423921585, -0.023706475272774696, 0.004932023119181395, 0.009300058707594872, 0.03337489068508148, -0.014454107731580734, -0.12993654608726501, -0.16569234430789948, -0.06970387697219849, -0.0619535930454731, 0.03778177872300148, 0.030822716653347015, -0.02861304208636284, -0.01951686292886734, -0.04900960624217987, 0.012719007208943367, 0.01104485709220171, 0.013600647449493408, -0.013618922792375088, 0.0027924401219934225, -0.009007446467876434, 0.028958788141608238], [-0.002353458199650049, -0.0029986267909407616, -0.00632868567481637, -0.004305227193981409, -0.020316099748015404, -0.013056653551757336, -0.02433166094124317, 0.04401356726884842, 0.009913116693496704, 0.008714965544641018, 0.011736135929822922, 0.005543589126318693, -0.010337809100747108, -0.005738633219152689, 0.01312359981238842, -0.0016408544033765793, -0.005958056543022394, 0.00806424766778946, -0.009391525760293007, 0.0057443371042609215, 0.0076472144573926926, -0.02310509979724884, -0.00294045964255929, 0.020322652533650398, -0.040838856250047684, 0.03007025644183159, -0.0025067050009965897, 0.045778706669807434, -0.030570119619369507, -0.004061902407556772, -0.019727760925889015, -0.03858020156621933]], "t_proj.0.bias": [-0.00329487188719213, -0.007870186120271683, -0.4578742980957031, -0.0044444710947573185, -0.009350472129881382, -0.010627314448356628, -0.004166053142398596, -0.08674886077642441, 0.16786624491214752, -0.015016698278486729, -0.004264350049197674, -0.011710472404956818, -0.842132031917572, -0.010638313367962837, -0.0219025406986475, -0.07583640515804291, -0.1299094408750534, -0.0046897586435079575, -0.023067189380526543, -0.01305553037673235, -0.00849811639636755, -0.007409314159303904, 0.004291115794330835, -0.002914165612310171, -0.00010084691166412085, -0.0049191745929419994, -0.014652488753199577, -0.03221608325839043, -0.05205293372273445, -0.150142103433609, -0.12479595839977264, -0.002813096158206463, -0.05621730908751488, -0.4105056822299957, -0.08670603483915329, -0.006837892811745405, -0.009840048849582672, -0.11842242628335953, -0.014706159010529518, -0.5651834011077881, -0.04397553578019142, -0.013865217566490173, -0.004350326023995876, -0.38483819365501404, -0.005180916283279657, -0.016174955293536186, -0.2950763404369354, -0.01813429594039917, -0.07637879997491837, -0.00472654402256012, -0.009076405316591263, -0.0070510623045265675, 0.0008236976573243737, -0.02287212759256363, 0.000871955999173224, -0.014461358077824116, -0.4463092088699341, -0.00628243712708354, -0.40540599822998047, -0.0016409106319770217, -0.006662697531282902, -0.17867974936962128, -0.0028051137924194336, -0.01639518514275551, -0.02637680619955063, -0.05322209373116493, -0.3074512481689453, -0.004954840522259474, -0.010067618452012539, -0.012425906024873257, -0.1243111789226532, -0.008034652099013329, 0.02916877157986164, -0.12100791186094284, -0.4097497761249542, -0.1106119379401207, -0.001124779344536364, -0.013960697688162327, -0.2568047344684601, -0.010934741236269474, -0.027674289420247078, 0.0018850688356906176, -0.010274313390254974, -0.009364455938339233, -0.34530267119407654, -0.020710356533527374, -0.014537740498781204, -0.006948494352400303, -0.08660038560628891, -0.011984373442828655, -0.016550136730074883, -0.03216467797756195, -0.019448749721050262, -0.4095478355884552, -0.09709078073501587, -0.004871632903814316, -0.5133614540100098, 0.0014400007203221321, -0.4211532473564148, -0.07310669869184494, -0.012766907922923565, -0.06438808143138885, -0.23440417647361755, -0.19232437014579773, 0.025773286819458008, -0.018114443868398666, -0.023776324465870857, -0.48120322823524475, -0.01178649254143238, -0.006797617767006159, -0.07444655895233154, -0.01951504498720169, -0.007154839113354683, -0.020037561655044556, -0.0065117161720991135, -0.017327798530459404, -0.20730222761631012, -0.007549277972429991, -0.01918875053524971, -0.016266267746686935, 0.023045534268021584, -0.49422892928123474, -0.007727482356131077, -0.014652884565293789, -0.017837464809417725, -0.0254511795938015, -0.057918839156627655, -0.012324200943112373], "t_proj.2.weight": [[0.003834473667666316, 0.06577136367559433, 0.015024305321276188, 0.05298877879977226, -0.0061532873660326, -0.007374017033725977, -0.046625860035419464, -0.02575959451496601, 0.030760526657104492, 0.029682738706469536, -0.035871271044015884, -0.051113732159137726, 0.00034736248198896646, 0.012815365567803383, 0.05383313074707985, -0.07170723378658295, 0.0042084879241883755, -0.0022296716924756765, -0.027008257806301117, 0.08874470740556717, -0.03654039651155472, -0.01082079578191042, -0.033487092703580856, -0.005699622444808483, -0.04419763386249542, 0.04338633641600609, 0.03010663576424122, -0.07921227067708969, -0.01831030286848545, -0.043562110513448715, 0.0568234883248806, 0.0046500409953296185, 0.019008547067642212, 0.010464830324053764, -0.053775448352098465, 0.015158168971538544, -0.02976059354841709, -0.016446787863969803, -0.0027693656738847494, 0.02613474614918232, -0.043457694351673126, -0.031492143869400024, -0.010232899338006973, -0.02642260678112507, 0.030830660834908485, -0.0037595690228044987, -0.022103194147348404, 0.030511338263750076, 0.025105644017457962, 0.0014155465178191662, -0.06659837812185287, -0.04083389788866043, -0.08373797684907913, -0.012354603037238121, 0.06513947993516922, -0.025883324444293976, -0.05279753729701042, -0.001915710628964007, -0.04880920425057411, 0.014226728118956089, 0.05551818385720253, -0.03687964752316475, -0.036124881356954575, 0.011959461495280266, -0.007678290829062462, 0.073544442653656, 0.05866006016731262, 0.02622019685804844, -0.011912231333553791, -0.015587016940116882, 0.01645299606025219, -0.061182595789432526, -0.025397539138793945, 0.056129422038793564, 0.04704109951853752, 0.06347579509019852, 0.008894440717995167, -0.011425888165831566, -0.019994083791971207, 0.028421523049473763, -0.0042506018653512, -0.05652788653969765, -0.022068798542022705, -0.06730358302593231, -0.002783984411507845, -0.03721775859594345, 0.0045104119926691055, 0.017712995409965515, -0.020151061937212944, 0.004273576661944389, 0.0009141303598880768, 0.003831717185676098, -0.02604162134230137, -0.044648561626672745, -0.07144652307033539, 0.04516741633415222, -0.02584254741668701, 0.05018740892410278, 0.007664444390684366, 0.012870177626609802, 0.08772891759872437, 0.09335203468799591, 0.08477906882762909, -0.014633990824222565, -0.03893965110182762, -0.05902828276157379, 0.032404396682977676, 0.10381922125816345, -0.040305983275175095, -0.061274465173482895, 0.02413110062479973, 0.06592939794063568, -0.015865638852119446, 0.012188434600830078, 0.024379177019000053, -0.019254177808761597, 0.03670844808220863, 0.02158549427986145, 0.03002418577671051, -0.02763531543314457, -0.03031512349843979, -0.04094715788960457, 0.03213774040341377, -0.030066216364502907, -0.0007901036296971142, -0.01622437685728073, 0.029613496735692024, 0.01952480711042881], [-0.030460579320788383, -0.020314345136284828, 0.05169634893536568, -0.003367666620761156, -0.029338937252759933, -0.0157267227768898, -0.03143293783068657, -0.02214062586426735, 0.03863448277115822, 0.03161777928471565, 0.0547461099922657, -0.004226115997880697, 0.047273438423871994, 0.00904776155948639, -0.03286903351545334, 0.008851002901792526, 0.00014963687863200903, -0.0028967317193746567, -0.08384869992733002, 0.08076614886522293, -0.0015570838004350662, -0.02871786616742611, -0.02022448740899563, -0.01975129172205925, 0.008786018937826157, 0.042314283549785614, -0.015319880098104477, -0.006439507473260164, 0.04089214652776718, 0.011557187885046005, 0.04514455422759056, -0.01982264220714569, -0.0034957791212946177, -0.09174104779958725, -0.06778225302696228, 0.021200459450483322, -0.025299739092588425, -0.08106681704521179, 0.014185447245836258, 0.0209357813000679, -0.04074478521943092, 0.05084790289402008, 0.017813676968216896, 0.09614408761262894, -0.024820124730467796, -0.050345730036497116, -0.05139212682843208, -0.054837390780448914, -0.016401689499616623, -0.04810771346092224, 0.006748348940163851, 0.02653697319328785, 0.07445913553237915, 0.04477158561348915, -0.016089297831058502, 0.012275153771042824, -0.07432131469249725, -0.02145874872803688, -4.237310349708423e-05, -0.007791169919073582, -0.09423947334289551, -0.04167936369776726, -0.018777132034301758, 0.060895685106515884, 0.002974465489387512, 0.03450287505984306, 0.010944576002657413, -0.024307243525981903, -0.032752811908721924, -0.035963162779808044, -0.005120846908539534, -0.008843867108225822, 0.012249283492565155, -0.05033242329955101, -0.06676556169986725, 0.03265123814344406, -0.010254871100187302, -0.009268139488995075, 0.09497010707855225, 0.04243679717183113, 0.018386242911219597, -0.036949507892131805, 0.014247636310756207, -0.0078071835450828075, 0.03578975051641464, -0.010043212212622166, -0.02721235901117325, 0.030393773689866066, 0.00891956314444542, 0.046233031898736954, 0.015652179718017578, -0.015851881355047226, 0.05645657330751419, 0.09067174792289734, -0.07151222229003906, -0.005945482756942511, -0.01860930398106575, -0.012499828822910786, 0.017901454120874405, -0.054177336394786835, -0.014438783749938011, -0.046137064695358276, 0.050292689353227615, 0.029374316334724426, 0.009037096053361893, 0.025337571278214455, -0.029801467433571815, -0.06558750569820404, 0.0019635455682873726, 