{"arch": {"freqs": [1.0, 2.0, 4.0, 8.0, 16.0, 32.0, 64.0, 128.0, 256.0, 512.0, 1024.0, 2048.0, 4096.0, 8192.0, 16384.0, 32768.0], "schedule": {"beta_min": 0.1, "beta_max": 20.0}}, "weights": {"t_proj.0.weight": [[-0.011749157682061195, -0.02936035767197609, -0.0047838822938501835, -0.016512461006641388, 0.013312987051904202, -0.026674918830394745, 0.005861678160727024, 0.023660115897655487, -0.011726465076208115, -0.006114200223237276, -0.009739769622683525, 0.001535937306471169, -0.005829597823321819, 0.012283803895115852, 0.01810234785079956, 0.005131964571774006, 8.141744183376431e-05, 0.00057874625781551, 0.0036466680467128754, -0.011430462822318077, 0.014107230119407177, -0.0013798258733004332, -0.010064962320029736, 0.01192239485681057, -0.002440027892589569, -0.020280707627534866, -0.00774944806471467, 0.013574951328337193, 0.015620676800608635, -0.022191207855939865, 0.008722431026399136, -0.008837158791720867], [0.004649041220545769, 0.015621662139892578, 0.008736026473343372, -0.025774499401450157, -0.01201861072331667, 0.03460631147027016, 0.006987164728343487, 0.04974409565329552, 0.04452114552259445, 0.0014621992595493793, 0.0037044708151370287, -0.02374911494553089, 0.008842053823173046, -0.010864217765629292, -0.020827466621994972, 0.009179261513054371, -0.003977898973971605, -0.0010856598382815719, -0.001264188322238624, 0.031216586008667946, -0.053634196519851685, 0.005362099967896938, 0.016095971688628197, 0.016231559216976166, 0.004688133019953966, 0.009303907863795757, 0.002971341134980321, -0.02079855278134346, -0.02853136509656906, 0.04195524379611015, 0.0028850387316197157, -0.013566788285970688], [0.1983112245798111, 0.06491820514202118, -0.013169794343411922, 0.02394552156329155, 0.028821416199207306, 0.028461072593927383, -0.018369339406490326, -0.0031403969042003155, -0.039215199649333954, 0.018537374213337898, 0.024506226181983948, -0.009527168236672878, -0.007288697175681591, 0.010173747316002846, -0.011392218060791492, 0.004903777968138456, -0.013301725499331951, 0.0800936371088028, 0.049011535942554474, -0.0028358702547848225, -0.0009771089535206556, 0.03585443273186684, 0.002635763958096504, 0.03021232597529888, 0.01190242264419794, 0.017145393416285515, -0.0074346624314785, -0.011015004478394985, 0.02869831584393978, -0.024741332978010178, -0.018462976440787315, 0.012343348003923893], [0.005494118668138981, 0.0014926675939932466, -0.018238821998238564, 0.01393627654761076, -0.016138283535838127, 0.0006472489330917597, 0.031119810417294502, 0.015101658180356026, 0.03448806330561638, -0.033019449561834335, 0.0015821853885427117, 0.017665138468146324, -0.002680034376680851, 0.01069959718734026, -0.0025574639439582825, 0.023271143436431885, -0.004444501828402281, 0.017384424805641174, 0.00147389923222363, 0.003423735499382019, 0.0028411217499524355, 0.0160222090780735, 0.001486749853938818, 0.000755312736146152, 0.010349906049668789, -0.018055176362395287, -0.00908010546118021, -0.028822802007198334, 0.012052548117935658, -0.0073675368912518024, 0.0038875704631209373, -0.004410134628415108], [0.02053002268075943, 0.02765638194978237, -0.0129767507314682, -0.00953248143196106, -0.039391327649354935, 0.01628459431231022, 0.013370893895626068, 0.04058430716395378, 0.008493244647979736, 0.006795419845730066, 0.02751198410987854, 0.0011693146079778671, 0.009371776133775711, 0.005020297132432461, -0.034825634211301804, 0.003077118191868067, -0.0027221539057791233, -0.01047071348875761, -0.036167483776807785, -0.019097426906228065, -0.04302791878581047, -0.02075955644249916, -0.0015087530482560396, -0.017326144501566887, 0.008622245863080025, 0.04637378081679344, 0.03539115563035011, -0.026826750487089157, -0.058751367032527924, 0.051841843873262405, 0.016016827896237373, 0.00830074679106474], [-0.022287307307124138, -0.0018040647264569998, -0.018189242109656334, 0.0016168642323464155, 0.028963912278413773, -0.019631246104836464, 0.047093313187360764, 0.045582354068756104, 0.023076802492141724, -0.01762266643345356, 0.017748398706316948, 0.013765609823167324, -0.004636063706129789, 0.03640105575323105, 0.007564988918602467, 0.01436416432261467, 0.004338554572314024, -0.010473956353962421, -0.016239427030086517, -0.014562910422682762, 0.02393343113362789, -0.006949324626475573, -0.011483870446681976, -0.006294516380876303, 0.039007339626550674, -0.02572372928261757, -0.016093634068965912, -0.004209390375763178, -0.0036630788818001747, -0.02059083804488182, 0.004223283845931292, -0.031009025871753693], [0.023839084431529045, -0.024057667702436447, 0.0033921259455382824, -0.040577396750450134, -0.011797837913036346, 0.019312215968966484, 0.03926834836602211, -0.02672829106450081, -0.0025695606600493193, -0.006240897811949253, 0.007873212918639183, -0.003958323039114475, -0.022725865244865417, -0.007427392527461052, 0.0157184898853302, -0.013653154484927654, 0.004369350615888834, 0.01073724590241909, -0.005783286411315203, -0.018981575965881348, -0.0164924468845129, 0.001313746557570994, -0.018083445727825165, 0.0168886948376894, 0.04854637011885643, 0.017265355214476585, -0.0005123761366121471, 0.022830398753285408, -0.024048443883657455, -0.0013164958218112588, -0.03028121031820774, -0.07164088636636734], [-0.13296721875667572, 0.07810021936893463, -0.01757107488811016, 0.030162939801812172, -0.009599159471690655, -0.006178618408739567, -0.0052764457650482655, 0.009794703684747219, 0.020024731755256653, 0.02575429528951645, -0.02013443596661091, -0.001975057413801551, -0.011554853990674019, -0.01704115979373455, 0.00845749955624342, 0.026650335639715195, -0.007345134392380714, -0.019647719338536263, -0.010789381340146065, 0.010240384377539158, 0.006887651979923248, -0.021334122866392136, -0.003756928723305464, 0.03185705095529556, -0.012477705255150795, -0.012262627482414246, 0.012170598842203617, -0.04578274115920067, 0.018070407211780548, -0.025986721739172935, 0.013764558359980583, 0.008211352862417698], [-0.311034619808197, 0.04438198357820511, 0.10154275596141815, 0.08616825193166733, 0.07938366383314133, 0.040339354425668716, 0.09705055505037308, 0.06777070462703705, 0.0010320065775886178, -0.02122313529253006, -0.012033887207508087, -0.020343013107776642, 0.021387312561273575, -0.01594063825905323, -0.027726614847779274, -0.030565708875656128, -0.323066383600235, -0.030809013172984123, -0.2190847396850586, -0.13357682526111603, -0.11232113093137741, -0.09902036935091019, -0.045280903577804565, -0.016772642731666565, 0.04034394770860672, -0.01574733294546604, -0.015321603044867516, 0.04429177567362785, 0.004854953847825527, 0.014494852162897587, -0.00777691463008523, 0.010205920785665512], [-0.004481511190533638, -0.010447951965034008, 0.013921057805418968, 0.004138299264013767, 0.009559511207044125, -0.011343427002429962, 0.017884351313114166, -0.046555690467357635, -0.02233581803739071, 0.024832043796777725, 0.005900933872908354, 0.012191405519843102, -0.02386709488928318, 0.012978371232748032, -0.01316371001303196, 0.02158265747129917, 0.013694057241082191, -0.005865835584700108, -0.01478753611445427, 0.0009800856932997704, 0.02455724962055683, -0.001999075524508953, 0.004424579907208681, 0.010646442882716656, 0.03036799654364586, 0.03008018247783184, -0.03947155177593231, 0.011051778681576252, -0.003498947247862816, 0.004403942730277777, 0.00323036452755332, -0.015368511900305748], [-0.015620245598256588, 0.013480575755238533, -0.023598188534379005, 0.001566875260323286, -0.01161782257258892, 0.03537918999791145, -0.026838025078177452, -0.00885190349072218, -0.021713674068450928, -0.010576412081718445, 0.02573675848543644, 0.008702104911208153, 0.023124972358345985, -0.034189529716968536, -0.00875591766089201, -0.004522276576608419, 0.00948928203433752, 0.020653672516345978, 0.03332182765007019, 0.010588360019028187, 0.007242286577820778, 0.03172808140516281, 0.002743522869423032, -0.015562026761472225, -0.03234091028571129, 0.006757059134542942, 0.0015124507481232285, -0.022491317242383957, 0.010557985864579678, 0.016552774235606194, -0.0009658234775997698, -0.007363151293247938], [0.004587666597217321, -0.0014553272631019354, 0.013050579465925694, -0.017896339297294617, 0.007154625840485096, 0.04955440014600754, 0.002165458397939801, 0.009723885916173458, -0.011187119409441948, 0.02632286585867405, 0.02578035369515419, -0.009535687044262886, 0.022462032735347748, -0.01457159873098135, -0.003656902816146612, -0.025991639122366905, 0.015117223374545574, 0.0175009798258543, -0.019630275666713715, 0.02594459429383278, 0.015686722472310066, 0.055425919592380524, -0.036494024097919464, -0.03434254229068756, -0.003086922923102975, 0.026364518329501152, -0.03396529331803322, 0.01965830847620964, -0.001311714295297861, 0.018806008622050285, -0.03814728185534477, -0.049257561564445496], [-0.2374698966741562, 0.21327446401119232, 0.3625181019306183, 0.016867483034729958, 0.18729576468467712, 0.10603641718626022, 0.0018845160957425833, 0.05920862406492233, -0.05867171660065651, -0.06554333865642548, -0.0062728445045650005, 0.017000971361994743, -0.011738975532352924, -0.0023082063999027014, 0.0026656128466129303, 0.019047357141971588, 0.3647921681404114, 0.1723668873310089, 0.13566990196704865, 0.49480804800987244, -0.052217427641153336, -0.054137665778398514, 0.00016491764108650386, -0.0015331266913563013, -0.01574966311454773, -0.013555317185819149, 0.008989114314317703, 0.0046549635007977486, 0.026474162936210632, 0.011488601565361023, -0.004740640986710787, 0.0573405921459198], [-0.010123677551746368, -0.0020877537317574024, 0.006965985521674156, -0.009567251428961754, -0.01348599512130022, 0.020953278988599777, -0.03352709487080574, -0.041909851133823395, -0.009886306710541248, -0.0008331805001944304, 0.0006763890851289034, -0.01133668702095747, 0.0025649957824498415, -0.024963073432445526, 0.017721686512231827, 0.005573496222496033, -0.00490947999060154, 9.330103057436645e-05, 0.03044414333999157, 0.020988570526242256, -0.014986695721745491, 0.023849839344620705, 0.009270704351365566, 0.009642924182116985, -0.031454168260097504, 0.009056659415364265, -0.007638269569724798, -0.006953048054128885, 0.014965018257498741, -0.0007898521143943071, 0.0006465818150900304, -0.00322756078094244], [-0.01501641795039177, -0.012477821670472622, -0.019035672768950462, 0.01964348368346691, -0.017959803342819214, 0.006342038977891207, -0.014535285532474518, 0.026050075888633728, -0.006924273446202278, 0.010209609754383564, -0.006241944618523121, 0.01241356786340475, 0.007143401075154543, -0.0011915721697732806, 0.03079955279827118, 0.02360220067203045, 0.019032826647162437, -0.015516040846705437, 0.011657116003334522, 0.008080310188233852, -0.001721935230307281, -0.004804810043424368, -0.012383469380438328, 0.011487369425594807, -0.03252801671624184, -0.028689075261354446, 0.004904802888631821, -0.0328051820397377, 0.04332485422492027, -0.029442574828863144, 0.02970990724861622, 0.01642095111310482], [-0.006633523851633072, -0.286383718252182, -0.31152862310409546, -0.12189639359712601, 0.26451170444488525, -0.06337839365005493, -0.039834361523389816, -0.017552081495523453, 0.02050015516579151, 0.022359954193234444, 0.012628800235688686, 0.002633599564433098, 0.013117765076458454, -0.04155845195055008, -0.025134677067399025, -0.00607839971780777, -0.21894550323486328, -0.48312127590179443, -0.11630779504776001, 0.23726385831832886, 0.008518392220139503, 0.04849529266357422, -0.016003211960196495, -0.007625940255820751, 0.03429518640041351, -0.007999944500625134, 0.0112529918551445, -0.04685211926698685, -0.0009186120587401092, 0.022762466222047806, 0.025342626497149467, 0.01981835998594761], [0.02661517821252346, -0.019510509446263313, -0.02363697625696659, -0.010984094813466072, -0.02354038879275322, 0.022313687950372696, -0.032146185636520386, -0.003518368350341916, 0.0032362218480557203, -0.0051987627521157265, -0.012384538538753986, -0.00795008521527052, -0.00984945334494114, -0.02336268126964569, 0.015514031983911991, -0.002594610210508108, -0.014754153788089752, 0.018857913091778755, 0.020976880565285683, 0.01113886944949627, -0.03987855464220047, -0.016158243641257286, 0.008522207848727703, 0.004098569042980671, -0.04591131955385208, 0.0014322914648801088, 0.032053470611572266, -0.029836896806955338, 0.0253493320196867, -0.012889634817838669, -0.00414299825206399, 0.01736488938331604], [-0.0002696438750717789, -0.019715595990419388, -0.02383555844426155, -0.00767409335821867, 0.009749353863298893, -0.021411258727312088, -0.003249384928494692, -0.0016321496805176139, 0.001234416151419282, 0.009111089631915092, 0.0018755851779133081, 0.009870021604001522, -0.018893806263804436, 0.012587782926857471, 0.026141881942749023, 0.02281251549720764, 0.00325911957770586, 0.0030833540949970484, 0.02647634968161583, -0.017968909814953804, 0.005420088768005371, -0.005364141892641783, -0.022929804399609566, 0.033889882266521454, -0.0008548864279873669, -0.011277812533080578, 0.0027736492920666933, -0.007099166978150606, 0.03779720515012741, -0.041429560631513596, -0.008107390254735947, -0.024149473756551743], [5.6520788348279893e-05, -0.026576263830065727, 0.003670042846351862, -0.0019919744227081537, 0.009844096377491951, -0.0323004275560379, 0.0009505120106041431, -0.014692222699522972, 0.04030954837799072, -0.0009620021446608007, -0.00231823418289423, -0.01677619107067585, -0.02549939975142479, 0.01541640143841505, -0.011347983032464981, 0.0005392017774283886, -0.018411992117762566, -0.012858889997005463, 0.00801999494433403, 0.008666242472827435, -0.004282688722014427, -0.017839891836047173, -0.00460266787558794, -0.02275393158197403, 0.02672353945672512, -0.053598251193761826, 0.003471934702247381, 0.01869998499751091, 0.01482013426721096, -0.023083841428160667, -0.007060447707772255, 0.005178292281925678], [-0.022321069613099098, 0.032026953995227814, 0.007398771122097969, 0.0027749938890337944, 0.03853178769350052, -0.036006633192300797, 0.018955860286951065, -0.010057724080979824, -0.01410731766372919, -0.005435571540147066, -0.018678229302167892, -0.0010380747262388468, -0.006741324905306101, 0.015015107579529285, 0.01183832623064518, -0.004440905526280403, -0.0177458543330431, -0.010982980951666832, 0.013122431002557278, -0.015795396640896797, 0.003104687901213765, -0.022541098296642303, -0.010754847899079323, -0.016746634617447853, 0.026584576815366745, -0.04965760186314583, -0.008592342957854271, 0.019045671448111534, 0.02123367041349411, 0.023745106533169746, -0.028790578246116638, 0.03649119287729263], [-0.15152333676815033, -0.020574910566210747, 0.007399577181786299, 0.03731689602136612, -0.033102668821811676, 0.04472490772604942, 0.02467390149831772, -0.012731240130960941, 0.019861245527863503, 0.015941163524985313, -0.012022196315228939, -0.008611326105892658, 0.02222445420920849, 0.0015730528393760324, -0.006060312036424875, 0.023248251527547836, -0.045885782688856125, -0.022117244079709053, -0.1001620888710022, -0.02186162956058979, -0.06450799852609634, 0.020234765484929085, 0.024031629785895348, 0.017901072278618813, -0.02483418583869934, 0.008527707308530807, 0.006932944990694523, -0.010433396324515343, -0.003861899022012949, -0.041043102741241455, -0.01500737201422453, 0.007208273280411959], [-0.002700851997360587, -0.0054952590726315975, 0.04431584104895592, -0.033733367919921875, 0.03268510475754738, -0.010858401656150818, 0.03980613499879837, -0.01664452999830246, -0.03538737818598747, 0.01080136839300394, -0.017702976241707802, -0.0018629074329510331, 0.01239810511469841, 0.008271636441349983, -0.0248841755092144, -0.047667764127254486, 0.0083406250923872, -0.0034458742011338472, -0.03176240622997284, -0.01020353939384222, 0.04078707844018936, -0.02048051729798317, -0.023664256557822227, -0.05186738446354866, 0.04011426120996475, 0.028017282485961914, -0.03532864898443222, 0.06774967163801193, -0.0023606913164258003, 0.021207759156823158, -0.013629316352307796, -0.03702358528971672], [-0.01207712385803461, -0.016037600114941597, -0.0006738512893207371, 0.0012376040685921907, -0.00943458080291748, -0.012705376371741295, -0.01667615957558155, -0.04529493302106857, 0.02212434448301792, -0.002066805027425289, -0.002202116185799241, -0.016343699768185616, -0.01329647097736597, -0.021435020491480827, -0.007816523313522339, 0.001026276033371687, -0.00518918177112937, 0.0003309680032543838, 0.0277353934943676, 0.009696169756352901, -0.009324251674115658, 0.005377013701945543, 0.011300686746835709, 0.015974614769220352, -0.009205909445881844, 0.01368071511387825, -0.025053896009922028, 0.022803444415330887, 0.0244602020829916, -0.008334514684975147, 0.023725107312202454, -0.0002493096690159291], [0.0024650241248309612, 0.005444797221571207, 0.034122757613658905, -0.008587823249399662, 0.0030110501684248447, 0.036168087273836136, -0.009298676624894142, 0.00043908623047173023, -0.030679812654852867, 0.020544642582535744, -0.0014929748140275478, -0.020709259435534477, 0.03764481097459793, -0.009679323062300682, 0.002392649417743087, -0.033044084906578064, 0.014093784615397453, -0.002203479176387191, -0.021716127172112465, 0.0047140708193182945, 0.014790377579629421, 0.03449311852455139, -0.007809561677277088, -0.012183782644569874, -0.04028676450252533, 0.04536981135606766, -0.0077512189745903015, 0.01567859947681427, -0.04154514521360397, 0.04802580177783966, -0.002577106701210141, -0.02462031878530979], [-0.23603232204914093, -0.04593168944120407, 0.0881766676902771, 0.16729891300201416, 0.09968692064285278, 0.07168743014335632, 0.03309374302625656, 0.006978363264352083, 0.02023318223655224, -0.025601424276828766, 0.00804305449128151, -0.005956245120614767, -0.009601288475096226, -0.018838541582226753, -0.025673003867268562, -0.0049942368641495705, -0.20988646149635315, -0.21650514006614685, -0.10929138213396072, -0.08163490891456604, -0.18596099317073822, -0.04330161586403847, -0.019640469923615456, -0.009981089271605015, 0.031192641705274582, -1.0483163350727409e-05, -0.0019185533747076988, 0.007564096245914698, -0.028391225263476372, -0.022917719557881355, -0.04183902591466904, -0.004172653891146183], [0.007646051235496998, 0.01761741191148758, -0.028371799737215042, -0.023168131709098816, -0.0010918689658865333, 0.018096502870321274, 0.0335845910012722, 0.0574832409620285, 0.013109584338963032, -0.02132599800825119, 0.027678130194544792, 0.011776665225625038, -0.010853069834411144, 0.01511236373335123, 0.016029223799705505, 0.0063428147695958614, -0.010761992074549198, 0.009818647988140583, 0.008421019650995731, -0.01808718964457512, -0.006862369365990162, -0.01886262372136116, -0.01482846587896347, 0.015022323466837406, 0.024985944852232933, -0.006019171793013811, 0.02730957604944706, -0.024782400578260422, -0.017679205164313316, -0.011109641753137112, 0.005482844077050686, -0.019047915935516357], [-0.015573441982269287, -0.0019872570410370827, -0.024377945810556412, 0.006471514701843262, 0.027780387550592422, -0.0157899372279644, 0.014698965474963188, 0.04369437322020531, 0.01871338114142418, -0.03667401894927025, -0.0010669849580153823, 0.012901210226118565, -0.010722333565354347, 0.011054810136556625, 0.0063977111130952835, 0.018839320167899132, -0.005274603143334389, 0.003002403536811471, 0.006569401826709509, -0.006375176832079887, -0.00486342329531908, -0.015837116166949272, 0.011207815259695053, 0.016930555924773216, 0.00893318559974432, -0.031201988458633423, 0.009439113549888134, -0.011311205103993416, -0.009061673656105995, 0.0035373263526707888, 0.022066054865717888, 0.007001228164881468], [0.015421017073094845, 0.0020596415270119905, -0.03892591595649719, -0.005895639769732952, -0.012172362767159939, -0.017103485763072968, -0.0024205450899899006, 0.03422188386321068, 0.022288674488663673, -0.011264466680586338, -0.01872663013637066, -0.007135180290788412, -0.0028194698970764875, -0.012166273780167103, 0.013913154602050781, 0.014933306723833084, -0.026534603908658028, 0.01650339551270008, 0.022177349776029587, 0.006406528875231743, -0.04145373776555061, -0.011361910030245781, 0.002934077987447381, -0.01460101269185543, -0.005705355200916529, -0.035397760570049286, 0.02065720036625862, -0.03419935703277588, 0.03088078275322914, -0.01874074526131153, 0.00643158471211791, 0.03692895174026489], [0.001300573581829667, -0.00794147327542305, -0.015536433085799217, 0.007032428402453661, -0.006371765397489071, 0.005771360360085964, -0.022270210087299347, 0.014906185679137707, 0.031230656430125237, 0.007848172448575497, -0.002840266330167651, 0.0030899569392204285, -0.022110724821686745, -0.0026855741161853075, 0.011590342037379742, 0.04701562225818634, -0.005245967302471399, -0.008132235147058964, 0.01801178604364395, 0.006850079167634249, -0.02279074117541313, -0.009897463023662567, -0.0008467254228889942, 0.01757143624126911, 0.0013862220803275704, -0.015590579248964787, 0.02386297471821308, -0.043002672493457794, 0.020753173157572746, -0.008262792602181435, 0.031000318005681038, -2.6128647732548416e-05], [0.003965083044022322, 0.00022600808006245643, 0.029922066256403923, -0.011092088185250759, 0.02700067311525345, 0.008999365381896496, 0.004164008889347315, 0.01395861804485321, -0.04837203025817871, 0.027445176616311073, -0.001795504824258387, -0.004576144739985466, 0.016735166311264038, 7.601242396049201e-05, 0.01133990939706564, -0.039669185876846313, 0.0002769673883449286, -0.0023287658113986254, -0.0015573062701150775, 0.012066318653523922, 0.02428995817899704, 0.030163226649165154, -0.024182409048080444, -0.027956848964095116, 0.00402006646618247, 0.00029877107590436935, -0.014842918142676353, 0.024493759498000145, 0.004587128758430481, 0.011656665243208408, -0.02098851650953293, -0.017832843586802483], [0.010019256733357906, 0.007763753645122051, 0.002784758573397994, -0.00471817422658205, -0.014371950179338455, 0.028994057327508926, 0.02257188968360424, 0.04393002763390541, 0.02191905863583088, -0.012621269561350346, -0.009034635499119759, -0.010752631351351738, 0.02894669398665428, -0.00652757054194808, 0.02210748754441738, -0.005579913035035133, -0.002735327696427703, 0.014098616316914558, -0.0021617675665766, 0.02610514871776104, -0.01633203588426113, 0.02982800453901291, 0.02496952936053276, 0.0014284371864050627, 0.003227143082767725, 0.018034297972917557, -0.006746161729097366, -0.014606060460209846, -0.04679818078875542, 0.03161583095788956, 0.008966207504272461, -0.01491293404251337], [0.006842020899057388, 0.016879575327038765, -0.0031939062755554914, -0.008754943497478962, -0.0358300618827343, 0.020432405173778534, 0.04766695946455002, 0.021456126123666763, 0.018822509795427322, -0.006825820077210665, 0.03380729630589485, 0.001663117902353406, -0.005339290481060743, -0.00018337927758693695, -0.0022279913537204266, 0.013786384835839272, 0.004086601547896862, 0.0038808591198176146, -0.0012569001410156488, -0.0003546124789863825, -0.020119886845350266, 0.011793744750320911, 0.008529860526323318, 0.014412716031074524, 0.05132542550563812, 0.031931210309267044, -0.008200225420296192, -0.01783354952931404, -0.016884641721844673, 0.009167658165097237, -0.0011871519964188337, -0.03550845757126808], [-0.0054658264853060246, -0.01418672688305378, 0.012354462407529354, -0.008488436229526997, 0.030697111040353775, -0.05892548710107803, -0.019690921530127525, -0.04762842878699303, -0.003843947546556592, 0.002158171497285366, -0.039057862013578415, 0.002919413149356842, -0.01846972666680813, 0.007171932607889175, 0.008012842386960983, 0.010522736236453056, -0.046141233295202255, 0.004989782813936472, 0.038939207792282104, 0.012676714919507504, 0.006631508935242891, 0.006603196728974581, 0.01249430701136589, -0.020064907148480415, 0.0024062024895101786, -0.05838489904999733, -0.011665870435535908, 0.03782214969396591, 0.02794588916003704, -0.028216809034347534, -0.016349490731954575, 0.025053508579730988], [0.2929058372974396, 0.03938119113445282, -0.014171239919960499, -0.012808091938495636, -0.14122866094112396, 0.017948850989341736, 0.001160434796474874, 0.050468560308218, -0.0017409436404705048, 0.012788165360689163, 0.006703203544020653, 0.004740491043776274, -0.01697145402431488, 0.030428312718868256, 0.017019348219037056, 0.03554866462945938, 0.1258244514465332, -0.038691919296979904, 0.21778395771980286, -0.19920775294303894, -0.10455871373414993, 0.023541223257780075, 0.060634806752204895, 0.009107857011258602, 0.008251329883933067, 0.011836337856948376, -0.04341218248009682, 0.007238330319523811, 0.01087096892297268, 0.04241357743740082, 0.01589527167379856, 0.03135499730706215], [0.1592961847782135, -0.33057621121406555, 0.13290870189666748, 0.457847535610199, 0.09928317368030548, -0.028766512870788574, -0.01238356065005064, 0.05006885156035423, 0.01699197106063366, -0.012059482745826244, 0.036190807819366455, 0.009767687879502773, 0.03468892723321915, -0.030070794746279716, -0.0012706798734143376, 0.021526798605918884, -0.3346835672855377, -0.25537994503974915, -0.17503537237644196, 0.18761500716209412, -0.24992233514785767, 0.010281944647431374, -0.002329968847334385, -0.03885838761925697, 0.014380297623574734, -0.0334579162299633, -0.013540590181946754, -0.007014165166765451, 0.006237277295440435, 0.034546833485364914, -0.008743103593587875, 0.0023307004012167454], [0.0012231485452502966, 0.008695868775248528, 8.679338498041034e-05, -0.02595760114490986, 0.005383632145822048, 0.008510403335094452, 0.04130912944674492, 0.06929409503936768, 0.002363321604207158, -0.021820493042469025, 0.0019085905514657497, -0.009606503881514072, 0.034314077347517014, 0.0013027400709688663, 0.011499435640871525, -0.04473859444260597, -0.0158151313662529, 0.009595751762390137, -0.005698243621736765, -0.0020686290226876736, -0.016173632815480232, 0.004809752106666565, -0.027770666405558586, -0.030478347092866898, 0.009266343899071217, -0.02467888593673706, 0.003390597878023982, 0.003632226027548313, 0.00023966174921952188, 0.0048727598041296005, -0.010965650901198387, -0.008760882541537285], [0.05041730776429176, 0.10050848871469498, 0.12619473040103912, 0.05467235669493675, 0.042567141354084015, -0.00878352951258421, 0.011050097644329071, 0.028831662610173225, 0.027559537440538406, 0.015046765096485615, -0.022792385891079903, 0.005013810936361551, 0.007777833845466375, -0.010317089036107063, -0.020779665559530258, 0.014357165433466434, -0.15165141224861145, -0.1148834079504013, -0.02243765816092491, -0.0014174454845488071, -0.06697357445955276, -0.007823441177606583, -0.02577083557844162, 0.025745728984475136, 0.01499056164175272, -0.011352173052728176, 0.013349770568311214, 0.0072536589577794075, 0.021398937329649925, -0.019770924001932144, -0.02362104319036007, 0.01524104829877615], [0.0302910003811121, -0.0799419954419136, -0.043584149330854416, -0.017458122223615646, -0.04445264860987663, 0.017220431938767433, -0.013824270106852055, 0.0017569552874192595, 0.011140387505292892, 0.036131352186203, -0.01784551329910755, -0.0034681304823607206, -0.014259177260100842, 0.02440241165459156, -0.0015340723330155015, 0.04459818825125694, 0.06258364021778107, 0.018027236685156822, -0.005010697059333324, 0.02647712454199791, -0.029598362743854523, -0.012470531277358532, 0.005156890023499727, 0.026804368942975998, -0.033823587000370026, 0.01631828583776951, -0.02547764964401722, -0.04445600137114525, 0.01825302466750145, 0.0212846826761961, 0.015175209380686283, -0.006315009202808142], [-0.007735550869256258, 0.002325930166989565, -0.006353011354804039, 0.006153259426355362, -0.009854674339294434, -0.008541928604245186, -0.016810381785035133, -0.03770442679524422, 0.0015088203363120556, 0.0016383305191993713, -0.006953898351639509, -0.007567716762423515, -0.022935258224606514, -0.010613814927637577, 0.016546782106161118, 0.023151632398366928, -0.010200802236795425, -0.005954860709607601, 0.015652550384402275, -0.011345598846673965, -0.015008979476988316, -0.015110793523490429, 0.02691357024013996, 0.02583724446594715, -0.003163063433021307, 0.011036643758416176, -0.0009502288303337991, -0.01066918671131134, 0.009975995868444443, -0.006608780939131975, 0.01847105659544468, 0.006628097966313362], [0.20460902154445648, 0.06150878965854645, 0.008409392088651657, 0.03519197925925255, 0.05279463529586792, -0.02483501471579075, -0.06422130763530731, -0.023470956832170486, -0.005321571137756109, 0.0189879909157753, 0.017220184206962585, -0.048445574939250946, -0.01197202131152153, 0.01743873953819275, 0.0020180081482976675, 0.015179975889623165, 0.09607423841953278, 0.13173040747642517, 0.09588500112295151, 0.11033091694116592, 0.16333629190921783, 0.026122823357582092, 0.05564107373356819, -0.021000560373067856, 0.0066750990226864815, 0.032680269330739975, 0.02010260336101055, 0.00017197351553477347, -0.0018671557772904634, 0.010579054243862629, -0.01225783210247755, 0.002072009490802884], [-0.5481739044189453, -0.3856083154678345, -0.04084733501076698, 0.25943702459335327, 0.1629614382982254, 0.010169083252549171, 0.08437581360340118, 0.07640311866998672, -0.0029484217520803213, -0.00021908897906541824, 0.052264075726270676, 0.027724727988243103, 0.020325858145952225, -0.026128850877285004, -0.02753341756761074, 0.0010284235468134284, -0.14654266834259033, -0.133774071931839, 0.09324102848768234, -0.2336176633834839, -0.34750688076019287, -0.031890302896499634, -0.05923714488744736, -0.013539359904825687, 0.022644471377134323, 0.02002870850265026, -0.007344441954046488, -0.014264853671193123, -0.004175202455371618, -0.001884040771983564, -0.011573630385100842, -0.012990321964025497], [0.006645016837865114, 0.003349439473822713, 3.7771595088997856e-05, -0.009487511590123177, -0.004717684350907803, 0.018334124237298965, 0.014103295281529427, 0.04149923473596573, -0.029738306999206543, 0.019615009427070618, 0.009600994177162647, 0.004720067605376244, 0.014619815163314342, 0.006100992206484079, 0.02000020071864128, -0.02250906080007553, 0.011153986677527428, -0.00943789817392826, -0.008347944356501102, -0.028400644659996033, -0.002564094727858901, -0.013461684808135033, -0.02403387986123562, 0.010559551417827606, -0.0224581491202116, 0.016062267124652863, 0.013142225332558155, -0.01115993969142437, 0.012396980077028275, -0.01760287955403328, 0.01402255054563284, -0.016277486458420753], [0.022475196048617363, 0.005043558310717344, -0.0003829591441899538, -0.013501817360520363, 0.012359336949884892, -0.0035397924948483706, -0.01497033704072237, 0.0556846484541893, -0.016679387539625168, 0.004681930411607027, -0.03529393672943115, -0.014546248130500317, 0.023213349282741547, -0.0023113274946808815, -0.006973385810852051, -0.0143351461738348, -0.00487913191318512, -0.001306409714743495, -0.015640344470739365, -0.013932381756603718, -0.015861038118600845, -0.006991185713559389, -0.0015149691607803106, -0.03446272760629654, -0.012218569405376911, -0.007851858623325825, 0.02558066137135029, 0.007173759397119284, -0.03216928243637085, 0.025179635733366013, -0.005354335065931082, 0.04998048394918442], [-0.005672244355082512, 0.01950138807296753, -0.013873739168047905, 0.020903129130601883, 0.007796416990458965, 0.013801878318190575, -0.026694344356656075, 0.01593548059463501, -0.013713018968701363, -0.011176509782671928, -0.007860084995627403, 0.0014243177138268948, 0.034001708030700684, -0.0109071284532547, -0.004462531302124262, -0.007437669672071934, -0.0004659328842535615, 0.007357303984463215, -0.010089152492582798, 5.941023118793964e-06, 0.004842021036893129, 0.03478194773197174, 0.016010189428925514, -0.029056953266263008, -0.027888953685760498, -0.0026644421741366386, 0.01018423493951559, -0.007149426266551018, -0.02259388379752636, 0.025790873914957047, 0.021942082792520523, 0.046180274337530136], [-0.006768808700144291, -0.02291320636868477, -0.03161492198705673, 0.007793864235281944, 0.006226492580026388, -0.04905737563967705, 0.005756267812103033, -0.00040652547613717616, 0.027601592242717743, -0.014835773967206478, -0.0018103723414242268, 0.011157270520925522, -0.030697183683514595, 0.02252793498337269, 0.007229733746498823, 0.04138511046767235, -0.012853482738137245, 0.0036143166944384575, 0.009324640966951847, -0.012444780208170414, 0.0010911438148468733, -0.02118813991546631, -8.324423106387258e-05, 0.03264768049120903, 0.0157243050634861, -0.03786474093794823, 0.0021207514218986034, -0.009806497022509575, 0.02008732222020626, -0.041237443685531616, 0.017064519226551056, -0.0059675793163478374], [-0.0016303877346217632, 0.01144868042320013, 0.018126316368579865, 0.00671724695712328, 0.01011427491903305, -0.014044986106455326, 0.007779922802001238, -0.026220260187983513, -0.031049393117427826, 0.020507922396063805, 0.005649080034345388, 0.0004911764990538359, -0.0071525489911437035, 0.004145830869674683, 4.666071617975831e-05, 0.004165164660662413, -0.0008565438911318779, -0.012170670554041862, -0.003377094166353345, -0.00420121056959033, 1.1972471838817e-05, -0.0007586415158584714, 0.014426995068788528, 0.035015691071748734, 0.010686016641557217, 0.031910207122564316, -0.009919311851263046, 0.004076319746673107, -0.02105066552758217, 0.02008483186364174, -0.008912120945751667, -0.025611456483602524], [0.40534883737564087, 0.39817559719085693, 0.10382191091775894, -0.057567451149225235, 0.039553750306367874, -0.024108022451400757, 0.0030435454100370407, 0.006701958831399679, 0.006251017563045025, 0.0464472733438015, -0.014455455355346203, -0.02286542020738125, -0.0018257907358929515, 0.02227858081459999, -0.002380938967689872, -0.02117263525724411, 0.2954523265361786, -0.05349159240722656, -0.0933350920677185, -0.07871166616678238, -0.06341524422168732, -0.041544925421476364, 0.0031383568421006203, -0.032745908945798874, -0.004567489959299564, 0.013630305416882038, 0.034019585698843, 0.012053029611706734, 0.010208336636424065, 0.020428748801350594, -0.013470321893692017, 0.0020267004147171974], [0.014346601441502571, -0.02450140193104744, -0.0296410471200943, -0.005047125741839409, -0.03315235674381256, -0.0008241519099101424, 0.004905004519969225, -0.01635817624628544, 0.06055022031068802, -0.015482724644243717, -0.0032008036505430937, 0.0017164587043225765, -0.048887066543102264, 0.00196195300668478, 0.009071113541722298, 0.060886166989803314, -0.007699699606746435, 0.01251969300210476, 0.026992129161953926, 0.009254878386855125, -0.03630118817090988, -0.014255071058869362, 0.019195012748241425, 0.03894476592540741, 0.011433126404881477, -0.020354384556412697, 0.008637617342174053, -0.03253105655312538, 0.023427700623869896, -0.024598924443125725, -0.008406365290284157, -0.021751854568719864], [-0.008186502382159233, -0.021098826080560684, -0.01864198036491871, 0.014730740338563919, 0.0022751474753022194, -0.028629368171095848, -0.022254491224884987, -0.020404567942023277, -0.009020132012665272, -0.005173597950488329, -0.003613066393882036, 0.004333282820880413, -0.017238039523363113, -0.04119565710425377, 0.02837337553501129, 0.030460810288786888, -0.002588244853541255, -0.010816704481840134, 0.024483459070324898, -0.01594330556690693, 0.012696654535830021, 0.006144907791167498, 0.010295961983501911, 0.060158584266901016, -0.021922683343291283, 0.036274347454309464, -0.00633986946195364, -0.017112767323851585, -0.004310253541916609, -0.011731806211173534, 0.05447610095143318, -0.0012845555320382118], [0.005408112891018391, -0.008290672674775124, 0.014345627278089523, -0.03520295396447182, -0.017002370208501816, 0.006694749463349581, 0.0036556595005095005, 0.0029610248748213053, -0.023983420804142952, 0.025214770808815956, 0.014716331847012043, -0.005120571702718735, -0.02382119745016098, -0.006611025892198086, -0.006089085713028908, 0.00016790322843007743, 0.02800070121884346, -0.021787691861391068, -0.013578979298472404, -0.00700831413269043, -0.017018329352140427, -0.018704714253544807, -0.012034275569021702, 0.006373502314090729, 0.006245626602321863, 0.02702987939119339, 0.00016184838023036718, -0.0025122480001300573, 0.014696236699819565, -0.008119621314108372, -0.010199140757322311, -0.038896817713975906], [-0.013515199534595013, -0.00028191559249535203, -0.042922209948301315, 0.015435323119163513, -0.005025983322411776, -0.007654291577637196, 0.01007910817861557, 0.013040550984442234, 0.03646957129240036, -0.027263544499874115, 0.010146735236048698, 0.011292374692857265, -0.003375058062374592, 0.0015544404741376638, 0.01322239264845848, 0.023556919768452644, 0.010958540253341198, 0.0044783297926187515, 0.016187801957130432, -0.011787950992584229, -0.001807717140763998, -0.003839827375486493, 0.006314749829471111, 0.01003508921712637, 0.0019059028709307313, -0.017218781635165215, 0.007342275232076645, -0.0054262252524495125, -0.0036417092196643353, -0.016444602981209755, 0.01093039009720087, 0.0015435887034982443], [-0.01631128042936325, 0.0030273953452706337, -0.0014095406513661146, 0.037819527089595795, 0.006364542990922928, -0.011713994666934013, -0.021233506500720978, -0.022968437522649765, -0.02520279586315155, -0.006774843204766512, 0.02850228361785412, 0.01246057078242302, 0.001776418648660183, 0.005380977410823107, -0.00470262486487627, 0.004859959241002798, 0.01988143101334572, -0.0160225722938776, -0.02154921181499958, -0.02894010953605175, 0.02985265478491783, -0.015065156854689121, 0.024781662970781326, -0.0015528419753536582, 0.0003161485947202891, 0.023131513968110085, 0.019284440204501152, 0.007976758293807507, -0.03503970056772232, 0.0031212542671710253, 0.005809789523482323, 0.010668284259736538], [0.0344521589577198, -0.008921320550143719, 0.019973481073975563, -0.03182123228907585, 0.04813685640692711, -0.02803383767604828, 0.00036394261405803263, -0.0068721165880560875, -0.005226497538387775, 0.002862843917682767, -0.010122169740498066, -0.006327455397695303, 0.00394453713670373, 0.014272495172917843, 0.008711692877113819, -0.043606314808130264, -0.040408212691545486, 0.038160067051649094, -0.025499235838651657, -0.005091271363198757, -0.011426717974245548, 0.01224096305668354, 0.0008838190697133541, -0.04700566828250885, 0.006755450274795294, -0.03845011815428734, 0.015488706529140472, 0.046576615422964096, 0.004754256457090378, -0.00586639204993844, -0.07780993729829788, -0.016419151797890663], [-0.14416061341762543, 0.2652454078197479, -0.0012610884150490165, -0.2249065339565277, -0.2406018227338791, 0.030722206458449364, -0.05869370698928833, -0.01911035180091858, 0.011309441179037094, -0.04558487609028816, 0.018505895510315895, -0.054262276738882065, -0.02307370863854885, 0.00928949099034071, 0.023423053324222565, 0.011956253089010715, -0.11844116449356079, -0.20768868923187256, -0.12220513075590134, -0.14771749079227448, 0.07666023820638657, 0.07067147642374039, 0.059689197689294815, 0.023488638922572136, 0.01050480455160141, -0.00408921018242836, 0.0007332568638958037, 0.01846485398709774, -0.0051247901283204556, -0.032041557133197784, -0.02017463557422161, 0.017561741173267365], [0.01658034697175026, -0.0690893828868866, 0.009963246062397957, -0.030257541686296463, 0.019092919304966927, -0.017158104106783867, 0.01214287243783474, -0.002654775744304061, -0.027465512976050377, 0.019730720669031143, -0.004538810346275568, -0.014673557132482529, -0.01781531050801277, 0.008073815144598484, -0.02144109457731247, -0.031203508377075195, 0.07552815973758698, -0.021100707352161407, -0.020650871098041534, 0.0018563329940661788, 0.008157440461218357, -0.02755328081548214, -0.007994510233402252, 0.0060208747163414955, 0.02394722029566765, 0.007384412921965122, -0.016936687752604485, 0.04192011058330536, -0.0028491688426584005, -0.004400230012834072, 0.00588599219918251, -0.03423848748207092], [0.020025329664349556, -0.010581561364233494, 0.009678741917014122, -0.015789682045578957, -0.016371676698327065, 0.04129059240221977, -0.03241223841905594, 0.014823961071670055, -0.029371654614806175, 0.025181183591485023, -0.00255131465382874, -0.00929160974919796, 0.013710425235331059, -0.018041905015707016, 0.019873231649398804, -0.017780832946300507, -0.0049256859347224236, 0.006686390843242407, -0.006145528983324766, 0.009514902718365192, -0.03307235985994339, 0.017878254875540733, -0.010499510914087296, -0.010407043620944023, -0.06371565163135529, 0.005701303947716951, 0.0035360888577997684, -0.030390484258532524, 0.0384800098836422, -0.0017333177383989096, -0.04301324859261513, -0.010966778732836246], [0.015293557196855545, -0.011660353280603886, 0.008141781203448772, 0.006090539041906595, 0.004386566579341888, -0.005965956952422857, -0.021470045670866966, -0.0398549884557724, -0.008207029663026333, 0.026897713541984558, -0.009260431863367558, -0.008576041087508202, -0.01224612258374691, 0.0063341595232486725, -0.006906227674335241, 0.014622656628489494, -0.002931801602244377, -0.00434254202991724, 0.017536262050271034, 0.009219869039952755, -0.018193496391177177, 0.0250554159283638, 0.03091173619031906, 0.01751021295785904, -0.002362846629694104, 0.01027668546885252, -0.014996766112744808, 0.01166541501879692, -0.013582553714513779, 0.01996779628098011, -0.015561720356345177, 0.004383148159831762], [0.00900672934949398, -0.015566655434668064, 0.010025961324572563, -0.007272236980497837, 0.0028421839233487844, -0.004780157934874296, -0.006428791210055351, -0.024333477020263672, -0.01739288493990898, 0.006459604017436504, 0.016112569719552994, 0.003916407935321331, -0.02216780185699463, -0.011838368140161037, -0.006244705989956856, -0.0009133808198384941, -0.004815508145838976, 0.006189631298184395, -0.005874095484614372, -0.006260285619646311, 0.0011486054863780737, -0.01912824437022209, 0.00670958636328578, 0.02622148208320141, 0.005976392887532711, 0.027363603934645653, 0.013705370016396046, 0.0051864623092114925, -0.010746318846940994, -0.006790506653487682, 0.016248777508735657, -0.01790635474026203], [0.419533371925354, 0.2263861894607544, 0.03458833694458008, 0.12826789915561676, -0.014926914125680923, 0.08792636543512344, 0.02833947353065014, 0.04865599423646927, -0.03293270990252495, 0.020155705511569977, -0.0021012870129197836, -0.026173485442996025, -0.018236299976706505, 0.03771112486720085, 0.029416367411613464, 0.026271114125847816, 0.1536535769701004, 0.10044047236442566, 0.1789788454771042, -0.06949522346258163, -0.03693123534321785, -0.051727402955293655, -0.004198637790977955, -0.0025712205097079277, 0.02673470787703991, -0.0016485622618347406, -0.028406601399183273, 0.01599854975938797, 0.017619477584958076, -0.0011342045618221164, 0.016705021262168884, 0.006260991096496582], [-0.011441928334534168, -0.007485501933842897, 0.010580628179013729, -0.019498350098729134, 0.010508904233574867, -0.03833458945155144, 0.00914548709988594, -0.02207799442112446, -0.006628876086324453, 0.01362722460180521, -0.009857331402599812, 0.004212184809148312, -0.02454991824924946, 0.006858788430690765, 0.004567770753055811, -0.0028015465941280127, -0.022352833300828934, -0.0035026681143790483, 0.018543142825365067, -0.007091176696121693, -0.014162998646497726, -0.018774211406707764, -0.007416033186018467, 0.02056879736483097, 0.01721777580678463, -0.032057881355285645, -0.010604054667055607, 0.018549252301454544, 0.020997781306505203, -0.014201486483216286, -0.021629545837640762, -0.009836097247898579], [0.0070002106949687, -0.016658678650856018, -0.0021255407482385635, -0.023945113644003868, 0.001171381096355617, -0.04074164107441902, 0.022695761173963547, -0.0003514339041430503, -0.009671203792095184, -0.012568973936140537, 0.0057417647913098335, -0.014607979916036129, -0.01984960399568081, -0.011216463521122932, -0.012892212718725204, -0.01163181010633707, -0.012090874835848808, -0.006235742010176182, -0.0025341869331896305, -0.019595710560679436, -0.005521759390830994, -0.014023597352206707, 0.005689999554306269, 0.007752811536192894, 0.02931092120707035, 0.023856138810515404, 0.007027151063084602, 0.04205333814024925, -0.025599276646971703, 0.008937598206102848, 0.036244235932826996, 0.006525787990540266], [0.02267546020448208, -0.028599673882126808, -0.027428653091192245, 0.0008988432236947119, -0.002775425324216485, -0.009491882286965847, -0.004968512803316116, -0.010219620540738106, 0.009939486160874367, -0.000522846297826618, -0.003797659883275628, 0.005886205937713385, -0.020162979140877724, -0.0030492921359837055, 0.020859600976109505, 0.02538308873772621, -0.004331839736551046, 0.026612788438796997, 0.01304825209081173, 0.0006650754949077964, -0.01219605840742588, -0.00811455212533474, 0.010741403326392174, 0.020339416339993477, 0.012294001877307892, 0.001331518986262381, 0.012569169513881207, -0.023587727919220924, 0.020922668278217316, -0.030821410939097404, -0.004638755228370428, -0.015544758178293705], [-0.02163058891892433, 0.0027269728016108274, -0.0005715254810638726, -0.00452245632186532, 0.02672988548874855, -0.047881118953228, 0.03174895420670509, -0.004044901113957167, 0.02035466954112053, 0.006823602598160505, -0.01224499475210905, 0.003697995562106371, -0.035272758454084396, 0.015622456558048725, -0.004248441196978092, 0.021006522700190544, 0.0003170301206409931, -0.03155815973877907, 0.01889716275036335, -0.002923425054177642, -0.00405358150601387, -0.03492527827620506, 0.0022738983388990164, 0.02778131142258644, 0.04694639518857002, -0.02400374971330166, -0.005230079870671034, 0.015595393255352974, -0.012042475864291191, -0.001596112153492868, 0.001970886252820492, -0.01715380698442459], [-0.0010381804313510656, 0.017038619145751, 0.0075995102524757385, 0.02165367268025875, -0.01625480316579342, 0.020494675263762474, 0.011256175115704536, -0.015050504356622696, 0.01251132320612669, 0.00011274055577814579, 0.02055208571255207, -0.01601230725646019, 0.0033225249499082565, -0.015186557546257973, 0.000936781638301909, 0.009288584813475609, 0.015943540260195732, -0.009841937571763992, -0.016919277608394623, 0.00031993346055969596, -0.018742205575108528, 0.024381740018725395, 0.030162781476974487, 0.008225368335843086, 0.024567201733589172, 0.048037830740213394, -0.003403498325496912, -0.007722772657871246, -0.06768129765987396, 0.04737298563122749, 0.002345192478969693, -0.0238511823117733], [0.0015896314289420843, -0.008131777867674828, -0.019982999190688133, 0.01793522574007511, 0.0038761254400014877, -0.01808680035173893, 0.0036015184596180916, -0.0396246463060379, 0.0053383768536150455, 0.0026181049179285765, -0.0007856328738853335, -0.0057936240918934345, -0.027109449729323387, 0.0022966652177274227, -0.0002636077406350523, 0.023216180503368378, -0.013544493354856968, 0.008665144443511963, -0.00624931650236249, -0.013679387979209423, 0.00018855009693652391, 0.008897209540009499, 0.021836495026946068, 0.04488920792937279, 0.0097888745367527, 0.02471407689154148, -0.015863290056586266, 0.012262069620192051, -0.023013688623905182, -0.008354618214070797, 0.01326119713485241, -0.02593582309782505], [-0.15469393134117126, -0.12805408239364624, -0.11661506444215775, 0.0068532368168234825, 0.1328497976064682, 0.07507948577404022, -0.0813710018992424, 0.010516372509300709, -0.00644075870513916, -0.0015479745343327522, -0.013084514066576958, 0.003195194760337472, 0.024065781384706497, 0.008717067539691925, 0.00687619810923934, 0.02136140875518322, 0.38259172439575195, 0.29071712493896484, 0.24499206244945526, 0.39291733503341675, 0.08725369721651077, -0.05709763988852501, 0.0500539168715477, -0.0318288616836071, -0.0010718893026933074, 0.008048832416534424, -0.010547788813710213, -0.025647103786468506, -0.04368818178772926, -0.003847020911052823, 0.029534853994846344, -0.006096732337027788], [0.10341187566518784, 0.35927248001098633, 0.5474125742912292, 0.4209862947463989, -0.09680729359388351, -0.019450156018137932, 0.016469407826662064, -0.01184049341827631, 0.004015618935227394, -0.006381699815392494, 0.001877570990473032, 0.017078978940844536, -0.01204183790832758, 0.011107011698186398, -0.016699526458978653, -0.018147964030504227, 0.760383129119873, 0.25162604451179504, 0.04335377365350723, 0.23802967369556427, -0.10291535407304764, -0.03306764364242554, -0.007745799142867327, -0.01006360724568367, -0.010584252886474133, -0.0006752677145414054, -0.019264182075858116, 0.005928955040872097, 0.0005637215217575431, 0.0011208438081666827, 0.004761762451380491, -0.007776123005896807], [0.022666990756988525, -0.03175175562500954, -0.004781394265592098, -0.012931832112371922, 0.008431477472186089, -0.025328880175948143, 0.013982622884213924, -0.06783344596624374, -0.006602477747946978, 0.021225683391094208, -0.002615815494209528, -0.00703763123601675, -0.028670180588960648, -0.012963841669261456, -0.005076250527054071, 0.006346842739731073, 0.007758940104395151, 0.0024016182869672775, 0.00451646326109767, -0.025993188843131065, 0.0161115899682045, -0.005592791363596916, -0.014310652390122414, 0.012424571439623833, 0.029609866440296173, 0.030960042029619217, -0.01916799321770668, 0.049141623079776764, -0.004961831495165825, -0.014782930724322796, 0.001621775794774294, -0.04090329632163048], [-0.0031050899997353554, -0.0003029996296390891, -0.02316446416079998, 0.010313846170902252, 0.011672092601656914, -0.009130640886723995, -0.008730319328606129, 0.0066735707223415375, 0.03322983905673027, -0.010234988294541836, 0.01303071342408657, 0.009549067355692387, -0.01415218599140644, 0.013380601070821285, -0.0031082858331501484, 0.028999019414186478, 0.0057265013456344604, 0.000685578677803278, 0.017410097643733025, -0.007225756999105215, 0.029185857623815536, 0.011132909916341305, -0.010311386547982693, 0.002309755887836218, 0.013304649852216244, -0.005142149515450001, -0.0004671693895943463, 0.012829150073230267, 0.0063710445538163185, -0.022824712097644806, -0.02443666011095047, -0.012065459974110126], [0.005877252668142319, 0.008172659203410149, 0.007667179219424725, -0.01986248418688774, -0.009390618652105331, -0.014541384764015675, 0.007464129943400621, 0.0006638235063292086, -6.720332021359354e-05, -0.030201099812984467, -0.01443580724298954, -0.003130511147901416, -0.004050779156386852, -0.006544444710016251, -0.008040369488298893, 0.0038772374391555786, -0.022421281784772873, 0.004944039508700371, -0.009927269071340561, -0.0013324548490345478, -0.0469253733754158, -0.006152875255793333, 0.017662163823843002, -0.013355640694499016, 0.025838160887360573, -0.03086167201399803, -0.006339692510664463, -0.01999548450112343, -0.007185687776654959, 0.022544030100107193, 0.003126095747575164, 0.030412837862968445], [0.016523104161024094, 0.023712225258350372, 0.026263544335961342, -0.0023819908965379, 0.0037658626679331064, 0.017810117453336716, 0.020570695400238037, 0.0062074847519397736, -0.021140670403838158, 0.02680687978863716, 0.005566207692027092, -0.0028042648918926716, 0.01925342157483101, 0.018120726570487022, -0.021397454664111137, -0.018621766939759254, 0.014167130924761295, -0.002231236081570387, -0.041962966322898865, 0.0062571195885539055, -0.00045430680620484054, -0.003770632203668356, 0.014909517019987106, -0.024552859365940094, 0.03050493448972702, 0.04675443097949028, -0.014132119715213776, 0.0036830364260822535, -0.03048342652618885, 0.04618876054883003, -0.015581054612994194, -0.02320460043847561], [0.006324843503534794, -0.00955913495272398, -0.008528273552656174, 0.00936965923756361, -0.020726332440972328, 0.005651688203215599, -0.013707853853702545, -0.0670832172036171, 0.013668371364474297, 0.006061109714210033, -0.00515306182205677, 0.0007465567323379219, -0.028149016201496124, -0.03211124986410141, -0.004421660210937262, 0.025892669335007668, -0.01402047835290432, 0.022860301658511162, 0.022075364366173744, 0.017612507566809654, -0.01635688543319702, 0.013569210655987263, 0.011702881194651127, 0.027014678344130516, 0.0025903794448822737, 0.03823419287800789, 0.0012735885102301836, -0.016368940472602844, 0.008714371360838413, 0.006069721654057503, 0.009130135178565979, -0.018641117960214615], [0.004556259140372276, 0.0005273872520774603, 0.0017051773611456156, -0.0014802792575210333, 0.004200137220323086, -0.0101394671946764, -0.021635068580508232, -0.05110735818743706, -0.015042428858578205, -0.0007596227223984897, -0.0350680835545063, -0.0017053503543138504, 0.0042484658770263195, -0.010918757878243923, 0.009824954904615879, 0.014653190039098263, -0.03714161366224289, 0.02371988259255886, 0.029253464192152023, 0.008246630430221558, -0.010270755738019943, 0.010195962153375149, 0.0008750893757678568, -0.009123165160417557, -0.03024597279727459, -0.02953687496483326, -0.007237369194626808, -0.010913591831922531, 0.030501654371619225, 0.005514866206794977, -0.020792391151189804, 0.018264751881361008], [-0.08283889293670654, 0.03283470869064331, 0.0043596806935966015, 0.034282244741916656, -0.014617549255490303, -0.008174270391464233, -0.002103671431541443, 0.027238264679908752, 0.014464673586189747, 0.019412411376833916, -0.008819117210805416, 0.006535935681313276, 0.0125513831153512, -0.01578914001584053, 0.007593533024191856, 0.03568736091256142, 0.059307463467121124, -0.067270927131176, 0.005582328885793686, 0.007998853921890259, 0.0203254371881485, -0.020811572670936584, -0.006642404478043318, 0.021235138177871704, -0.006667735055088997, 0.008814188651740551, 0.003796516451984644, -0.012244106270372868, 0.017944402992725372, -0.03357351943850517, 0.042441755533218384, 0.0017444589175283909], [0.2535611391067505, -0.18296924233436584, -0.12368816137313843, 0.3201425075531006, 0.22080188989639282, 0.014486401341855526, -0.03883837163448334, -0.009320003911852837, 0.006342240143567324, -0.0010154914343729615, -0.0010979557409882545, -0.0036480622366070747, 0.013906548731029034, 0.009121127426624298, -0.017936665564775467, 0.0003141194465570152, 0.5917360186576843, 0.3194955885410309, 0.5971142053604126, -0.4469735324382782, -0.21374808251857758, -0.04352770000696182, 0.01125109102576971, 0.0160265751183033, 0.005814662668853998, 0.037275463342666626, 0.023779237642884254, -0.03540666401386261, 0.02604798972606659, 0.0011611641384661198, 0.014778649434447289, -0.0019454011926427484], [0.01921774074435234, 0.016796395182609558, -0.006147842388600111, 0.0027449848130345345, 0.0015161338960751891, 0.018094785511493683, 0.010845419950783253, 0.006314590573310852, -0.02387095056474209, 0.0007944924873299897, 0.0013762726448476315, -0.009819651953876019, 0.010991405695676804, -0.009396429173648357, -0.01400498766452074, -0.02357344515621662, 0.0037911466788500547, 0.019335061311721802, -0.00280433869920671, 0.010739517398178577, -0.012091180309653282, 0.003359262365847826, 0.026788810268044472, 0.015940237790346146, -0.008537625893950462, 0.03160809725522995, -0.006452114786952734, -0.016643142327666283, -0.002508856588974595, 0.014960533007979393, 0.01157394889742136, 0.0003815938835032284], [-0.004180758725851774, 0.019169729202985764, 0.0009936123387888074, -0.0017796903848648071, -0.023619677871465683, 0.00637444294989109, -0.012567531317472458, 0.032099828124046326, -0.0046857320703566074, -0.0201672725379467, 0.022696776315569878, 0.0019222857663407922, 0.00205400213599205, -0.01557948812842369, -0.0030022694263607264, -0.006085025146603584, -0.007382661569863558, -0.012760630808770657, -0.006316509563475847, -0.013387661427259445, 0.0005546942120417953, -0.011093786917626858, -0.005313436035066843, -0.025018230080604553, -0.008089927025139332, 0.008146551437675953, 0.02762085571885109, -0.015721339732408524, -0.0017789447447285056, 0.0007612558547407389, 0.030766693875193596, 0.005941585171967745], [0.001594728440977633, 0.006226745434105396, 0.025179000571370125, 0.005058106500655413, -0.005654372274875641, 0.0016586887650191784, -0.004435102455317974, -0.015944872051477432, -0.032934948801994324, 0.01865847222507, 0.003839171724393964, -0.0036570122465491295, 0.002969062887132168, -0.008200520649552345, -0.015025842003524303, -0.004320564214140177, 0.014813963323831558, -0.01894952356815338, -0.019408904016017914, -0.006113768555223942, -0.0026429062709212303, -0.005860902834683657, 0.0246785469353199, 0.01779104396700859, 0.009682036004960537, 0.055783532559871674, -0.013593677431344986, -0.015043936669826508, -0.029881823807954788, 0.04195303097367287, 0.017488375306129456, -0.018459882587194443], [0.25861191749572754, 0.2676561176776886, 0.2547520697116852, 0.07096738368272781, 0.10458914935588837, 0.024359049275517464, -0.04064994677901268, 0.010996531695127487, -0.03171372041106224, 0.005295323207974434, -0.019126029685139656, 0.0382738821208477, -0.026653623208403587, -0.029761897400021553, -0.0010113921016454697, 0.015230333432555199, 0.5352569818496704, 0.056849874556064606, -0.17780667543411255, -0.11415768414735794, 0.043936219066381454, -0.03396068140864372, 0.03999129682779312, -0.020145485177636147, -0.004220737610012293, 0.01886756531894207, 0.007736400235444307, 0.008945085108280182, -0.004146863240748644, -0.007026358507573605, -0.0008760662167333066, -0.019344862550497055], [0.0036902385763823986, 0.028142303228378296, 0.002225057454779744, -0.017690960317850113, 0.011652892455458641, 0.01687941886484623, 0.012762401252985, -0.011910886503756046, -0.007374141830950975, -0.0198916494846344, 0.0008653221884742379, -0.002062419895082712, 0.014018561691045761, -0.012102797627449036, 0.006766036618500948, -0.038334596902132034, -0.010410564951598644, 0.026839017868041992, -0.004221925977617502, 0.001827422296628356, 0.01967751979827881, 0.02216489054262638, -0.022340411320328712, -0.057402707636356354, 0.016271840780973434, -0.004949439782649279, -0.010572245344519615, 0.03445301949977875, 0.008086870424449444, 0.00683791097253561, -0.03868202492594719, -0.01591462269425392], [-0.00734370993450284, 0.02517959661781788, 0.026911798864603043, 0.002014433266595006, -0.003390785539522767, 0.009562933817505836, 0.014398238621652126, -0.01738119125366211, 0.0034572207368910313, -0.0027947842609137297, -0.003155822167173028, -4.915945464745164e-05, 0.006173593923449516, -0.00768420472741127, -0.02091534435749054, -0.0011867205612361431, -4.237901885062456e-05, -0.005376796238124371, -0.009215597994625568, 0.01590776816010475, -0.005236157216131687, 0.016077466309070587, 0.015088856220245361, -0.013887973502278328, 0.013551357202231884, 0.01000269129872322, -0.017275139689445496, 0.005269014276564121, -0.03467750549316406, 0.05970345810055733, -0.01572580076754093, 0.007949038408696651], [-0.012628556229174137, -0.008275969885289669, -0.037613362073898315, 0.00613959226757288, 0.0010405031498521566, -0.023663338273763657, -0.010680042207241058, 0.015564632602036, 0.02233988232910633, 0.00037571374559774995, 0.002960623474791646, 0.005958808120340109, -0.021683648228645325, -0.011777232401072979, -0.0014758127508684993, 0.0511753112077713, 0.003897851100191474, -0.003047423902899027, 0.014698297716677189, -0.027308009564876556, 0.00022600727970711887, -0.027348754927515984, 0.0007923850207589567, 0.02202816866338253, 0.004511154722422361, -0.014937452971935272, 0.0019093297887593508, -0.016211755573749542, 0.028376907110214233, -0.03613409399986267, 0.04486531764268875, 0.003125367918983102], [-0.009611145593225956, -0.01333617139607668, 0.007875374518334866, 0.002726607723161578, 0.010908779688179493, -0.008837250992655754, -0.004616493824869394, -0.05275857448577881, 0.0019194186897948384, -0.0021308762952685356, -0.014901720918715, -0.004997927695512772, -0.022955821827054024, -0.004278795327991247, 0.003713512560352683, 0.02726975455880165, -0.004898215178400278, -0.00824535358697176, 0.01884753815829754, 0.0056616817601025105, 0.0028888473752886057, 0.0024260347709059715, 0.01534008514136076, 0.01791273057460785, 0.004603776149451733, -0.006951869931071997, -0.018175147473812103, 0.010398329235613346, -0.0031037041917443275, 0.008022061549127102, -0.015619715675711632, -0.01588531583547592], [0.002635287819430232, -0.013322939164936543, 0.011258485727012157, -0.005165852606296539, 0.003477909602224827, 0.0016990563599392772, 0.006826463155448437, -0.007041758857667446, -0.016762539744377136, 0.004352322313934565, 0.024716032668948174, 0.009630417451262474, -0.016567735001444817, 0.014922498725354671, 0.013881847262382507, 0.011668075807392597, -0.002509650308638811, -0.0011869564186781645, 0.00038231140933930874, -0.007407809142023325, -0.0005314298323355615, 0.014353243634104729, -0.01772421970963478, 0.027293067425489426, 0.01225783210247755, 0.006047253031283617, -0.01442782860249281, -0.009951622225344181, 0.031565114855766296, -0.023278044536709785, -0.023489341139793396, -0.03819943219423294], [-0.009853262454271317, -0.0035820044577121735, -0.03129007667303085, 0.008151155896484852, -0.003268571337684989, -0.014989661052823067, 0.021493591368198395, 0.03677832707762718, 0.05146675184369087, -0.014289247803390026, 0.006840124260634184, 0.00047425186494365335, -0.014177685603499413, -5.698701716028154e-05, -0.0036871912889182568, 0.028034482151269913, 0.0010053280275315046, -0.002141190692782402, 0.00918046198785305, 0.008088608272373676, -0.029719213023781776, -0.01889980211853981, 0.023466480895876884, 0.03370002657175064, 0.008023292757570744, -0.023758171126246452, 0.008290030993521214, -0.01997753046452999, -0.0014099630061537027, -0.024082772433757782, 0.01685776747763157, 0.0034746448509395123], [0.015825584530830383, 0.015283718705177307, -0.006385536398738623, 0.009652253240346909, -0.02126443013548851, 0.008551361039280891, 0.014202413149178028, 0.027689747512340546, 0.0006924172630533576, -0.0013502405490726233, 0.011694616638123989, -0.005341576877981424, 0.007587260566651821, 0.00775555707514286, 0.00727222952991724, -0.002049604896456003, -0.0007225485169328749, -0.004066370893269777, -0.015621512196958065, -0.007068128325045109, -0.01684500277042389, -0.003458876395598054, 0.002990420674905181, 0.010714931413531303, -0.0006943732732906938, 0.011023439466953278, 0.0073363203555345535, -0.022905506193637848, -0.01490285899490118, 0.005882713012397289, -0.008382122963666916, -0.02497655712068081], [0.015830351039767265, 0.01391458697617054, -0.010421372950077057, -0.01015395112335682, -0.025007961317896843, 0.03020063042640686, 0.004262070637196302, 0.00107014668174088, 0.01358857937157154, -0.027505967766046524, 0.007091232109814882, 5.178888750378974e-05, 0.018926236778497696, -0.0133363027125597, 0.014886054210364819, -0.02288312092423439, -0.014303200878202915, 0.02921130321919918, 0.011866586282849312, 0.004179110284894705, -0.03613191097974777, 0.00023807145771570504, 0.0030674031004309654, -0.016732536256313324, -0.017866235226392746, -0.013232945464551449, 0.023709164932370186, -0.025467868894338608, 0.023629682138562202, -0.019251571968197823, -0.0014456948265433311, 0.016245730221271515], [0.009345521219074726, 0.020531266927719116, 0.00643975380808115, 0.011346368119120598, 0.014823601581156254, 0.005051042418926954, 0.011982416734099388, 0.018088465556502342, -0.01884327456355095, -0.004586163442581892, -0.009368469007313251, -0.0049192896112799644, 0.011155607178807259, 0.005567565094679594, 0.007763272151350975, -0.006800927221775055, -0.0051692696288228035, 0.00742866238579154, -0.02223554067313671, 0.00963535811752081, 0.002508259378373623, 0.011385045945644379, 0.028570279479026794, -0.006268193945288658, 0.021054502576589584, 0.014804740436375141, -0.01513238437473774, -0.00469613540917635, -0.03021237440407276, 0.03184737265110016, 0.009073215536773205, -0.010017028078436852], [-0.6209021806716919, -0.5275538563728333, -0.14112494885921478, 0.0017817339394241571, -0.6923016905784607, -0.05702763795852661, -0.1003856360912323, -0.07921741157770157, -0.01238591130822897, 0.014737163670361042, -0.03852385655045509, -0.035314854234457016, 0.026953523978590965, 0.029443208128213882, 0.013123247772455215, -0.020122792571783066, 0.012289791367948055, 0.395351767539978, 0.22337709367275238, 0.4395157992839813, 0.11369814723730087, 0.26655757427215576, 0.0976242870092392, -0.05461415648460388, -0.016807066276669502, -0.013391724787652493, 0.014492830261588097, 0.027825234457850456, -0.020504949614405632, 0.007256256882101297, -0.005387041252106428, -0.03329137712717056], [-0.016210103407502174, 0.015428069978952408, -0.021772397682070732, 0.018946180120110512, -0.01579195447266102, -0.009156354703009129, 0.019706914201378822, 0.02427142858505249, 0.008612816222012043, 0.011559341102838516, -0.00447129225358367, 0.005953568033874035, 0.017878634855151176, 0.007557321339845657, 0.028992440551519394, 0.009702806361019611, -0.005778288468718529, 0.005985510069876909, 0.01756793074309826, 0.009053868241608143, -0.009338602423667908, 0.0013822807231917977, -0.0016472787829115987, 0.02461419627070427, -0.009530983865261078, -0.018634960055351257, 0.0012216134928166866, -0.016252240166068077, 0.029675863683223724, -0.03335333615541458, 0.021767141297459602, 0.022824013605713844], [-0.017268607392907143, 0.009632269851863384, 0.01129077933728695, -0.0030148790683597326, 0.03266896307468414, -0.025923779234290123, 0.0084123145788908, -0.0014076619409024715, -0.02213229052722454, 0.019644396379590034, 0.00368432211689651, 0.0039324467070400715, -0.008032692596316338, 0.031797248870134354, 0.0098496675491333, 0.0024905032478272915, -0.01143416203558445, -0.012061180546879768, 0.006417649798095226, -0.007885009050369263, 0.02573653683066368, -0.0046491920948028564, -0.008608577772974968, 0.004750557243824005, 0.018016153946518898, -0.0023366983514279127, -0.027695510536432266, 0.024811362847685814, 0.025322990491986275, -0.02468843385577202, -0.0014532239874824882, -0.020926259458065033], [0.009997365064918995, 0.003122831927612424, -0.02305109053850174, 0.0045364792458713055, 0.0035105408169329166, -0.0016280648997053504, -0.00960747990757227, 0.02336800843477249, -0.0006676599732600152, -0.003648849204182625, 0.001486435066908598, 0.00916836503893137, -0.0136233726516366, 0.010192814283072948, 0.00851285271346569, 0.02416331134736538, -0.007286157459020615, 0.0026825894601643085, 0.009939483366906643, -0.024551009759306908, -0.008557458408176899, -0.013506192713975906, -0.006525488570332527, 0.030054640024900436, -0.017203105613589287, -0.0028658516239374876, 0.03452552482485771, -0.039364419877529144, 0.014163878746330738, -0.021153656765818596, 0.022885514423251152, -0.005133161786943674], [0.012249468825757504, 0.005159728229045868, 0.012693541124463081, 0.01506838295608759, 0.0009348151506856084, 0.017479723319411278, -0.024761509150266647, 0.043996524065732956, -0.025552567094564438, 0.02616271749138832, -0.02429080940783024, -0.01924959570169449, 0.02577297016978264, 0.006147450301796198, 0.012327473610639572, 0.00801717210561037, 0.003767474787309766, -0.013088406063616276, -0.024954212829470634, -0.005925656761974096, -0.022256087511777878, -0.003566327504813671, 0.015315257012844086, 0.005503276828676462, -0.027600077912211418, 0.028868094086647034, 0.018075743690133095, -0.026968514546751976, -0.038473471999168396, 0.04108939692378044, 0.015213818289339542, 0.024219201877713203], [0.009727275930345058, -0.01896471530199051, -0.0056527648121118546, 0.005652186926454306, -0.012530706822872162, 0.029208257794380188, -0.028005603700876236, 0.0015308078145608306, -0.006962412502616644, 0.015675948932766914, 0.010112508200109005, -0.01758086122572422, 0.0017826864495873451, -0.023045258596539497, 0.023263003677129745, -0.008540906943380833, 0.0154649019241333, 0.0035218740813434124, 0.005988195538520813, 0.009051688015460968, -0.020197268575429916, 0.0063370829448103905, 0.011494570411741734, 0.035640280693769455, -0.03992750868201256, 0.03757399320602417, 0.01363817322999239, -0.021906699985265732, -0.006658410187810659, -0.019417278468608856, 0.028490129858255386, -0.023755187168717384], [-0.006902554538100958, -0.011882719583809376, 0.01137530617415905, -0.004506655037403107, -8.892023470252752e-05, -0.014040914364159107, -0.015691442415118217, -0.047599002718925476, -0.022390561178326607, -0.001588841201737523, -0.01617303676903248, -0.003235493553802371, 0.008606400340795517, 0.002068887697532773, 0.0034434120170772076, 0.009798434562981129, -0.0031359537970274687, 0.0071963537484407425, 0.009703133255243301, 0.007894955575466156, 0.006310516502708197, 0.01990494690835476, 0.0004233653307892382, -0.021969279274344444, 0.0033256232272833586, -0.009110824204981327, -0.024473365396261215, 0.0012419266859069467, 0.02555248513817787, 0.003894989611580968, -0.010889815166592598, -0.0033720270730555058], [0.010828441008925438, -0.029601017013192177, 0.01697520725429058, -0.02517886832356453, 0.01843523047864437, -0.0018751431489363313, -0.003461892483755946, -0.05547888204455376, -0.03288056328892708, 0.025597816333174706, -0.011136332526803017, -0.007581180427223444, -0.011985023505985737, -0.006398375611752272, 0.011589501053094864, -0.006227486301213503, -0.002754592802375555, 0.021830493584275246, 0.0005534515948966146, 0.000326361769111827, 0.01383470930159092, 0.0023962941486388445, -0.02031467668712139, -0.00573072861880064, 0.0002845341805368662, 0.027260180562734604, -0.022559402510523796, 0.014221255667507648, 0.01979544386267662, -0.006306094117462635, -0.01118896808475256, -0.03237487003207207], [0.1578366607427597, 0.09584341943264008, 0.03706692159175873, 0.012137177400290966, 0.03823550045490265, -0.01571403071284294, -0.003859004471451044, -0.018701953813433647, -0.043622687458992004, 0.001824434264563024, 0.013629114255309105, -0.01027945801615715, -0.012144598178565502, 0.004954519681632519, -0.0021058213897049427, -0.040105320513248444, -0.07012288272380829, 0.04140190780162811, 0.04507127031683922, -0.022965874522924423, 0.006582274567335844, 0.0017658001743257046, 0.017719721421599388, 0.021276403218507767, 0.04032352939248085, 0.023869946599006653, 0.0015655221650376916, 0.017846066504716873, 0.00839761272072792, -0.04167245700955391, -0.011659184470772743, -0.016329646110534668], [-0.02084716595709324, -0.02853851020336151, -0.006797953508794308, 0.032373227179050446, -0.012857889756560326, -0.026840129867196083, -0.010532115586102009, -0.04005361348390579, 0.008519374765455723, 0.016642658039927483, -0.012493911199271679, -0.004516222048550844, -0.03840618580579758, 0.0008758704643696547, 0.005494341719895601, 0.05971575528383255, 0.009108111262321472, -0.023696348071098328, 0.005580096505582333, -0.004674594383686781, -0.023177752271294594, -0.025802163407206535, 0.05383889749646187, 0.06086833029985428, -0.0010077927727252245, 0.021221822127699852, 0.0020881120581179857, -0.03706229105591774, -0.023766763508319855, 0.008312289603054523, 0.04258648306131363, 0.031065933406352997], [0.054896268993616104, 0.018825698643922806, -0.2685796618461609, -0.16682104766368866, -0.13451600074768066, 0.007865317165851593, 0.017633577808737755, 0.008622993715107441, -0.05095469206571579, 0.00980237778276205, -0.009232165291905403, -0.026157593354582787, -0.03111584484577179, -0.025925351306796074, -0.026487650349736214, -0.030687453225255013, -0.07960758358240128, -0.41245704889297485, -0.012464967556297779, -0.10278326272964478, 0.21947501599788666, 0.009891327470541, 0.054188743233680725, -0.021834446117281914, 0.01925230585038662, 0.0768248662352562, -0.017832722514867783, -0.018009960651397705, -0.022216876968741417, -0.02684497833251953, -0.01153920404613018, 0.028108865022659302], [-0.17303593456745148, 0.12424707412719727, 0.0476815365254879, 0.022271715104579926, 0.07133729755878448, -0.004591580480337143, -0.022668350487947464, 0.0008725029183551669, 0.01343501452356577, -0.01815093494951725, -0.02474122866988182, -0.022109542042016983, 0.007258090656250715, -0.02791144885122776, -0.011622783727943897, -1.8443679437041283e-06, -0.04438193887472153, -0.06926394253969193, 0.022785453125834465, 0.020770112052559853, 0.003569922409951687, 0.0014003864489495754, -0.006020879838615656, 0.03513636812567711, 0.0017802449874579906, -0.024149801582098007, 0.014246122911572456, -0.024486269801855087, 0.02052430436015129, 0.003216375131160021, 0.0014234193367883563, -0.0017068819142878056], [0.003762253327295184, 0.00964925903826952, -0.020390748977661133, -0.004097971599549055, -0.02732086554169655, 0.01864548586308956, 0.05088072642683983, 0.07120079547166824, 0.013581600040197372, -0.01473655179142952, 0.034313783049583435, 0.007109567988663912, 0.021110719069838524, 0.016086746007204056, -0.008061729371547699, -0.00625580782070756, 0.021536828950047493, -0.0002798795176204294, -0.03749965876340866, -0.011859872378408909, -0.00970812514424324, -0.011489645577967167, 0.0019058382604271173, 0.0015864818124100566, 0.02510126866400242, 0.013039286248385906, 0.006897659506648779, -0.023377370089292526, -0.012599037028849125, -0.013251451775431633, 0.024094510823488235, -0.007493666838854551], [0.0016782325692474842, 0.016662446781992912, 0.0013548387214541435, -0.005951701197773218, 0.021954787895083427, -0.008610359393060207, 0.04537203907966614, 0.048315297812223434, -0.000922555394936353, -0.0009770665783435106, -0.011022846214473248, -0.0023550353944301605, 0.009711469523608685, 0.045376576483249664, 0.00913665909320116, 0.003023572266101837, 0.0017295889556407928, -0.00962488166987896, -0.019486770033836365, -0.0045855422504246235, -0.00861834641546011, -0.015500238165259361, -0.00322303781285882, -0.015472502447664738, 0.0327654667198658, -0.024750463664531708, -0.018405137583613396, -0.01859464682638645, 0.002794946078211069, 0.010550346225500107, -0.02881270833313465, -0.00939217209815979], [0.27833986282348633, 0.13028496503829956, -0.00585959292948246, -0.020872212946414948, 0.08286496996879578, -0.016002867370843887, -0.003647161414846778, 0.03266628459095955, -0.0493667908012867, 0.017317475751042366, 0.009347463957965374, -0.017463281750679016, -0.02470174804329872, -0.002426731400191784, -0.022680461406707764, -0.012367425486445427, -0.0771404430270195, 0.11462780833244324, 0.03986062481999397, -0.032482050359249115, -0.040334708988666534, -0.02670261636376381, 0.03226781263947487, -0.008510316722095013, 0.008968559093773365, 0.009555944241583347, 0.02390640787780285, 0.015819745138287544, 0.026358366012573242, -0.007711824029684067, -0.00902228057384491, 0.013164020143449306], [-0.8530341386795044, -0.20699502527713776, -0.6762263774871826, -0.5833659768104553, -0.020985348150134087, -0.09511739015579224, -0.008744821883738041, -0.0343516580760479, -0.015390614047646523, 0.022651776671409607, -0.022213894873857498, 0.02355916239321232, -0.021675528958439827, 0.014692670665681362, -0.028765331953763962, 0.020866388455033302, 0.42812004685401917, 0.5772435665130615, 0.25489339232444763, -0.14321571588516235, 0.2412199079990387, 0.03901917487382889, -0.008387085981667042, 0.02890237793326378, -0.0015863068401813507, -0.005577499512583017, 0.004495673812925816, -0.02464442513883114, 0.03424302116036415, 0.019572267308831215, -0.021413465961813927, 0.019536303356289864], [-0.012947996146976948, 0.011074617505073547, -0.00930783897638321, 0.03579167649149895, 0.015605594962835312, -0.04457003250718117, 0.003569960594177246, 0.01614236645400524, -0.021882547065615654, 0.008554083295166492, -0.015588009729981422, 0.009005331434309483, 0.03140988573431969, 0.02203097939491272, 0.0198132935911417, 0.0025066835805773735, -0.015783220529556274, -0.008753770031034946, -0.00285420473664999, -0.0018924034666270018, -0.0022287156898528337, -0.011221325956285, 0.04507655277848244, 0.01982046663761139, -0.004744053818285465, -0.007829437963664532, 0.00932497438043356, -0.005993385333567858, -0.056899745017290115, 0.012296734377741814, 0.031138718128204346, 0.030526015907526016], [-0.0006426156614907086, -0.00023125685402192175, -0.009192165918648243, -0.01161780022084713, 0.0014400782529264688, -0.026959378272294998, 0.04374627396464348, 0.037884198129177094, 0.012111748568713665, 0.006772182881832123, 0.0031307057943195105, 0.009429439902305603, -0.003936162684112787, 0.012409106828272343, -0.002642339328303933, 0.017571499571204185, 0.009911012835800648, -0.013692966662347317, -0.01157903578132391, 0.0020943032577633858, -0.030033089220523834, -0.018136654049158096, 0.01779104769229889, 0.01363535225391388, 0.040273185819387436, -0.010809659957885742, -0.0045745037496089935, -0.016783734783530235, -0.010013674385845661, -0.00561137218028307, 0.009470388293266296, -0.00583586934953928], [0.005192989483475685, -0.021070117130875587, -0.0326719656586647, -0.027745861560106277, 0.04546891152858734, -0.03776014596223831, 0.04020934924483299, 0.04713407903909683, 0.005221698898822069, 0.014417133294045925, -0.0027264184318482876, 0.014712294563651085, -0.03636322170495987, 0.03194776177406311, 0.010442606173455715, 0.008995765820145607, 0.015764687210321426, -0.003849330823868513, -0.007886599749326706, -0.028577229008078575, 0.0321047380566597, -0.011364920996129513, -0.038746628910303116, -0.012993326410651207, 0.020489908754825592, -0.029823197051882744, -0.0012588109821081161, 0.04326607286930084, 0.012888194061815739, -0.0421636626124382, -0.031052177771925926, -0.0253987368196249], [0.12114935368299484, 0.07520691305398941, 0.04661456495523453, 0.029970524832606316, 0.0921935886144638, -0.005241032689809799, -0.026101283729076385, 0.0017330612754449248, -0.018032018095254898, 0.01882953569293022, -0.0105293532833457, -0.03163890168070793, 0.019493291154503822, -0.0233761053532362, 0.019223805516958237, 0.010375307872891426, 0.22125454246997833, 0.0838983803987503, -0.0397334024310112, -0.002106949919834733, 0.025255128741264343, 0.013538025319576263, 0.03833124414086342, -0.023151325061917305, 0.011118697002530098, 0.0172561164945364, 0.020488537847995758, -0.0010769027285277843, -0.020063288509845734, 0.031165583059191704, 0.004798089154064655, -0.014693631790578365], [-0.0017221856396645308, 0.005740726832300425, 0.016286922618746758, -0.0033945899922400713, 0.014654777012765408, -0.009488999843597412, 0.02453755773603916, -0.0005806564004160464, -0.03278087079524994, 0.021281585097312927, 0.00133369374088943, 0.001666470430791378, 0.02066868729889393, 0.005468021612614393, -0.014657233841717243, -0.04019884765148163, 0.006237149238586426, 0.0020525038708001375, -0.027166420593857765, -0.0026639613788574934, 0.019980015233159065, -0.013379368931055069, -0.007991692051291466, -0.01904783956706524, 0.013845812529325485, 0.0030719884671270847, -0.022678393870592117, 0.024592464789748192, -0.009404907003045082, 0.006705854088068008, 0.010765393264591694, -0.0010408214293420315], [-0.4038008451461792, -0.05373016744852066, 0.1881406009197235, 0.19486252963542938, -0.002538427710533142, -0.054219696670770645, 0.00878005288541317, -0.01296151801943779, -0.002159658819437027, 0.05387580022215843, -0.026458527892827988, 0.00736615713685751, 0.009550130926072598, 0.018012234941124916, 0.02258104458451271, 0.009304654784500599, -0.45598313212394714, 0.1321997344493866, -0.2799380421638489, 0.05897839739918709, 0.03804292529821396, 0.003484792774543166, 0.004895882215350866, -0.021066932007670403, 0.005325092934072018, 0.018297400325536728, -0.009994488209486008, -0.010722323320806026, -0.03730949014425278, -0.0005342185613699257, 0.003103626659139991, 0.021656639873981476], [0.003959284164011478, -0.016242926940321922, 0.011563658714294434, 0.007550579495728016, -0.009656034409999847, 0.014178579673171043, -0.012146908789873123, -0.06512103974819183, 0.0022814117837697268, 0.017777325585484505, -0.0020606513135135174, -0.007469968870282173, -0.005993769038468599, -0.018955616280436516, -0.002277418039739132, -0.006854021456092596, -0.006117524113506079, 0.014914082363247871, 0.024540415033698082, 0.007933788001537323, -0.0026391930878162384, 0.008660092949867249, 0.005839705932885408, 0.04236825555562973, -0.017957238480448723, 0.04016668349504471, -0.01933639496564865, 0.008466323837637901, -0.009320126846432686, 0.0060976417735219, 0.006099165417253971, -0.033033449202775955], [-0.026659667491912842, 0.017476094886660576, -0.02306106872856617, 0.04843062162399292, -0.0333813801407814, 0.03609650209546089, -0.024595320224761963, 0.039708081632852554, -0.004754404071718454, 0.001660887966863811, 0.028846891596913338, 0.022376656532287598, 0.03999711573123932, -0.00011549801274668425, 0.02218475751578808, 0.026678694412112236, 0.038537900894880295, -0.015835823491215706, -0.005871687084436417, -0.00756646366789937, 0.011505228467285633, 0.025243619456887245, 0.0018358554225414991, 0.009865261614322662, -0.05637378245592117, 0.017202239483594894, 0.020590482279658318, -0.030929001048207283, 0.0005964929005131125, -0.004405008163303137, 0.028026308864355087, 0.021542368456721306], [-0.005486014764755964, -0.007509049493819475, -0.0038380080368369818, 0.003527115099132061, 0.006113984156399965, 0.007656510453671217, -0.009229748509824276, 0.010782004334032536, 0.01861482299864292, 0.013362627476453781, 0.009408043697476387, 0.00481331255286932, 0.0033181195612996817, -0.0021151143591850996, 0.007676165085285902, 0.01563294231891632, 0.0017461691750213504, -0.004564574453979731, 0.012802093289792538, 0.010653096251189709, 0.0055891177617013454, 0.016489872708916664, -0.019591180607676506, 0.037924036383628845, -0.00959917064756155, 0.01645396649837494, -0.008663000538945198, -0.003557278774678707, 0.0026283215265721083, -0.01153853815048933, 0.001298333052545786, -0.03867809474468231], [-0.02400759421288967, 0.03206561878323555, -0.026952944695949554, 0.0031364476308226585, 0.010833065025508404, -0.011208862997591496, -0.023641718551516533, 0.025503288954496384, 0.0027325483970344067, -0.01572256349027157, 0.0033694168087095022, 0.019086267799139023, 0.006890332326292992, -0.027234390377998352, 0.010777291841804981, -0.0049689533188939095, -0.02666366659104824, 0.005678963847458363, 0.03151130676269531, -0.008968616835772991, 0.011264343746006489, 0.02030031569302082, -0.003760812571272254, 0.00341251608915627, -0.03814069181680679, -0.02862236276268959, 0.014485964551568031, 0.006290117744356394, -0.005237550474703312, -0.015910431742668152, 0.03647249937057495, 0.034918420016765594], [0.028742291033267975, -0.008316759951412678, -0.0022099558264017105, -0.010968168266117573, -0.032037604600191116, 0.032800618559122086, 0.016335170716047287, -0.013159142807126045, -0.0028135450556874275, -0.02077944204211235, 0.013045258820056915, -0.00746088195592165, -0.002446753205731511, -0.018875349313020706, 0.02187112532556057, -0.02115086279809475, -0.002047922695055604, 0.03186872974038124, -0.004984118975698948, -0.004212248604744673, -0.024673741310834885, 0.013805174268782139, 0.0018237231997773051, 0.009070245549082756, 0.008281354792416096, 0.02882753498852253, 0.011547303758561611, -0.011118712835013866, -0.030513616278767586, 0.01599997840821743, 0.006264337804168463, -0.026519296690821648], [0.017197757959365845, -0.0399327352643013, -0.017165178433060646, -0.028409818187355995, -0.002162773162126541, -0.009235656820237637, 0.024694427847862244, 0.021485155448317528, 0.003607418155297637, 0.009794785641133785, 0.0031392371747642756, -0.011874108575284481, -0.021559439599514008, 0.01197791937738657, -0.00536316866055131, 0.005167931318283081, 0.04275728762149811, -0.013303498737514019, -0.0162747111171484, -0.014640992507338524, -0.022219343110919, -0.040061164647340775, -0.008754278533160686, 0.00416759354993701, 0.010647967457771301, -0.00822277832776308, 0.00496372114866972, -0.006508738733828068, 0.010743921622633934, -0.027392404153943062, -0.014844472520053387, -0.016821663826704025], [-0.025379376485943794, -0.01832403615117073, 0.00793485902249813, 0.033670198172330856, -0.014045795425772667, -0.003024460980668664, -0.011863320134580135, -0.03558984026312828, 0.001200702739879489, 0.007072860840708017, -0.0028313975781202316, 0.0021590925753116608, -0.0047136591747403145, 0.012281312607228756, -0.009433264844119549, 0.021655617281794548, 0.03440392017364502, -0.02858801744878292, -0.010927676223218441, 0.0014347466640174389, 0.002218998735770583, -0.00902839470654726, 0.02533072791993618, 0.013373097404837608, 0.0004017456667497754, 0.0015622711507603526, -0.028630150482058525, -0.023727484047412872, -0.002737032249569893, 0.021153384819626808, -0.000549101154319942, 0.005282878410071135], [-0.0032316914293915033, -0.016825806349515915, -0.002117749070748687, -0.008634443394839764, 0.02139456942677498, 9.191420394927263e-05, 0.007673210464417934, -0.03947687894105911, -0.0019421693868935108, 0.0170894842594862, 0.01465535443276167, -0.0010876510059460998, -0.003431457094848156, 0.0006607297691516578, 0.029412856325507164, -0.0174257829785347, 0.000503824558109045, 0.016762906685471535, 0.002837316133081913, 0.0011211114469915628, 0.025466736406087875, 0.019923202693462372, -0.028403310105204582, 0.002094496274366975, 0.008633298799395561, 0.008618838153779507, -0.006091998424381018, 0.034308936446905136, 0.0008674317505210638, -0.02627389505505562, -0.030997363850474358, -0.04883347824215889], [-0.013058927841484547, -0.014719098806381226, -0.005518089514225721, 0.01606014184653759, 0.018936803564429283, -0.052152566611766815, 0.016118409112095833, -0.03296329826116562, 0.012816797941923141, 0.00668824790045619, 0.010968068614602089, 0.013163198716938496, -0.03784523159265518, 0.03242281824350357, -0.00940046925097704, 0.0484892912209034, 0.011225724592804909, -0.01795647293329239, -0.007215163670480251, -0.009563219733536243, 0.01583358459174633, -0.02784591354429722, 0.012337755411863327, 0.015180363319814205, 0.03451664000749588, -0.0008956141537055373, -0.018539926037192345, 0.0043497588485479355, 0.012365307658910751, -0.027921658009290695, -0.019658295437693596, 0.0007026920793578029], [0.007851647213101387, -0.03456754609942436, -0.034257300198078156, 0.013366305269300938, -0.002365637803450227, -0.010985352098941803, -0.01675988733768463, -0.01166036631911993, 0.016711095348000526, 0.017582900822162628, 0.007166654337197542, -4.2273750295862556e-06, -0.01711985468864441, 0.012609976343810558, 0.015626441687345505, 0.018703151494264603, 0.0042449478060007095, 0.010521620512008667, 0.01607435755431652, 0.0036092118825763464, -0.004065860062837601, -0.005771604832261801, -0.0009452842641621828, 0.0472746267914772, -0.01362881250679493, -0.006120136007666588, 0.010049614124000072, -0.0059499600902199745, 0.01753350719809532, -0.0441136509180069, -0.0029651012737303972, -0.021364036947488785], [-0.0036066886968910694, 0.00010609172750264406, -0.011581430211663246, 0.021960409358143806, -0.0025843242183327675, 0.029408995062112808, -0.01304981205612421, 0.03222009539604187, 0.013350162655115128, 0.009218037128448486, 0.030112074688076973, 0.025347646325826645, 0.019094722345471382, -0.0013278990518301725, 0.011689826846122742, 0.014391504228115082, 0.012490262277424335, 0.002117795404046774, -0.0158225167542696, -0.005999242886900902, 0.0222993902862072, 0.036959774792194366, -0.03985552117228508, -0.0019434214336797595, -0.032535161823034286, -0.012717495672404766, 0.01757865399122238, -0.01117843110114336, 0.008887078613042831, -0.01406268123537302, -0.02440517581999302, -0.011422310024499893], [0.432282418012619, 0.282446950674057, 0.5512131452560425, 0.34070977568626404, 0.16556210815906525, 0.03436167910695076, 0.012448703870177269, 0.007624695543199778, -0.011620630510151386, -0.013715148903429508, 0.007199050392955542, 0.0005142912268638611, 0.013690182007849216, -0.029659217223525047, -0.0005532820941880345, -0.008279820904135704, 0.8151693344116211, 0.5454419851303101, 0.07949479669332504, -0.1662691831588745, -0.06254395097494125, -0.04199611023068428, -0.00815546978265047, -0.029853997752070427, -0.013169510290026665, -0.006832147017121315, 0.0014088799944147468, 0.0014330080011859536, -0.006045862101018429, -0.007532151415944099, 0.00478304922580719, 0.017021087929606438], [0.00321008893661201, -0.022300399839878082, -0.015121878124773502, 0.008669392205774784, 0.015078596770763397, -0.021961014717817307, -0.015229161828756332, 0.01174162421375513, 0.01826176606118679, 0.006555680185556412, 0.003070017322897911, 0.0073151662945747375, -0.016450801864266396, 0.018017761409282684, 0.0014006466371938586, -0.00010123556421604007, -0.014010765589773655, 0.005317543633282185, -0.011252138763666153, -0.01656896062195301, 0.015296109952032566, -0.01979823037981987, -0.020263969898223877, 0.009992705658078194, -0.007776029407978058, -0.03113732300698757, 0.019814779981970787, 0.007981181144714355, 0.010518149472773075, -0.03294277936220169, 0.015278819017112255, -0.0035387391690164804], [-0.005545665044337511, -0.007554069627076387, 0.021251259371638298, -0.013165888376533985, 0.020514503121376038, -0.014950877986848354, 0.023380683735013008, -0.04526793211698532, 0.0007265950553119183, 0.01711755432188511, -0.011179938912391663, 0.005857371259480715, -0.032795585691928864, 0.003434145590290427, -0.027885228395462036, 0.009436667896807194, 0.01465178094804287, -0.02588011510670185, 0.0017247744835913181, 0.0010500026401132345, 0.015574046410620213, -0.024042531847953796, -0.001644074684008956, -0.007624946068972349, 0.047661829739809036, 0.02166566625237465, -0.033322401344776154, 0.04356515407562256, 0.0020186922047287226, 0.01777736283838749, -0.013081842102110386, -0.023982426151633263], [-0.24086402356624603, 0.15696851909160614, 0.6947017312049866, 0.3534981906414032, 0.16879622638225555, 0.08575911819934845, 0.021697619929909706, 0.047753848135471344, 0.021306294947862625, -0.0012557432055473328, -0.005878583528101444, -0.024073440581560135, -0.021406186744570732, -0.00413099629804492, -0.0017705595819279552, 0.012522497214376926, -0.7665485739707947, -0.13016560673713684, -0.23771469295024872, -0.15622836351394653, -0.05181807652115822, -0.1017506867647171, -0.01679195463657379, 0.0061347596347332, 0.027753649279475212, 0.017884306609630585, -0.00994773767888546, 0.019871927797794342, -0.0278468057513237, 0.0018465992761775851, 0.0020710660610347986, 0.018196159973740578], [0.03403839096426964, -0.021458396688103676, -0.010800296440720558, -0.0259128175675869, -0.004129014443606138, -0.010321971960365772, -0.009372543543577194, -0.00191748037468642, 0.0033475670497864485, -0.008024134673178196, -0.018794864416122437, -0.008818892762064934, -0.0101157296448946, -0.012793860398232937, -0.01271049864590168, -0.009975316002964973, -0.004587472882121801, 0.026062309741973877, 0.0025640223175287247, 0.008756794966757298, -0.03747226297855377, -0.011846029199659824, 0.01727886125445366, -0.0008472537738271058, -0.00933301541954279, 0.0008512534550391138, 0.022857774049043655, 0.008639911189675331, 0.000821787747554481, -5.910352410865016e-05, -0.020670438185334206, 0.01602262817323208], [0.21613632142543793, -0.07368400692939758, 0.05521750822663307, 0.07930061966180801, -0.03386565297842026, 0.02858831360936165, 0.05929572880268097, 0.02412491664290428, -0.009786686860024929, 0.004570621065795422, 0.037323419004678726, 0.014038698747754097, 0.025202598422765732, 0.033430688083171844, -0.015128793194890022, 0.026329902932047844, -0.06093723326921463, -0.06819871068000793, -0.04243006929755211, -0.06384497135877609, -0.030026361346244812, 0.017184536904096603, -0.0114555973559618, -0.01835476979613304, 0.026278957724571228, -0.0197426937520504, -0.022764742374420166, -0.021952249109745026, 0.004888974595814943, -0.009210106916725636, -0.006537380162626505, 0.01239349041134119], [-0.05254959315061569, 0.14298759400844574, -0.06215009093284607, -0.39320844411849976, -0.31119823455810547, -0.08177284151315689, -0.0987098291516304, -0.044728148728609085, -0.023752959445118904, -0.004008476156741381, 0.02216276153922081, 0.00955154001712799, -0.023987511172890663, -0.014735843986272812, 0.04379180073738098, -0.006622924469411373, 0.19850316643714905, -0.32620248198509216, -0.2961239814758301, -0.2173033505678177, 0.18648648262023926, 0.18731704354286194, 0.001485559158027172, -0.009143255650997162, -0.051402125507593155, 0.010156632401049137, -0.02759060263633728, -0.005212988704442978, -0.020253023132681847, -0.010695449076592922, -0.034806981682777405, -0.014704303815960884]], "t_proj.0.bias": [0.0029456475749611855, -0.004763346631079912, -0.1644650101661682, -0.0026495878119021654, 0.0017330875853076577, -0.007692059967666864, -0.014386270195245743, -0.0029950228054076433, 0.06578819453716278, -0.014717102982103825, 0.00814235582947731, -0.021109648048877716, -0.6677214503288269, -0.012992949225008488, -0.010719786398112774, -0.19867929816246033, -0.007434098515659571, -0.0013879960170015693, -0.01741681434214115, -0.019153980538249016, 0.02457699552178383, -0.02012275718152523, -0.008327772840857506, -0.011467847973108292, 0.006548580247908831, -0.004504682030528784, -0.004920519422739744, -0.005319872405380011, -0.0025616558268666267, -0.01595010980963707, -0.009107482619583607, -0.010265897959470749, -0.02023797482252121, -0.388156533241272, -0.13772183656692505, -0.011675981804728508, -0.056519657373428345, -0.006890050135552883, -0.0009029782959260046, -0.20832180976867676, -0.12378916889429092, 0.0029597501270473003, -0.0020279614254832268, -0.010824581608176231, -0.0032038637436926365, -0.009425012394785881, -0.3368910849094391, -0.008766675367951393, 0.001183969434350729, -0.0027156707365065813, -0.001854671398177743, -0.008434120565652847, -0.02977471798658371, -0.2729375660419464, -0.025753257796168327, -0.007486438378691673, -0.023989934474229813, 0.000713193032424897, -0.5433611869812012, -0.0018966802163049579, 0.004310185089707375, -0.005422756541520357, -0.010424608364701271, -0.011893820948898792, -0.004804966039955616, -0.16557194292545319, -0.7804659605026245, -0.013655215501785278, -0.012809771113097668, -0.006240900605916977, -0.024039942771196365, -0.014843057841062546, -0.013921193778514862, -0.027839763090014458, -0.8769003748893738, -0.012436104007065296, 0.0025226392317563295, -0.004408820997923613, -0.41265997290611267, -0.017036141827702522, -0.018118171021342278, 0.008297777734696865, -0.011259271763265133, -0.006242580711841583, -0.006179519463330507, -0.0028397110290825367, -0.015738628804683685, -0.011140896007418633, -0.35575446486473083, -0.012709448114037514, -0.009906220249831676, 0.003791231196373701, -0.002226819284260273, -0.00500102061778307, -0.018112197518348694, -0.00854536984115839, -0.13942785561084747, -0.006133473478257656, -0.3943311274051666, -0.010889137163758278, -0.011238199658691883, -0.02063329517841339, -0.2103518545627594, -0.22700534760951996, -0.0070122405886650085, -0.007581290788948536, -0.005679985973984003, -0.30738383531570435, -0.010831676423549652, 0.07754074782133102, -0.01370049174875021, -0.008962361142039299, -0.001676149433478713, 0.0005874895723536611, -0.003200820880010724, -0.008103356696665287, -0.012891377322375774, -0.019855305552482605, -0.00887342169880867, -0.014095772057771683, -0.012701781466603279, -0.6426694989204407, -0.0021987089421600103, -0.01494666188955307, 0.06134974956512451, -0.009079931303858757, -0.14468421041965485, -0.43190819025039673], "t_proj.2.weight": [[0.013638694770634174, 0.013446556404232979, 0.08130046725273132, 0.0005178331048227847, 0.0016742376610636711, -0.005554593168199062, -0.06598970293998718, 0.038220979273319244, 0.04428236559033394, 0.04215721786022186, -0.07656404376029968, -0.028640728443861008, 0.02404804155230522, 0.04693480208516121, 0.047998346388339996, -0.16666968166828156, -0.027863839641213417, -0.017895862460136414, -0.001222716411575675, 0.04531540349125862, 0.04594360664486885, 0.016782067716121674, -0.030420878902077675, 0.05651145428419113, -0.06506344676017761, 0.0022324426099658012, 0.0032797371968626976, -0.049774594604969025, -0.008577017113566399, -0.02312524802982807, 0.013037914410233498, 0.024226175621151924, 0.06796985864639282, 0.009529496543109417, -0.023106422275304794, -0.03988788649439812, -0.03519456833600998, -0.009815829806029797, 0.016148008406162262, -0.012662283144891262, -0.0500609427690506, -0.03456734120845795, -0.01653868891298771, 0.034154247492551804, 0.0046216328628361225, 0.014300418086349964, -0.1513449251651764, -0.017922868952155113, 0.014052613638341427, 0.013689217157661915, -0.05646606162190437, -0.013139784336090088, -0.042880650609731674, -0.03288445621728897, 0.0835513174533844, -0.026284513995051384, -0.006881678476929665, 0.04404259845614433, -0.0800895020365715, -0.01931700110435486, 0.031110523268580437, -0.06439808756113052, 0.01236521266400814, -0.0038371013943105936, -0.000712972367182374, 0.0891949012875557, 0.0632801428437233, 0.029670901596546173, -0.021514609456062317, 0.012087441049516201, 0.018338842317461967, -0.000702737714163959, -0.01325111836194992, 0.07681731134653091, -0.05092836543917656, 0.018050966784358025, 0.018380548804998398, -0.03672952577471733, -0.07772503793239594, -0.0033736922778189182, 0.029872704297304153, -0.04274445399641991, -0.0009185124654322863, -0.053750962018966675, 0.011056050658226013, 0.003997944761067629, -0.019983043894171715, -0.016198471188545227, -0.14901277422904968, 0.02451329305768013, -0.02668539248406887, -0.0039848145097494125, 0.023346034809947014, 0.016860952600836754, -0.030129780992865562, 0.038811180740594864, -0.007128093857318163, 0.016420511528849602, -0.03534680977463722, 0.047279905527830124, 0.04257528483867645, -0.003351135179400444, 0.07882525026798248, -0.03216194733977318, 0.03730347007513046, -0.02662762999534607, -0.00983387976884842, 0.024669218808412552, -0.000989603460766375, -0.04126814007759094, 0.022303828969597816, 0.044105902314186096, -0.026011710986495018, 0.004024251829832792, -0.0032882755622267723, -0.023220565170049667, 0.014517080970108509, 0.0003092613478656858, 0.015004430897533894, -0.025862393900752068, -0.007350430823862553, -0.06414809823036194, 0.03487914800643921, -0.001128027681261301, -0.0536353699862957, -0.02896115370094776, 0.06801055371761322, 0.02216893993318081], [-0.046631090342998505, 0.0017365104286000133, 0.05709776654839516, 0.02685253508388996, -0.08215352892875671, 0.03192752227187157, -0.05079182982444763, -0.021899932995438576, 0.07757209986448288, -0.001490127295255661, 0.05513014271855354, 0.055330198258161545, -0.006115577183663845, 0.007932542823255062, -0.02515009231865406, -0.13121365010738373, -0.07128176838159561, -0.006876436993479729, -0.030741067603230476, 0.06578140705823898, 0.043458227068185806, -0.0588236004114151, 0.0029395832680165768, -0.059018660336732864, 0.0008846423588693142, 0.03731337934732437, -0.021630488336086273, -0.005704034119844437, -0.009785724803805351, 0.04265037178993225, 0.010472889058291912, -0.034381233155727386, -0.02585623599588871, -0.1593107432126999, -0.0895354375243187, 0.0064683337695896626, -0.038474440574645996, -0.07368357479572296, 0.009833073243498802, 0.06140954792499542, 0.035161301493644714, 0.05026322230696678, -0.02534080110490322, 0.006817458663135767, -0.01847502402961254, -0.051053568720817566, -0.05445290356874466, -0.0667065978050232, -0.03514818474650383, -0.020953433588147163, 0.02124166116118431, 0.016421668231487274, 0.07126052677631378, 0.03999267518520355, -0.03986522927880287, -0.0015708842547610402, -0.0377148799598217, -0.0703481137752533, -0.10344899445772171, 0.0017706439830362797, -0.10397706925868988, -0.026423634961247444, -0.049802202731370926, -0.003835052251815796, -0.0006709986482746899, 0.11268851906061172, -0.2114834040403366, -0.03291997313499451, -0.017093069851398468, -0.06332013756036758, -0.04523181542754173, -0.06327836960554123, 0.015736011788249016, 0.013913746923208237, -0.35177192091941833, 0.046692732721567154, -0.07491032779216766, -0.0172768272459507, 0.07667473703622818, 0.056795939803123474, 0.03191203251481056, 0.004991046153008938, -0.018330885097384453, -0.001455671270377934, 0.02438286691904068, 0.0123288007453084, 0.012218128889799118, 0.002868549432605505, 0.11099579930305481, 0.03191244602203369, -0.014445913955569267, 0.016838438808918, -0.020566878840327263, 0.028529629111289978, -0.02191506139934063, -0.02404702827334404, -0.10105425119400024, -0.025869155302643776, -0.14360357820987701, 0.015087851323187351, 0.009352874010801315, -0.027773991227149963, -0.040634240955114365, 0.2679279148578644, -0.004220515489578247, -0.01405372191220522, -0.017343806102871895, 0.039231155067682266, 0.04266013205051422, 0.16758359968662262, 0.04791276529431343, 0.030815131962299347, -0.004636365920305252, 0.04294105991721153, -0.011998333036899567, -0.010149483568966389, 